{"learner":{"attributes":{"best_iteration":"48","best_score":"0.6322304995617879","scikit_learn":"{\"_estimator_type\": \"classifier\"}"},"feature_names":["tenure_months","mobility_3yr","firm_rep_count_at_contact","firm_net_change_12mo","is_wirehouse","is_broker_protocol","has_email","has_linkedin","has_firm_data","mobility_x_heavy_bleeding","short_tenure_x_high_mobility","experience_years","tenure_bucket_encoded","mobility_tier_encoded","firm_stability_tier_encoded","is_recent_mover","days_since_last_move","firm_departures_corrected","bleeding_velocity_encoded","is_independent_ria","is_ia_rep_type","is_dual_registered","age_bucket_encoded","cc_is_in_move_window","cc_is_too_early","is_likely_recent_promotee"],"feature_types":["int","int","int","int","int","int","int","int","int","int","int","float","int","int","int","int","int","int","int","int","int","int","int","int","int","int"],"gradient_booster":{"model":{"cats":{"enc":[],"feature_segments":[],"sorted_idx":[]},"gbtree_model_param":{"num_parallel_tree":"1","num_trees":"199"},"iteration_indptr":[0,1,2,3,4,5,6,7,8,9,10,11,12,13,14,15,16,17,18,19,20,21,22,23,24,25,26,27,28,29,30,31,32,33,34,35,36,37,38,39,40,41,42,43,44,45,46,47,48,49,50,51,52,53,54,55,56,57,58,59,60,61,62,63,64,65,66,67,68,69,70,71,72,73,74,75,76,77,78,79,80,81,82,83,84,85,86,87,88,89,90,91,92,93,94,95,96,97,98,99,100,101,102,103,104,105,106,107,108,109,110,111,112,113,114,115,116,117,118,119,120,121,122,123,124,125,126,127,128,129,130,131,132,133,134,135,136,137,138,139,140,141,142,143,144,145,146,147,148,149,150,151,152,153,154,155,156,157,158,159,160,161,162,163,164,165,166,167,168,169,170,171,172,173,174,175,176,177,178,179,180,181,182,183,184,185,186,187,188,189,190,191,192,193,194,195,196,197,198,199],"tree_info":[0,0,0,0,0,0,0,0,0,0,0,0,0,0,0,0,0,0,0,0,0,0,0,0,0,0,0,0,0,0,0,0,0,0,0,0,0,0,0,0,0,0,0,0,0,0,0,0,0,0,0,0,0,0,0,0,0,0,0,0,0,0,0,0,0,0,0,0,0,0,0,0,0,0,0,0,0,0,0,0,0,0,0,0,0,0,0,0,0,0,0,0,0,0,0,0,0,0,0,0,0,0,0,0,0,0,0,0,0,0,0,0,0,0,0,0,0,0,0,0,0,0,0,0,0,0,0,0,0,0,0,0,0,0,0,0,0,0,0,0,0,0,0,0,0,0,0,0,0,0,0,0,0,0,0,0,0,0,0,0,0,0,0,0,0,0,0,0,0,0,0,0,0,0,0,0,0,0,0,0,0,0,0,0,0,0,0,0,0,0,0,0,0,0,0,0,0,0,0],"trees":[{"base_weights":[1.9814066E1,1.3183104E-1,2.1017462E1,2.3947412E-1,1.5812026E-1],"categories":[],"categories_nodes":[],"categories_segments":[],"categories_sizes":[],"default_left":[0,0,0,0,0],"id":0,"left_children":[1,-1,3,-1,-1],"loss_changes":[3.8886562E3,0E0,6.5239375E3,0E0,0E0],"parents":[2147483647,0,0,2,2],"right_children":[2,-1,4,-1,-1],"split_conditions":[1E0,1.3183104E-1,1.29E2,2.3947412E-1,1.5812026E-1],"split_indices":[14,0,0,0,0],"split_type":[0,0,0,0,0],"sum_hessian":[6.6021814E2,1.1072212E2,5.4949603E2,3.399539E2,2.0954214E2],"tree_param":{"num_deleted":"0","num_feature":"26","num_nodes":"5","size_leaf_vector":"1"}},{"base_weights":[1.7198862E1,2.0137869E1,1.4009733E1,1.8368322E-1,2.3767833E-1,9.697315E-2,1.5380865E-1],"categories":[],"categories_nodes":[],"categories_segments":[],"categories_sizes":[],"default_left":[0,0,0,0,0,0,0],"id":1,"left_children":[1,3,5,-1,-1,-1,-1],"loss_changes":[6.4418594E3,5.1325E2,1.7133906E3,0E0,0E0,0E0,0E0],"parents":[2147483647,0,0,1,1,2,2],"right_children":[2,4,6,-1,-1,-1,-1],"split_conditions":[4E0,5.139E3,1E0,1.8368322E-1,2.3767833E-1,9.697315E-2,1.5380865E-1],"split_indices":[12,16,6,0,0,0,0],"split_type":[0,0,0,0,0,0,0],"sum_hessian":[8.364322E2,4.212938E2,4.1513837E2,3.0378174E2,1.1751205E2,1.100636E2,3.0507477E2],"tree_param":{"num_deleted":"0","num_feature":"26","num_nodes":"7","size_leaf_vector":"1"}},{"base_weights":[1.4424607E1,1.627796E1,1.237083E1,1.0902984E-1,1.6892992E-1,1.2922083E-1,8.420416E-2],"categories":[],"categories_nodes":[],"categories_segments":[],"categories_sizes":[],"default_left":[0,0,0,0,0,0,0],"id":2,"left_children":[1,3,5,-1,-1,-1,-1],"loss_changes":[2.7004844E3,7.036719E2,4.9442188E2,0E0,0E0,0E0,0E0],"parents":[2147483647,0,0,1,1,2,2],"right_children":[2,4,6,-1,-1,-1,-1],"split_conditions":[4E0,2E0,2.1083334E1,1.0902984E-1,1.6892992E-1,1.2922083E-1,8.420416E-2],"split_indices":[12,11,11,0,0,0,0],"split_type":[0,0,0,0,0,0,0],"sum_hessian":[9.765144E2,4.9484473E2,4.816697E2,6.059024E1,4.342545E2,4.1249957E2,6.917012E1],"tree_param":{"num_deleted":"0","num_feature":"26","num_nodes":"7","size_leaf_vector":"1"}},{"base_weights":[1.2423764E1,9.326438E0,1.3352558E1,1.16260834E-1,6.300463E-2,1.4483732E-1,1.19928755E-1],"categories":[],"categories_nodes":[],"categories_segments":[],"categories_sizes":[],"default_left":[0,0,0,0,0,0,0],"id":3,"left_children":[1,3,5,-1,-1,-1,-1],"loss_changes":[2.552875E3,1.517625E3,4.0226562E2,0E0,0E0,0E0,0E0],"parents":[2147483647,0,0,1,1,2,2],"right_children":[2,4,6,-1,-1,-1,-1],"split_conditions":[1E0,4E0,4E0,1.16260834E-1,6.300463E-2,1.4483732E-1,1.19928755E-1],"split_indices":[6,12,12,0,0,0,0],"split_type":[0,0,0,0,0,0,0],"sum_hessian":[1.1067374E3,2.6829974E2,8.384377E2,1.4418373E2,1.2411603E2,4.309318E2,4.0750586E2],"tree_param":{"num_deleted":"0","num_feature":"26","num_nodes":"7","size_leaf_vector":"1"}},{"base_weights":[1.0564383E1,1.20330706E-1,8.786035E0,9.4834514E-2,5.4169435E-2],"categories":[],"categories_nodes":[],"categories_segments":[],"categories_sizes":[],"default_left":[0,0,0,0,0],"id":4,"left_children":[1,-1,3,-1,-1],"loss_changes":[2.5965156E3,0E0,1.052625E3,0E0,0E0],"parents":[2147483647,0,0,2,2],"right_children":[2,-1,4,-1,-1],"split_conditions":[4E0,1.20330706E-1,2.03E2,9.4834514E-2,5.4169435E-2],"split_indices":[12,0,0,0,0],"split_type":[0,0,0,0,0],"sum_hessian":[1.1994907E3,6.4084247E2,5.5864825E2,4.5507465E2,1.0357362E2],"tree_param":{"num_deleted":"0","num_feature":"26","num_nodes":"5","size_leaf_vector":"1"}},{"base_weights":[9.726565E0,8.9809E0,1.2497262E-1,9.27444E-2,2.2157617E-2],"categories":[],"categories_nodes":[],"categories_segments":[],"categories_sizes":[],"default_left":[0,0,0,0,0],"id":5,"left_children":[1,3,-1,-1,-1],"loss_changes":[2.2001953E3,2.0292734E3,0E0,0E0,0E0],"parents":[2147483647,0,0,1,1],"right_children":[2,4,-1,-1,-1],"split_conditions":[9.999E3,5.93E3,1.2497262E-1,9.27444E-2,2.2157617E-2],"split_indices":[16,16,0,0,0],"split_type":[0,0,0,0,0],"sum_hessian":[1.341975E3,1.0743955E3,2.675795E2,1.0277968E3,4.6598705E1],"tree_param":{"num_deleted":"0","num_feature":"26","num_nodes":"5","size_leaf_vector":"1"}},{"base_weights":[8.851505E0,9.990245E0,7.688049E0,1.02891155E-1,4.44837E-2,8.9387126E-2,6.4244315E-2],"categories":[],"categories_nodes":[],"categories_segments":[],"categories_sizes":[],"default_left":[0,0,0,0,0,0,0],"id":6,"left_children":[1,3,5,-1,-1,-1,-1],"loss_changes":[1.512125E3,9.371797E2,8.616758E2,0E0,0E0,0E0,0E0],"parents":[2147483647,0,0,1,1,2,2],"right_children":[2,4,6,-1,-1,-1,-1],"split_conditions":[1E0,8.24E2,4E0,1.02891155E-1,4.44837E-2,8.9387126E-2,6.4244315E-2],"split_indices":[21,2,12,0,0,0,0],"split_type":[0,0,0,0,0,0,0],"sum_hessian":[1.4395427E3,7.078938E2,7.31649E2,6.674358E2,4.0458042E1,3.5204843E2,3.7960056E2],"tree_param":{"num_deleted":"0","num_feature":"26","num_nodes":"7","size_leaf_vector":"1"}},{"base_weights":[8.253688E0,7.770152E0,9.157152E0,8.4398486E-2,6.608757E-2,9.655132E-2,5.0420217E-2],"categories":[],"categories_nodes":[],"categories_segments":[],"categories_sizes":[],"default_left":[0,0,0,0,0,0,0],"id":7,"left_children":[1,3,5,-1,-1,-1,-1],"loss_changes":[3.2733594E2,5.441406E2,8.278047E2,0E0,0E0,0E0,0E0],"parents":[2147483647,0,0,1,1,2,2],"right_children":[2,4,6,-1,-1,-1,-1],"split_conditions":[1E0,0E0,1E0,8.4398486E-2,6.608757E-2,9.655132E-2,5.0420217E-2],"split_indices":[19,3,4,0,0,0,0],"split_type":[0,0,0,0,0,0,0],"sum_hessian":[1.5974219E3,1.0725175E3,5.249045E2,6.598384E2,4.126791E2,4.6202026E2,6.28842E1],"tree_param":{"num_deleted":"0","num_feature":"26","num_nodes":"7","size_leaf_vector":"1"}},{"base_weights":[7.6124883E0,5.938622E0,8.114462E0,6.3105755E-2,1.9405792E-2,7.688166E-2,9.6505366E-2],"categories":[],"categories_nodes":[],"categories_segments":[],"categories_sizes":[],"default_left":[0,0,0,0,0,0,0],"id":8,"left_children":[1,3,5,-1,-1,-1,-1],"loss_changes":[1.17025E3,5.408701E2,4.569375E2,0E0,0E0,0E0,0E0],"parents":[2147483647,0,0,1,1,2,2],"right_children":[2,4,6,-1,-1,-1,-1],"split_conditions":[1E0,1.139E3,9.999E3,6.3105755E-2,1.9405792E-2,7.688166E-2,9.6505366E-2],"split_indices":[6,17,16,0,0,0,0],"split_type":[0,0,0,0,0,0,0],"sum_hessian":[1.6912424E3,4.0543503E2,1.2858074E3,3.6805154E2,3.7383476E1,1.0304974E3,2.5530994E2],"tree_param":{"num_deleted":"0","num_feature":"26","num_nodes":"7","size_leaf_vector":"1"}},{"base_weights":[7.15536E0,7.9203568E0,6.3632436E0,7.4222706E-2,9.171943E-2,5.089358E-2,6.645061E-2],"categories":[],"categories_nodes":[],"categories_segments":[],"categories_sizes":[],"default_left":[0,0,0,0,0,0,0],"id":9,"left_children":[1,3,5,-1,-1,-1,-1],"loss_changes":[8.7228906E2,2.2575E2,1.599336E2,0E0,0E0,0E0,0E0],"parents":[2147483647,0,0,1,1,2,2],"right_children":[2,4,6,-1,-1,-1,-1],"split_conditions":[1E0,9.971E3,1E0,7.4222706E-2,9.171943E-2,5.089358E-2,6.645061E-2],"split_indices":[21,16,17,0,0,0,0],"split_type":[0,0,0,0,0,0,0],"sum_hessian":[1.873936E3,9.2975574E2,9.4418036E2,6.904373E2,2.3931837E2,1.8894522E2,7.552351E2],"tree_param":{"num_deleted":"0","num_feature":"26","num_nodes":"7","size_leaf_vector":"1"}},{"base_weights":[6.627386E0,6.116023E0,7.817339E0,5.6469906E-2,7.630613E-2,2.5321968E-2,8.087397E-2],"categories":[],"categories_nodes":[],"categories_segments":[],"categories_sizes":[],"default_left":[0,0,0,0,0,0,0],"id":10,"left_children":[1,3,5,-1,-1,-1,-1],"loss_changes":[9.419844E2,7.637578E2,7.0295703E2,0E0,0E0,0E0,0E0],"parents":[2147483647,0,0,1,1,2,2],"right_children":[2,4,6,-1,-1,-1,-1],"split_conditions":[1E0,9.255E3,6.78E2,5.6469906E-2,7.630613E-2,2.5321968E-2,8.087397E-2],"split_indices":[20,16,16,0,0,0,0],"split_type":[0,0,0,0,0,0,0],"sum_hessian":[1.9587899E3,1.3920974E3,5.6669257E2,1.0814885E3,3.1060883E2,3.0251194E1,5.364414E2],"tree_param":{"num_deleted":"0","num_feature":"26","num_nodes":"7","size_leaf_vector":"1"}},{"base_weights":[6.1091433E0,6.751365E0,5.418218E0,6.858469E-2,3.601081E-2,4.8538275E-2,6.335692E-2],"categories":[],"categories_nodes":[],"categories_segments":[],"categories_sizes":[],"default_left":[0,0,0,0,0,0,0],"id":11,"left_children":[1,3,5,-1,-1,-1,-1],"loss_changes":[7.056172E2,2.1389062E2,3.5488672E2,0E0,0E0,0E0,0E0],"parents":[2147483647,0,0,1,1,2,2],"right_children":[2,4,6,-1,-1,-1,-1],"split_conditions":[1E0,1.152E3,1.8833334E1,6.858469E-2,3.601081E-2,4.8538275E-2,6.335692E-2],"split_indices":[21,17,11,0,0,0,0],"split_type":[0,0,0,0,0,0,0],"sum_hessian":[2.0248352E3,1.0259238E3,9.989114E2,9.861921E2,3.9731705E1,6.386088E2,3.6030255E2],"tree_param":{"num_deleted":"0","num_feature":"26","num_nodes":"7","size_leaf_vector":"1"}},{"base_weights":[5.4926834E0,4.179039E0,5.881481E0,4.9025815E-2,2.302519E-2,6.40449E-2,5.245724E-2],"categories":[],"categories_nodes":[],"categories_segments":[],"categories_sizes":[],"default_left":[0,0,0,0,0,0,0],"id":12,"left_children":[1,3,5,-1,-1,-1,-1],"loss_changes":[9.268164E2,6.040029E2,3.4847266E2,0E0,0E0,0E0,0E0],"parents":[2147483647,0,0,1,1,2,2],"right_children":[2,4,6,-1,-1,-1,-1],"split_conditions":[1E0,1.45E2,1E0,4.9025815E-2,2.302519E-2,6.40449E-2,5.245724E-2],"split_indices":[6,17,21,0,0,0,0],"split_type":[0,0,0,0,0,0,0],"sum_hessian":[2.0699749E3,4.86736E2,1.5832389E3,3.450838E2,1.416522E2,8.4288934E2,7.4034955E2],"tree_param":{"num_deleted":"0","num_feature":"26","num_nodes":"7","size_leaf_vector":"1"}},{"base_weights":[5.401486E0,4.2170324E0,5.748537E0,3.380793E-2,6.4150415E-2,5.8261998E-2,2.4385761E-2],"categories":[],"categories_nodes":[],"categories_segments":[],"categories_sizes":[],"default_left":[0,0,0,0,0,0,0],"id":13,"left_children":[1,3,5,-1,-1,-1,-1],"loss_changes":[7.746758E2,8.3533203E2,3.5510156E2,0E0,0E0,0E0,0E0],"parents":[2147483647,0,0,1,1,2,2],"right_children":[2,4,6,-1,-1,-1,-1],"split_conditions":[1E0,6.717E3,2.094E3,3.380793E-2,6.4150415E-2,5.8261998E-2,2.4385761E-2],"split_indices":[6,16,2,0,0,0,0],"split_type":[0,0,0,0,0,0,0],"sum_hessian":[2.198664E3,5.137889E2,1.6848751E3,3.8171115E2,1.320777E2,1.6422396E3,4.2635498E1],"tree_param":{"num_deleted":"0","num_feature":"26","num_nodes":"7","size_leaf_vector":"1"}},{"base_weights":[5.2114434E0,4.936959E0,6.2172794E0,5.2469887E-2,4.0373478E-2,6.4338714E-2,3.4289386E-2],"categories":[],"categories_nodes":[],"categories_segments":[],"categories_sizes":[],"default_left":[0,0,0,0,0,0,0],"id":14,"left_children":[1,3,5,-1,-1,-1,-1],"loss_changes":[4.8846484E2,4.1010156E2,1.7399219E2,0E0,0E0,0E0,0E0],"parents":[2147483647,0,0,1,1,2,2],"right_children":[2,4,6,-1,-1,-1,-1],"split_conditions":[9.999E3,3.337E3,1.539E3,5.2469887E-2,4.0373478E-2,6.4338714E-2,3.4289386E-2],"split_indices":[16,16,2,0,0,0,0],"split_type":[0,0,0,0,0,0,0],"sum_hessian":[2.3605222E3,1.8784448E3,4.8207727E2,1.3782046E3,5.0024023E2,4.4093106E2,4.1146214E1],"tree_param":{"num_deleted":"0","num_feature":"26","num_nodes":"7","size_leaf_vector":"1"}},{"base_weights":[4.8748107E0,4.711983E0,6.3327675E0,3.7802406E-2,4.9821004E-2,6.900981E-2,4.596179E-2],"categories":[],"categories_nodes":[],"categories_segments":[],"categories_sizes":[],"default_left":[0,0,0,0,0,0,0],"id":15,"left_children":[1,3,5,-1,-1,-1,-1],"loss_changes":[4.2267578E2,4.580547E2,5.8374023E1,0E0,0E0,0E0,0E0],"parents":[2147483647,0,0,1,1,2,2],"right_children":[2,4,6,-1,-1,-1,-1],"split_conditions":[1E0,1E0,2E0,3.7802406E-2,4.9821004E-2,6.900981E-2,4.596179E-2],"split_indices":[1,6,22,0,0,0,0],"split_type":[0,0,0,0,0,0,0],"sum_hessian":[2.4504783E3,2.2239485E3,2.2652971E2,5.175141E2,1.7064343E3,1.5904486E2,6.748485E1],"tree_param":{"num_deleted":"0","num_feature":"26","num_nodes":"7","size_leaf_vector":"1"}},{"base_weights":[4.7124844E0,4.461861E0,5.618406E0,4.7738027E-2,2.8570374E-2,4.3201193E-2,5.955436E-2],"categories":[],"categories_nodes":[],"categories_segments":[],"categories_sizes":[],"default_left":[0,0,0,0,0,0,0],"id":16,"left_children":[1,3,5,-1,-1,-1,-1],"loss_changes":[4.466797E2,9.421094E2,9.5365234E1,0E0,0E0,0E0,0E0],"parents":[2147483647,0,0,1,1,2,2],"right_children":[2,4,6,-1,-1,-1,-1],"split_conditions":[9.255E3,3.975E3,2E0,4.7738027E-2,2.8570374E-2,4.3201193E-2,5.955436E-2],"split_indices":[16,16,11,0,0,0,0],"split_type":[0,0,0,0,0,0,0],"sum_hessian":[2.5588076E3,2.0283844E3,5.304232E2,1.6894893E3,3.3889514E2,1.24168335E2,4.0625488E2],"tree_param":{"num_deleted":"0","num_feature":"26","num_nodes":"7","size_leaf_vector":"1"}},{"base_weights":[4.2956133E0,3.9907205E0,5.3568196E0,2.8446713E-2,4.3149386E-2,5.82199E-2,4.1412983E-2],"categories":[],"categories_nodes":[],"categories_segments":[],"categories_sizes":[],"default_left":[0,0,0,0,0,0,0],"id":17,"left_children":[1,3,5,-1,-1,-1,-1],"loss_changes":[7.1264844E2,6.784629E2,1.8409668E2,0E0,0E0,0E0,0E0],"parents":[2147483647,0,0,1,1,2,2],"right_children":[2,4,6,-1,-1,-1,-1],"split_conditions":[9.255E3,1E0,6.1E1,2.8446713E-2,4.3149386E-2,5.82199E-2,4.1412983E-2],"split_indices":[16,6,0,0,0,0,0],"split_type":[0,0,0,0,0,0,0],"sum_hessian":[2.5567996E3,2.0053827E3,5.514168E2,4.5367664E2,1.551706E3,3.8450027E2,1.669165E2],"tree_param":{"num_deleted":"0","num_feature":"26","num_nodes":"7","size_leaf_vector":"1"}},{"base_weights":[4.2180586E0,3.9953134E0,4.9908624E0,3.6577173E-2,4.7682192E-2,5.198347E-2,2.575574E-2],"categories":[],"categories_nodes":[],"categories_segments":[],"categories_sizes":[],"default_left":[0,0,0,0,0,0,0],"id":18,"left_children":[1,3,5,-1,-1,-1,-1],"loss_changes":[3.555E2,4.5736328E2,2.1707715E2,0E0,0E0,0E0,0E0],"parents":[2147483647,0,0,1,1,2,2],"right_children":[2,4,6,-1,-1,-1,-1],"split_conditions":[9.255E3,1E0,2E0,3.6577173E-2,4.7682192E-2,5.198347E-2,2.575574E-2],"split_indices":[16,20,3,0,0,0,0],"split_type":[0,0,0,0,0,0,0],"sum_hessian":[2.6915803E3,2.114315E3,5.772655E2,1.492406E3,6.2190894E2,5.259118E2,5.1353687E1],"tree_param":{"num_deleted":"0","num_feature":"26","num_nodes":"7","size_leaf_vector":"1"}},{"base_weights":[4.131922E0,4.501579E0,3.718878E0,1.640869E-2,4.5769528E-2,3.78112E-2,1.1016983E-2],"categories":[],"categories_nodes":[],"categories_segments":[],"categories_sizes":[],"default_left":[0,0,0,0,0,0,0],"id":19,"left_children":[1,3,5,-1,-1,-1,-1],"loss_changes":[3.4277344E2,2.7479102E2,1.9821875E2,0E0,0E0,0E0,0E0],"parents":[2147483647,0,0,1,1,2,2],"right_children":[2,4,6,-1,-1,-1,-1],"split_conditions":[1E0,2.28E2,2.82E2,1.640869E-2,4.5769528E-2,3.78112E-2,1.1016983E-2],"split_indices":[21,16,0,0,0,0,0],"split_type":[0,0,0,0,0,0,0],"sum_hessian":[2.842032E3,1.4723901E3,1.3696418E3,4.1062008E1,1.4313281E3,1.3352803E3,3.4361515E1],"tree_param":{"num_deleted":"0","num_feature":"26","num_nodes":"7","size_leaf_vector":"1"}},{"base_weights":[3.7821887E0,2.7271113E0,3.9582753E0,3.37024E-2,1.147708E-2,3.2079004E-2,4.16576E-2],"categories":[],"categories_nodes":[],"categories_segments":[],"categories_sizes":[],"default_left":[0,0,0,0,0,0,0],"id":20,"left_children":[1,3,5,-1,-1,-1,-1],"loss_changes":[4.6046094E2,4.0079834E2,2.9821094E2,0E0,0E0,0E0,0E0],"parents":[2147483647,0,0,1,1,2,2],"right_children":[2,4,6,-1,-1,-1,-1],"split_conditions":[1E0,4.796E3,1E0,3.37024E-2,1.147708E-2,3.2079004E-2,4.16576E-2],"split_indices":[8,16,6,0,0,0,0],"split_type":[0,0,0,0,0,0,0],"sum_hessian":[2.7999797E3,4.1306836E2,2.3869114E3,2.8906097E2,1.24007416E2,5.3590814E2,1.8510033E3],"tree_param":{"num_deleted":"0","num_feature":"26","num_nodes":"7","size_leaf_vector":"1"}},{"base_weights":[3.6172302E0,3.6727545E0,4.3312977E-3,4.686095E-2,3.495447E-2],"categories":[],"categories_nodes":[],"categories_segments":[],"categories_sizes":[],"default_left":[0,0,0,0,0],"id":21,"left_children":[1,3,-1,-1,-1],"loss_changes":[4.9905078E2,4.2026562E2,0E0,0E0,0E0],"parents":[2147483647,0,0,1,1],"right_children":[2,4,-1,-1,-1],"split_conditions":[4E0,3E0,4.3312977E-3,4.686095E-2,3.495447E-2],"split_indices":[22,12,0,0,0],"split_type":[0,0,0,0,0],"sum_hessian":[2.8859448E3,2.8354192E3,5.0525574E1,4.0246777E2,2.4329514E3],"tree_param":{"num_deleted":"0","num_feature":"26","num_nodes":"5","size_leaf_vector":"1"}},{"base_weights":[3.5955436E0,4.010412E0,3.0991669E0,4.060083E-2,2.0868884E-2,1.7460337E-2,3.4545388E-2],"categories":[],"categories_nodes":[],"categories_segments":[],"categories_sizes":[],"default_left":[0,0,0,0,0,0,0],"id":22,"left_children":[1,3,5,-1,-1,-1,-1],"loss_changes":[5.583633E2,1.08375E2,6.429746E2,0E0,0E0,0E0,0E0],"parents":[2147483647,0,0,1,1,2,2],"right_children":[2,4,6,-1,-1,-1,-1],"split_conditions":[4E0,2.232E3,1E0,4.060083E-2,2.0868884E-2,1.7460337E-2,3.4545388E-2],"split_indices":[12,2,6,0,0,0,0],"split_type":[0,0,0,0,0,0,0],"sum_hessian":[3.042706E3,1.6370538E3,1.4056522E3,1.5899243E3,4.7129536E1,2.9911307E2,1.1065392E3],"tree_param":{"num_deleted":"0","num_feature":"26","num_nodes":"7","size_leaf_vector":"1"}},{"base_weights":[3.3888743E0,3.4377015E0,-1.1623381E-3,3.8069714E-2,2.9751167E-2],"categories":[],"categories_nodes":[],"categories_segments":[],"categories_sizes":[],"default_left":[0,0,0,0,0],"id":23,"left_children":[1,3,-1,-1,-1],"loss_changes":[5.361133E2,4.5916797E2,0E0,0E0,0E0],"parents":[2147483647,0,0,1,1],"right_children":[2,4,-1,-1,-1],"split_conditions":[4E0,4E0,-1.1623381E-3,3.8069714E-2,2.9751167E-2],"split_indices":[22,12,0,0,0],"split_type":[0,0,0,0,0],"sum_hessian":[3.0964346E3,3.054269E3,4.2165485E1,1.6771394E3,1.3771296E3],"tree_param":{"num_deleted":"0","num_feature":"26","num_nodes":"5","size_leaf_vector":"1"}},{"base_weights":[3.303598E0,3.6505153E0,2.9264753E0,1.06223095E-2,3.701928E-2,1.654609E-2,3.1134719E-2],"categories":[],"categories_nodes":[],"categories_segments":[],"categories_sizes":[],"default_left":[0,0,0,0,0,0,0],"id":24,"left_children":[1,3,5,-1,-1,-1,-1],"loss_changes":[3.5433594E2,1.9219922E2,3.3668457E2,0E0,0E0,0E0,0E0],"parents":[2147483647,0,0,1,1,2,2],"right_children":[2,4,6,-1,-1,-1,-1],"split_conditions":[1E0,1E0,1E0,1.06223095E-2,3.701928E-2,1.654609E-2,3.1134719E-2],"split_indices":[21,7,8,0,0,0,0],"split_type":[0,0,0,0,0,0,0],"sum_hessian":[3.1618848E3,1.6229092E3,1.5389756E3,3.409725E1,1.588812E3,2.0426262E2,1.334713E3],"tree_param":{"num_deleted":"0","num_feature":"26","num_nodes":"7","size_leaf_vector":"1"}},{"base_weights":[3.2560203E0,3.5587707E0,2.9282343E0,3.5963695E-2,1.2932834E-2,1.9170854E-2,3.0767864E-2],"categories":[],"categories_nodes":[],"categories_segments":[],"categories_sizes":[],"default_left":[0,0,0,0,0,0,0],"id":25,"left_children":[1,3,5,-1,-1,-1,-1],"loss_changes":[2.6428125E2,1.1380859E2,2.0464258E2,0E0,0E0,0E0,0E0],"parents":[2147483647,0,0,1,1,2,2],"right_children":[2,4,6,-1,-1,-1,-1],"split_conditions":[1E0,1.883E3,1E0,3.5963695E-2,1.2932834E-2,1.9170854E-2,3.0767864E-2],"split_indices":[21,2,14,0,0,0,0],"split_type":[0,0,0,0,0,0,0],"sum_hessian":[3.2485352E3,1.6615518E3,1.5869833E3,1.6311027E3,3.04491E1,2.1305322E2,1.37393E3],"tree_param":{"num_deleted":"0","num_feature":"26","num_nodes":"7","size_leaf_vector":"1"}},{"base_weights":[3.096876E0,3.4070492E0,2.7156372E0,2.0481197E-2,3.570531E-2,3.6603108E-2,2.4066886E-2],"categories":[],"categories_nodes":[],"categories_segments":[],"categories_sizes":[],"default_left":[0,0,0,0,0,0,0],"id":26,"left_children":[1,3,5,-1,-1,-1,-1],"loss_changes":[3.3707617E2,3.5658203E2,3.8871875E2,0E0,0E0,0E0,0E0],"parents":[2147483647,0,0,1,1,2,2],"right_children":[2,4,6,-1,-1,-1,-1],"split_conditions":[4E0,2E0,2.009E3,2.0481197E-2,3.570531E-2,3.6603108E-2,2.4066886E-2],"split_indices":[12,11,16,0,0,0,0],"split_type":[0,0,0,0,0,0,0],"sum_hessian":[3.2885398E3,1.7899452E3,1.4985946E3,2.0013066E2,1.5898146E3,3.5515628E2,1.1434384E3],"tree_param":{"num_deleted":"0","num_feature":"26","num_nodes":"7","size_leaf_vector":"1"}},{"base_weights":[3.0557318E0,3.0998821E0,-9.6274465E-3,2.8991278E-2,3.7913863E-2],"categories":[],"categories_nodes":[],"categories_segments":[],"categories_sizes":[],"default_left":[0,0,0,0,0],"id":27,"left_children":[1,3,-1,-1,-1],"loss_changes":[6.270703E2,4.1067383E2,0E0,0E0,0E0],"parents":[2147483647,0,0,1,1],"right_children":[2,4,-1,-1,-1],"split_conditions":[3E2,9.255E3,-9.6274465E-3,2.8991278E-2,3.7913863E-2],"split_indices":[0,16,0,0,0],"split_type":[0,0,0,0,0],"sum_hessian":[3.433287E3,3.3973528E3,3.593435E1,2.6542048E3,7.4314795E2],"tree_param":{"num_deleted":"0","num_feature":"26","num_nodes":"5","size_leaf_vector":"1"}},{"base_weights":[2.8587596E0,3.0052981E0,2.0367646E0,3.0548181E-2,-1.6412822E-3,1.895907E-3,2.5616638E-2],"categories":[],"categories_nodes":[],"categories_segments":[],"categories_sizes":[],"default_left":[0,0,0,0,0,0,0],"id":28,"left_children":[1,3,5,-1,-1,-1,-1],"loss_changes":[3.8098828E2,4.6432422E2,5.182715E2,0E0,0E0,0E0,0E0],"parents":[2147483647,0,0,1,1,2,2],"right_children":[2,4,6,-1,-1,-1,-1],"split_conditions":[6.61E2,2.82E2,4.5E0,3.0548181E-2,-1.6412822E-3,1.895907E-3,2.5616638E-2],"split_indices":[2,0,11,0,0,0,0],"split_type":[0,0,0,0,0,0,0],"sum_hessian":[3.4538809E3,2.919007E3,5.348738E2,2.8745898E3,4.4417118E1,1.2028604E2,4.1458774E2],"tree_param":{"num_deleted":"0","num_feature":"26","num_nodes":"7","size_leaf_vector":"1"}},{"base_weights":[2.9430814E0,3.3497648E0,2.7603216E0,2.2586027E-2,3.5259437E-2,6.7242305E-3,2.8330075E-2],"categories":[],"categories_nodes":[],"categories_segments":[],"categories_sizes":[],"default_left":[0,0,0,0,0,0,0],"id":29,"left_children":[1,3,5,-1,-1,-1,-1],"loss_changes":[2.1845898E2,1.667373E2,3.730332E2,0E0,0E0,0E0,0E0],"parents":[2147483647,0,0,1,1,2,2],"right_children":[2,4,6,-1,-1,-1,-1],"split_conditions":[1.581E3,2.49E2,-1.261E3,2.2586027E-2,3.5259437E-2,6.7242305E-3,2.8330075E-2],"split_indices":[16,16,3,0,0,0,0],"split_type":[0,0,0,0,0,0,0],"sum_hessian":[3.6384417E3,1.0995564E3,2.5388853E3,1.6324933E2,9.36307E2,8.759999E1,2.4512852E3],"tree_param":{"num_deleted":"0","num_feature":"26","num_nodes":"7","size_leaf_vector":"1"}},{"base_weights":[2.7880285E0,2.8173416E0,8.624082E-3,2.8453832E-2,9.394184E-3],"categories":[],"categories_nodes":[],"categories_segments":[],"categories_sizes":[],"default_left":[0,0,0,0,0],"id":30,"left_children":[1,3,-1,-1,-1],"loss_changes":[1.9112305E2,1.7288672E2,0E0,0E0,0E0],"parents":[2147483647,0,0,1,1],"right_children":[2,4,-1,-1,-1],"split_conditions":[2.307E3,4E0,8.624082E-3,2.8453832E-2,9.394184E-3],"split_indices":[2,22,0,0,0],"split_type":[0,0,0,0,0],"sum_hessian":[3.6613843E3,3.603692E3,5.769227E1,3.5476091E3,5.6082863E1],"tree_param":{"num_deleted":"0","num_feature":"26","num_nodes":"5","size_leaf_vector":"1"}},{"base_weights":[2.5514133E0,2.5912292E0,-2.7160507E-3,2.4061445E-2,3.2525048E-2],"categories":[],"categories_nodes":[],"categories_segments":[],"categories_sizes":[],"default_left":[0,0,0,0,0],"id":31,"left_children":[1,3,-1,-1,-1],"loss_changes":[4.101836E2,3.8947266E2,0E0,0E0,0E0],"parents":[2147483647,0,0,1,1],"right_children":[2,4,-1,-1,-1],"split_conditions":[4E0,9.255E3,-2.7160507E-3,2.4061445E-2,3.2525048E-2],"split_indices":[22,16,0,0,0],"split_type":[0,0,0,0,0],"sum_hessian":[3.5923418E3,3.543134E3,4.9207695E1,2.7876138E3,7.555203E2],"tree_param":{"num_deleted":"0","num_feature":"26","num_nodes":"5","size_leaf_vector":"1"}},{"base_weights":[2.643751E0,2.7185583E0,1.7559128E0,2.0753128E-2,2.8383767E-2,-1.0310434E-2,2.3644812E-2],"categories":[],"categories_nodes":[],"categories_segments":[],"categories_sizes":[],"default_left":[0,0,0,0,0,0,0],"id":32,"left_children":[1,3,5,-1,-1,-1,-1],"loss_changes":[2.2583203E2,2.368789E2,5.4362494E2,0E0,0E0,0E0,0E0],"parents":[2147483647,0,0,1,1,2,2],"right_children":[2,4,6,-1,-1,-1,-1],"split_conditions":[2.06E2,1E0,2.22E2,2.0753128E-2,2.8383767E-2,-1.0310434E-2,2.3644812E-2],"split_indices":[0,8,0,0,0,0,0],"split_type":[0,0,0,0,0,0,0],"sum_hessian":[3.821919E3,3.5143687E3,3.075502E2,5.6753033E2,2.9468384E3,5.4204582E1,2.5334561E2],"tree_param":{"num_deleted":"0","num_feature":"26","num_nodes":"7","size_leaf_vector":"1"}},{"base_weights":[2.6543264E0,2.7002861E0,-1.0083314E-2,2.1883754E-2,2.8546369E-2],"categories":[],"categories_nodes":[],"categories_segments":[],"categories_sizes":[],"default_left":[0,0,0,0,0],"id":33,"left_children":[1,3,-1,-1,-1],"loss_changes":[6.8022266E2,2.720879E2,0E0,0E0,0E0],"parents":[2147483647,0,0,1,1],"right_children":[2,4,-1,-1,-1],"split_conditions":[2.88E2,1E0,-1.0083314E-2,2.1883754E-2,2.8546369E-2],"split_indices":[0,6,0,0,0],"split_type":[0,0,0,0,0],"sum_hessian":[3.9449895E3,3.8976677E3,4.732175E1,9.220436E2,2.9756243E3],"tree_param":{"num_deleted":"0","num_feature":"26","num_nodes":"5","size_leaf_vector":"1"}},{"base_weights":[2.561346E0,2.587644E0,7.885589E-1,2.201394E-2,2.7047522E-2,1.3271769E-2,1.184274E-3],"categories":[],"categories_nodes":[],"categories_segments":[],"categories_sizes":[],"default_left":[0,0,0,0,0,0,0],"id":34,"left_children":[1,3,5,-1,-1,-1,-1],"loss_changes":[1.7086523E2,1.4153516E2,2.1438702E1,0E0,0E0,0E0,0E0],"parents":[2147483647,0,0,1,1,2,2],"right_children":[2,4,6,-1,-1,-1,-1],"split_conditions":[4E0,1E0,5E0,2.201394E-2,2.7047522E-2,1.3271769E-2,1.184274E-3],"split_indices":[22,6,2,0,0,0,0],"split_type":[0,0,0,0,0,0,0],"sum_hessian":[3.9512969E3,3.8907185E3,6.057835E1,9.302056E2,2.960513E3,3.0039503E1,3.0538847E1],"tree_param":{"num_deleted":"0","num_feature":"26","num_nodes":"7","size_leaf_vector":"1"}},{"base_weights":[2.3540113E0,1.5905056E0,2.4788327E0,1.2818639E-2,2.7163735E-2,2.5326222E-2,1.47219645E-2],"categories":[],"categories_nodes":[],"categories_segments":[],"categories_sizes":[],"default_left":[0,0,0,0,0,0,0],"id":35,"left_children":[1,3,5,-1,-1,-1,-1],"loss_changes":[3.504746E2,1.7557837E2,1.595664E2,0E0,0E0,0E0,0E0],"parents":[2147483647,0,0,1,1,2,2],"right_children":[2,4,6,-1,-1,-1,-1],"split_conditions":[1E0,1E0,4E0,1.2818639E-2,2.7163735E-2,2.5326222E-2,1.47219645E-2],"split_indices":[8,20,14,0,0,0,0],"split_type":[0,0,0,0,0,0,0],"sum_hessian":[3.9220928E3,5.618848E2,3.360208E3,4.5008182E2,1.1180299E2,3.1816248E3,1.7858331E2],"tree_param":{"num_deleted":"0","num_feature":"26","num_nodes":"7","size_leaf_vector":"1"}},{"base_weights":[2.3294663E0,2.1796234E0,2.881575E0,2.2886412E-2,4.986994E-3,2.9544355E-2,9.802182E-3],"categories":[],"categories_nodes":[],"categories_segments":[],"categories_sizes":[],"default_left":[0,0,0,0,0,0,0],"id":36,"left_children":[1,3,5,-1,-1,-1,-1],"loss_changes":[2.9681055E2,5.7616797E2,9.836963E1,0E0,0E0,0E0,0E0],"parents":[2147483647,0,0,1,1,2,2],"right_children":[2,4,6,-1,-1,-1,-1],"split_conditions":[9.255E3,5.494E3,8.9E1,2.2886412E-2,4.986994E-3,2.9544355E-2,9.802182E-3],"split_indices":[16,16,3,0,0,0,0],"split_type":[0,0,0,0,0,0,0],"sum_hessian":[4.0234976E3,3.1854995E3,8.3799805E2,2.9892278E3,1.962719E2,8.038972E2,3.4100796E1],"tree_param":{"num_deleted":"0","num_feature":"26","num_nodes":"7","size_leaf_vector":"1"}},{"base_weights":[2.2428665E0,2.2784948E0,-3.600531E-3,2.1956762E-2,3.068159E-2],"categories":[],"categories_nodes":[],"categories_segments":[],"categories_sizes":[],"default_left":[0,0,0,0,0],"id":37,"left_children":[1,3,-1,-1,-1],"loss_changes":[3.851914E2,2.2490234E2,0E0,0E0,0E0],"parents":[2147483647,0,0,1,1],"right_children":[2,4,-1,-1,-1],"split_conditions":[4E0,1E0,-3.600531E-3,2.1956762E-2,3.068159E-2],"split_indices":[22,1,0,0,0],"split_type":[0,0,0,0,0],"sum_hessian":[4.0836304E3,4.0294827E3,5.4147755E1,3.6652473E3,3.6423538E2],"tree_param":{"num_deleted":"0","num_feature":"26","num_nodes":"5","size_leaf_vector":"1"}},{"base_weights":[2.2383773E0,1.7195342E0,2.387405E0,1.3355032E-2,2.5270637E-2,2.6022246E-2,2.1273887E-2],"categories":[],"categories_nodes":[],"categories_segments":[],"categories_sizes":[],"default_left":[0,0,0,0,0,0,0],"id":38,"left_children":[1,3,5,-1,-1,-1,-1],"loss_changes":[2.9615234E2,2.7235693E2,1.468125E2,0E0,0E0,0E0,0E0],"parents":[2147483647,0,0,1,1,2,2],"right_children":[2,4,6,-1,-1,-1,-1],"split_conditions":[1E0,4.747E3,2.816E3,1.3355032E-2,2.5270637E-2,2.6022246E-2,2.1273887E-2],"split_indices":[6,16,16,0,0,0,0],"split_type":[0,0,0,0,0,0,0],"sum_hessian":[4.1437188E3,9.40109E2,3.2036099E3,6.469508E2,2.9315823E2,1.7275016E3,1.4761084E3],"tree_param":{"num_deleted":"0","num_feature":"26","num_nodes":"7","size_leaf_vector":"1"}},{"base_weights":[2.21324E0,2.2485077E0,-3.8729974E-3,2.4909286E-2,1.9922655E-2],"categories":[],"categories_nodes":[],"categories_segments":[],"categories_sizes":[],"default_left":[0,0,0,0,0],"id":39,"left_children":[1,3,-1,-1,-1],"loss_changes":[3.9544922E2,2.308711E2,0E0,0E0,0E0],"parents":[2147483647,0,0,1,1],"right_children":[2,4,-1,-1,-1],"split_conditions":[4E0,1E0,-3.8729974E-3,2.4909286E-2,1.9922655E-2],"split_indices":[22,21,0,0,0],"split_type":[0,0,0,0,0],"sum_hessian":[4.2389165E3,4.1832456E3,5.5670544E1,2.125183E3,2.0580627E3],"tree_param":{"num_deleted":"0","num_feature":"26","num_nodes":"5","size_leaf_vector":"1"}},{"base_weights":[2.1261342E0,2.1652544E0,-1.0311369E-2,2.0230334E-2,2.697818E-2],"categories":[],"categories_nodes":[],"categories_segments":[],"categories_sizes":[],"default_left":[0,0,0,0,0],"id":40,"left_children":[1,3,-1,-1,-1],"loss_changes":[5.4165625E2,2.887793E2,0E0,0E0,0E0],"parents":[2147483647,0,0,1,1],"right_children":[2,4,-1,-1,-1],"split_conditions":[2.88E2,9.999E3,-1.0311369E-2,2.0230334E-2,2.697818E-2],"split_indices":[0,16,0,0,0],"split_type":[0,0,0,0,0],"sum_hessian":[4.280828E3,4.2303E3,5.052801E1,3.3591184E3,8.7118146E2],"tree_param":{"num_deleted":"0","num_feature":"26","num_nodes":"5","size_leaf_vector":"1"}},{"base_weights":[2.1519642E0,2.214611E0,1.2832665E0,2.0871472E-2,2.6917202E-2,-1.6424125E-3,1.7970182E-2],"categories":[],"categories_nodes":[],"categories_segments":[],"categories_sizes":[],"default_left":[0,0,0,0,0,0,0],"id":41,"left_children":[1,3,5,-1,-1,-1,-1],"loss_changes":[2.245625E2,2.1916602E2,2.3543518E2,0E0,0E0,0E0,0E0],"parents":[2147483647,0,0,1,1,2,2],"right_children":[2,4,6,-1,-1,-1,-1],"split_conditions":[1.482E3,9.255E3,1E0,2.0871472E-2,2.6917202E-2,-1.6424125E-3,1.7970182E-2],"split_indices":[2,16,6,0,0,0,0],"split_type":[0,0,0,0,0,0,0],"sum_hessian":[4.446738E3,4.1393276E3,3.0740994E2,3.2894827E3,8.4984503E2,8.090716E1,2.2650278E2],"tree_param":{"num_deleted":"0","num_feature":"26","num_nodes":"7","size_leaf_vector":"1"}},{"base_weights":[2.10093E0,2.343785E0,1.838101E0,1.94961E-2,2.435394E-2,7.028497E-3,2.0042608E-2],"categories":[],"categories_nodes":[],"categories_segments":[],"categories_sizes":[],"default_left":[0,0,0,0,0,0,0],"id":42,"left_children":[1,3,5,-1,-1,-1,-1],"loss_changes":[2.6142578E2,5.558008E1,4.0253613E2,0E0,0E0,0E0,0E0],"parents":[2147483647,0,0,1,1,2,2],"right_children":[2,4,6,-1,-1,-1,-1],"split_conditions":[1E0,1E0,1E0,1.94961E-2,2.435394E-2,7.028497E-3,2.0042608E-2],"split_indices":[21,6,14,0,0,0,0],"split_type":[0,0,0,0,0,0,0],"sum_hessian":[4.4936963E3,2.313042E3,2.1806543E3,4.5926132E2,1.8537806E3,2.825255E2,1.8981288E3],"tree_param":{"num_deleted":"0","num_feature":"26","num_nodes":"7","size_leaf_vector":"1"}},{"base_weights":[2.0037177E0,2.3215933E0,1.6158202E0,2.4438001E-2,1.870478E-2,2.2822436E-2,1.3770135E-2],"categories":[],"categories_nodes":[],"categories_segments":[],"categories_sizes":[],"default_left":[0,0,0,0,0,0,0],"id":43,"left_children":[1,3,5,-1,-1,-1,-1],"loss_changes":[5.306875E2,1.0810449E2,3.051626E2,0E0,0E0,0E0,0E0],"parents":[2147483647,0,0,1,1,2,2],"right_children":[2,4,6,-1,-1,-1,-1],"split_conditions":[4E0,2.675E1,2.0833333E0,2.4438001E-2,1.870478E-2,2.2822436E-2,1.3770135E-2],"split_indices":[12,11,11,0,0,0,0],"split_type":[0,0,0,0,0,0,0],"sum_hessian":[4.4829873E3,2.4487627E3,2.0342249E3,1.9076724E3,5.4109033E2,5.242526E2,1.5099722E3],"tree_param":{"num_deleted":"0","num_feature":"26","num_nodes":"7","size_leaf_vector":"1"}},{"base_weights":[1.9972959E0,2.2571363E0,1.6825535E0,1.5186617E-2,2.35581E-2,1.7183261E-2,-1.0772056E-3],"categories":[],"categories_nodes":[],"categories_segments":[],"categories_sizes":[],"default_left":[0,0,0,0,0,0,0],"id":44,"left_children":[1,3,5,-1,-1,-1,-1],"loss_changes":[3.535371E2,1.6078418E2,1.3722314E2,0E0,0E0,0E0,0E0],"parents":[2147483647,0,0,1,1,2,2],"right_children":[2,4,6,-1,-1,-1,-1],"split_conditions":[4E0,2E0,4E0,1.5186617E-2,2.35581E-2,1.7183261E-2,-1.0772056E-3],"split_indices":[12,11,22,0,0,0,0],"split_type":[0,0,0,0,0,0,0],"sum_hessian":[4.5982334E3,2.5001562E3,2.0980774E3,3.055457E2,2.1946104E3,2.0577202E3,4.0357132E1],"tree_param":{"num_deleted":"0","num_feature":"26","num_nodes":"7","size_leaf_vector":"1"}},{"base_weights":[1.8943622E0,2.1045613E0,1.6498803E0,2.1371664E-2,9.435786E-3,2.0636046E-2,1.2685244E-2],"categories":[],"categories_nodes":[],"categories_segments":[],"categories_sizes":[],"default_left":[0,0,0,0,0,0,0],"id":45,"left_children":[1,3,5,-1,-1,-1,-1],"loss_changes":[2.121543E2,7.8456055E1,3.1866846E2,0E0,0E0,0E0,0E0],"parents":[2147483647,0,0,1,1,2,2],"right_children":[2,4,6,-1,-1,-1,-1],"split_conditions":[4E0,8.9E1,1E0,2.1371664E-2,9.435786E-3,2.0636046E-2,1.2685244E-2],"split_indices":[12,3,21,0,0,0,0],"split_type":[0,0,0,0,0,0,0],"sum_hessian":[4.534222E3,2.4153965E3,2.1188257E3,2.3444888E3,7.090792E1,1.0044462E3,1.1143794E3],"tree_param":{"num_deleted":"0","num_feature":"26","num_nodes":"7","size_leaf_vector":"1"}},{"base_weights":[1.8222965E0,1.8731594E0,7.252193E-1,1.743521E-2,2.3637662E-2,1.158075E-2,-4.0786373E-3],"categories":[],"categories_nodes":[],"categories_segments":[],"categories_sizes":[],"default_left":[0,0,0,0,0,0,0],"id":46,"left_children":[1,3,5,-1,-1,-1,-1],"loss_changes":[2.4345605E2,2.5045605E2,1.0601106E2,0E0,0E0,0E0,0E0],"parents":[2147483647,0,0,1,1,2,2],"right_children":[2,4,6,-1,-1,-1,-1],"split_conditions":[1.665E3,9.255E3,4E0,1.743521E-2,2.3637662E-2,1.158075E-2,-4.0786373E-3],"split_indices":[2,16,12,0,0,0,0],"split_type":[0,0,0,0,0,0,0],"sum_hessian":[4.5262617E3,4.321461E3,2.0480067E2,3.437848E3,8.836131E2,1.487486E2,5.6052067E1],"tree_param":{"num_deleted":"0","num_feature":"26","num_nodes":"7","size_leaf_vector":"1"}},{"base_weights":[1.863633E0,2.0372832E0,1.6612626E0,2.1421358E-2,1.2559239E-2,1.7437836E-2,-0E0],"categories":[],"categories_nodes":[],"categories_segments":[],"categories_sizes":[],"default_left":[0,0,0,0,0,0,0],"id":47,"left_children":[1,3,5,-1,-1,-1,-1],"loss_changes":[1.4321973E2,1.8669531E2,2.9965234E2,0E0,0E0,0E0,0E0],"parents":[2147483647,0,0,1,1,2,2],"right_children":[2,4,6,-1,-1,-1,-1],"split_conditions":[4E0,1E0,1.451E3,2.1421358E-2,1.2559239E-2,1.7437836E-2,-0E0],"split_indices":[12,25,2,0,0,0,0],"split_type":[0,0,0,0,0,0,0],"sum_hessian":[4.6573145E3,2.479461E3,2.1778538E3,2.1772961E3,3.0216495E2,2.0746882E3,1.0316557E2],"tree_param":{"num_deleted":"0","num_feature":"26","num_nodes":"7","size_leaf_vector":"1"}},{"base_weights":[1.825916E0,1.3298527E0,1.9625914E0,8.092061E-3,2.0950567E-2,2.1589871E-2,1.7228398E-2],"categories":[],"categories_nodes":[],"categories_segments":[],"categories_sizes":[],"default_left":[0,0,0,0,0,0,0],"id":48,"left_children":[1,3,5,-1,-1,-1,-1],"loss_changes":[3.0476367E2,4.030017E2,1.5178516E2,0E0,0E0,0E0,0E0],"parents":[2147483647,0,0,1,1,2,2],"right_children":[2,4,6,-1,-1,-1,-1],"split_conditions":[1E0,1.7E1,1E0,8.092061E-3,2.0950567E-2,2.1589871E-2,1.7228398E-2],"split_indices":[6,11,21,0,0,0,0],"split_type":[0,0,0,0,0,0,0],"sum_hessian":[4.7310957E3,1.0351145E3,3.6959812E3,6.228918E2,4.1222266E2,2.0073958E3,1.6885854E3],"tree_param":{"num_deleted":"0","num_feature":"26","num_nodes":"7","size_leaf_vector":"1"}},{"base_weights":[1.7325683E0,1.9521899E0,1.4749836E0,2.0394243E-2,1.3058906E-2,8.936772E-3,1.6398344E-2],"categories":[],"categories_nodes":[],"categories_segments":[],"categories_sizes":[],"default_left":[0,0,0,0,0,0,0],"id":49,"left_children":[1,3,5,-1,-1,-1,-1],"loss_changes":[2.4871484E2,1.25734375E2,2.0009326E2,0E0,0E0,0E0,0E0],"parents":[2147483647,0,0,1,1,2,2],"right_children":[2,4,6,-1,-1,-1,-1],"split_conditions":[4E0,1E0,1E0,2.0394243E-2,1.3058906E-2,8.936772E-3,1.6398344E-2],"split_indices":[12,25,6,0,0,0,0],"split_type":[0,0,0,0,0,0,0],"sum_hessian":[4.70658E3,2.5206494E3,2.1859307E3,2.2100251E3,3.1062415E2,4.9137836E2,1.6945524E3],"tree_param":{"num_deleted":"0","num_feature":"26","num_nodes":"7","size_leaf_vector":"1"}},{"base_weights":[1.781665E0,1.741934E0,2.8072133E0,-1.5168851E-3,1.8044697E-2,3.1373188E-2,1.5262379E-2],"categories":[],"categories_nodes":[],"categories_segments":[],"categories_sizes":[],"default_left":[0,0,0,0,0,0,0],"id":50,"left_children":[1,3,5,-1,-1,-1,-1],"loss_changes":[1.6895898E2,5.585537E2,4.4161743E1,0E0,0E0,0E0,0E0],"parents":[2147483647,0,0,1,1,2,2],"right_children":[2,4,6,-1,-1,-1,-1],"split_conditions":[1.574E3,-1.296E3,1.55E1,-1.5168851E-3,1.8044697E-2,3.1373188E-2,1.5262379E-2],"split_indices":[17,3,11,0,0,0,0],"split_type":[0,0,0,0,0,0,0],"sum_hessian":[4.853332E3,4.6862485E3,1.6708319E2,1.4907397E2,4.537175E3,1.2646646E2,4.0616722E1],"tree_param":{"num_deleted":"0","num_feature":"26","num_nodes":"7","size_leaf_vector":"1"}},{"base_weights":[1.8135041E0,1.8425533E0,-4.6550385E-3,1.8668326E-2,-1.5452433E-5],"categories":[],"categories_nodes":[],"categories_segments":[],"categories_sizes":[],"default_left":[0,0,0,0,0],"id":51,"left_children":[1,3,-1,-1,-1],"loss_changes":[3.398164E2,2.2508594E2,0E0,0E0,0E0],"parents":[2147483647,0,0,1,1],"right_children":[2,4,-1,-1,-1],"split_conditions":[2.88E2,8.9E1,-4.6550385E-3,1.8668326E-2,-1.5452433E-5],"split_indices":[0,3,0,0,0],"split_type":[0,0,0,0,0],"sum_hessian":[5.042318E3,4.980234E3,6.2083797E1,4.9159907E3,6.4243164E1],"tree_param":{"num_deleted":"0","num_feature":"26","num_nodes":"5","size_leaf_vector":"1"}},{"base_weights":[1.6491494E0,1.5061879E0,2.174126E0,1.6411265E-2,8.734086E-3,2.2390565E-2,-0E0],"categories":[],"categories_nodes":[],"categories_segments":[],"categories_sizes":[],"default_left":[0,0,0,0,0,0,0],"id":52,"left_children":[1,3,5,-1,-1,-1,-1],"loss_changes":[3.46E2,3.1916113E2,1.4430957E2,0E0,0E0,0E0,0E0],"parents":[2147483647,0,0,1,1,2,2],"right_children":[2,4,6,-1,-1,-1,-1],"split_conditions":[9.999E3,3.912E3,3E0,1.6411265E-2,8.734086E-3,2.2390565E-2,-0E0],"split_indices":[16,16,22,0,0,0,0],"split_type":[0,0,0,0,0,0,0],"sum_hessian":[4.872372E3,3.84622E3,1.0261521E3,3.1623162E3,6.839038E2,9.9599896E2,3.0153097E1],"tree_param":{"num_deleted":"0","num_feature":"26","num_nodes":"7","size_leaf_vector":"1"}},{"base_weights":[1.5654197E0,1.4433458E0,2.0202582E0,1.5003202E-2,-4.2435594E-4,1.901782E-2,2.8556079E-2],"categories":[],"categories_nodes":[],"categories_segments":[],"categories_sizes":[],"default_left":[0,0,0,0,0,0,0],"id":53,"left_children":[1,3,5,-1,-1,-1,-1],"loss_changes":[2.5521973E2,3.3186475E2,6.974463E1,0E0,0E0,0E0,0E0],"parents":[2147483647,0,0,1,1,2,2],"right_children":[2,4,6,-1,-1,-1,-1],"split_conditions":[9.255E3,5.93E3,2E0,1.5003202E-2,-4.2435594E-4,1.901782E-2,2.8556079E-2],"split_indices":[16,16,1,0,0,0,0],"split_type":[0,0,0,0,0,0,0],"sum_hessian":[4.916544E3,3.8943945E3,1.0221495E3,3.7511748E3,1.4321986E2,9.1058325E2,1.1156625E2],"tree_param":{"num_deleted":"0","num_feature":"26","num_nodes":"7","size_leaf_vector":"1"}},{"base_weights":[1.4955007E0,1.7083966E0,1.2664336E0,4.405427E-3,1.768408E-2,1.684163E-2,1.0931777E-2],"categories":[],"categories_nodes":[],"categories_segments":[],"categories_sizes":[],"default_left":[0,0,0,0,0,0,0],"id":54,"left_children":[1,3,5,-1,-1,-1,-1],"loss_changes":[2.2125488E2,1.8269873E2,1.576106E2,0E0,0E0,0E0,0E0],"parents":[2147483647,0,0,1,1,2,2],"right_children":[2,4,6,-1,-1,-1,-1],"split_conditions":[1E0,4.13E2,1.581E3,4.405427E-3,1.768408E-2,1.684163E-2,1.0931777E-2],"split_indices":[21,16,16,0,0,0,0],"split_type":[0,0,0,0,0,0,0],"sum_hessian":[4.8147515E3,2.4764614E3,2.3382898E3,1.1455894E2,2.3619026E3,6.710284E2,1.6672614E3],"tree_param":{"num_deleted":"0","num_feature":"26","num_nodes":"7","size_leaf_vector":"1"}},{"base_weights":[1.5675573E0,1.7587734E0,1.3439975E0,1.5213487E-2,2.0952202E-2,1.2977732E-2,3.6113057E-2],"categories":[],"categories_nodes":[],"categories_segments":[],"categories_sizes":[],"default_left":[0,0,0,0,0,0,0],"id":55,"left_children":[1,3,5,-1,-1,-1,-1],"loss_changes":[1.9896875E2,1.9438281E2,2.1587988E2,0E0,0E0,0E0,0E0],"parents":[2147483647,0,0,1,1,2,2],"right_children":[2,4,6,-1,-1,-1,-1],"split_conditions":[4E0,2.569E3,6.55E1,1.5213487E-2,2.0952202E-2,1.2977732E-2,3.6113057E-2],"split_indices":[12,16,11,0,0,0,0],"split_type":[0,0,0,0,0,0,0],"sum_hessian":[4.998475E3,2.673208E3,2.325267E3,1.5851655E3,1.0880425E3,2.2869456E3,3.8321617E1],"tree_param":{"num_deleted":"0","num_feature":"26","num_nodes":"7","size_leaf_vector":"1"}},{"base_weights":[1.5695195E0,1.5921816E0,-3.116567E-2,1.7647296E-2,1.3925924E-2,1.2200389E-2,-1.06590055E-2],"categories":[],"categories_nodes":[],"categories_segments":[],"categories_sizes":[],"default_left":[0,0,0,0,0,0,0],"id":56,"left_children":[1,3,5,-1,-1,-1,-1],"loss_changes":[1.8453906E2,1.5563867E2,1.0294341E2,0E0,0E0,0E0,0E0],"parents":[2147483647,0,0,1,1,2,2],"right_children":[2,4,6,-1,-1,-1,-1],"split_conditions":[4E0,4E0,3E0,1.7647296E-2,1.3925924E-2,1.2200389E-2,-1.06590055E-2],"split_indices":[22,12,17,0,0,0,0],"split_type":[0,0,0,0,0,0,0],"sum_hessian":[5.032384E3,4.9627734E3,6.9610306E1,2.637978E3,2.3247954E3,3.066647E1,3.894384E1],"tree_param":{"num_deleted":"0","num_feature":"26","num_nodes":"7","size_leaf_vector":"1"}},{"base_weights":[1.5226458E0,1.548525E0,-5.084446E-1,2.2121578E-2,1.5136138E-2,-1.06051015E-2,1.1293903E-3],"categories":[],"categories_nodes":[],"categories_segments":[],"categories_sizes":[],"default_left":[0,0,0,0,0,0,0],"id":57,"left_children":[1,3,5,-1,-1,-1,-1],"loss_changes":[2.721582E2,9.585449E1,2.4608965E1,0E0,0E0,0E0,0E0],"parents":[2147483647,0,0,1,1,2,2],"right_children":[2,4,6,-1,-1,-1,-1],"split_conditions":[4E0,2E0,1.69E2,2.2121578E-2,1.5136138E-2,-1.06051015E-2,1.1293903E-3],"split_indices":[22,12,0,0,0,0,0],"split_type":[0,0,0,0,0,0,0],"sum_hessian":[5.078043E3,5.015814E3,6.2228985E1,2.3366043E2,4.782154E3,3.1933588E1,3.0295397E1],"tree_param":{"num_deleted":"0","num_feature":"26","num_nodes":"7","size_leaf_vector":"1"}},{"base_weights":[1.4638386E0,1.4229839E0,2.6793823E-2,1.446051E-2,-9.384124E-4],"categories":[],"categories_nodes":[],"categories_segments":[],"categories_sizes":[],"default_left":[0,0,0,0,0],"id":58,"left_children":[1,3,-1,-1,-1],"loss_changes":[2.324043E2,1.7664062E2,0E0,0E0,0E0],"parents":[2147483647,0,0,1,1],"right_children":[2,4,-1,-1,-1],"split_conditions":[1E0,4E0,2.6793823E-2,1.446051E-2,-9.384124E-4],"split_indices":[10,22,0,0,0],"split_type":[0,0,0,0,0],"sum_hessian":[5.1413545E3,4.985468E3,1.5588675E2,4.9116665E3,7.38016E1],"tree_param":{"num_deleted":"0","num_feature":"26","num_nodes":"5","size_leaf_vector":"1"}},{"base_weights":[1.5471671E0,2.0130959E0,1.4700261E0,2.0800777E-2,6.388372E-3,1.54143805E-2,1.0725219E-2],"categories":[],"categories_nodes":[],"categories_segments":[],"categories_sizes":[],"default_left":[0,0,0,0,0,0,0],"id":59,"left_children":[1,3,5,-1,-1,-1,-1],"loss_changes":[1.7642383E2,6.0053223E1,1.2163086E2,0E0,0E0,0E0,0E0],"parents":[2147483647,0,0,1,1,2,2],"right_children":[2,4,6,-1,-1,-1,-1],"split_conditions":[3E0,1E0,6.84E2,2.0800777E-2,6.388372E-3,1.54143805E-2,1.0725219E-2],"split_indices":[12,25,2,0,0,0,0],"split_type":[0,0,0,0,0,0,0],"sum_hessian":[5.4121577E3,7.491106E2,4.6630474E3,7.111531E2,3.7957516E1,3.9385742E3,7.2447296E2],"tree_param":{"num_deleted":"0","num_feature":"26","num_nodes":"7","size_leaf_vector":"1"}},{"base_weights":[1.4642124E0,1.4902424E0,-1.8094423E-1,1.4459803E-2,2.5574917E-2,9.4094975E-3,-1.0623619E-2],"categories":[],"categories_nodes":[],"categories_segments":[],"categories_sizes":[],"default_left":[0,0,0,0,0,0,0],"id":60,"left_children":[1,3,5,-1,-1,-1,-1],"loss_changes":[2.3096875E2,2.2548633E2,9.1052795E1,0E0,0E0,0E0,0E0],"parents":[2147483647,0,0,1,1,2,2],"right_children":[2,4,6,-1,-1,-1,-1],"split_conditions":[2.82E2,1.574E3,1.6666667E-1,1.4459803E-2,2.5574917E-2,9.4094975E-3,-1.0623619E-2],"split_indices":[0,17,11,0,0,0,0],"split_type":[0,0,0,0,0,0,0],"sum_hessian":[5.326445E3,5.2445435E3,8.190156E1,5.047903E3,1.9664053E2,3.5387318E1,4.6514244E1],"tree_param":{"num_deleted":"0","num_feature":"26","num_nodes":"7","size_leaf_vector":"1"}},{"base_weights":[1.4448761E0,1.029899E0,1.5622575E0,5.8612996E-3,1.7191695E-2,1.6256401E-2,8.571587E-3],"categories":[],"categories_nodes":[],"categories_segments":[],"categories_sizes":[],"default_left":[0,0,0,0,0,0,0],"id":61,"left_children":[1,3,5,-1,-1,-1,-1],"loss_changes":[2.4755762E2,3.5521082E2,1.7469043E2,0E0,0E0,0E0,0E0],"parents":[2147483647,0,0,1,1,2,2],"right_children":[2,4,6,-1,-1,-1,-1],"split_conditions":[1E0,4.134E3,2.03E2,5.8612996E-3,1.7191695E-2,1.6256401E-2,8.571587E-3],"split_indices":[6,16,0,0,0,0,0],"split_type":[0,0,0,0,0,0,0],"sum_hessian":[5.295588E3,1.1802946E3,4.1152935E3,7.2452826E2,4.5576624E2,3.7685828E3,3.467107E2],"tree_param":{"num_deleted":"0","num_feature":"26","num_nodes":"7","size_leaf_vector":"1"}},{"base_weights":[1.3518823E0,1.5513426E0,1.1254524E0,1.6680045E-2,1.1614584E-2,7.1757147E-3,1.3356338E-2],"categories":[],"categories_nodes":[],"categories_segments":[],"categories_sizes":[],"default_left":[0,0,0,0,0,0,0],"id":62,"left_children":[1,3,5,-1,-1,-1,-1],"loss_changes":[2.2431738E2,1.12992676E2,2.0447363E2,0E0,0E0,0E0,0E0],"parents":[2147483647,0,0,1,1,2,2],"right_children":[2,4,6,-1,-1,-1,-1],"split_conditions":[4E0,2.6416666E1,-1.6E1,1.6680045E-2,1.1614584E-2,7.1757147E-3,1.3356338E-2],"split_indices":[12,11,3,0,0,0,0],"split_type":[0,0,0,0,0,0,0],"sum_hessian":[5.2143306E3,2.754362E3,2.4599685E3,2.1054187E3,6.4894336E2,8.456726E2,1.614296E3],"tree_param":{"num_deleted":"0","num_feature":"26","num_nodes":"7","size_leaf_vector":"1"}},{"base_weights":[1.3692012E0,1.433248E0,6.3588357E-1,9.267433E-3,1.5306006E-2,-2.4570012E-3,1.1791885E-2],"categories":[],"categories_nodes":[],"categories_segments":[],"categories_sizes":[],"default_left":[0,0,0,0,0,0,0],"id":63,"left_children":[1,3,5,-1,-1,-1,-1],"loss_changes":[2.4405078E2,2.3223438E2,2.1262737E2,0E0,0E0,0E0,0E0],"parents":[2147483647,0,0,1,1,2,2],"right_children":[2,4,6,-1,-1,-1,-1],"split_conditions":[2.03E2,1E0,2.37E2,9.267433E-3,1.5306006E-2,-2.4570012E-3,1.1791885E-2],"split_indices":[0,8,0,0,0,0,0],"split_type":[0,0,0,0,0,0,0],"sum_hessian":[5.332338E3,4.8983843E3,4.3395392E2,7.998426E2,4.0985415E3,1.6580757E2,2.6814633E2],"tree_param":{"num_deleted":"0","num_feature":"26","num_nodes":"7","size_leaf_vector":"1"}},{"base_weights":[1.3263392E0,1.1965586E0,1.801477E0,1.1477442E-2,2.2070102E-2,1.90301E-2,1.0823612E-2],"categories":[],"categories_nodes":[],"categories_segments":[],"categories_sizes":[],"default_left":[0,0,0,0,0,0,0],"id":64,"left_children":[1,3,5,-1,-1,-1,-1],"loss_changes":[3.1300098E2,1.9010449E2,6.8884766E1,0E0,0E0,0E0,0E0],"parents":[2147483647,0,0,1,1,2,2],"right_children":[2,4,6,-1,-1,-1,-1],"split_conditions":[9.255E3,1.574E3,8.03E2,1.1477442E-2,2.2070102E-2,1.90301E-2,1.0823612E-2],"split_indices":[16,17,2,0,0,0,0],"split_type":[0,0,0,0,0,0,0],"sum_hessian":[5.2943325E3,4.1739443E3,1.1203883E3,3.9927268E3,1.8121727E2,9.7333887E2,1.4704941E2],"tree_param":{"num_deleted":"0","num_feature":"26","num_nodes":"7","size_leaf_vector":"1"}},{"base_weights":[1.3613592E0,9.7097534E-1,1.4765387E0,1.357235E-2,4.7213337E-3,8.700665E-3,1.5461822E-2],"categories":[],"categories_nodes":[],"categories_segments":[],"categories_sizes":[],"default_left":[0,0,0,0,0,0,0],"id":65,"left_children":[1,3,5,-1,-1,-1,-1],"loss_changes":[2.3584766E2,2.3780286E2,1.6841309E2,0E0,0E0,0E0,0E0],"parents":[2147483647,0,0,1,1,2,2],"right_children":[2,4,6,-1,-1,-1,-1],"split_conditions":[1E0,4E0,2.5E-1,1.357235E-2,4.7213337E-3,8.700665E-3,1.5461822E-2],"split_indices":[6,12,11,0,0,0,0],"split_type":[0,0,0,0,0,0,0],"sum_hessian":[5.4540786E3,1.2552906E3,4.198788E3,7.0150085E2,5.5378973E2,4.4092606E2,3.7578618E3],"tree_param":{"num_deleted":"0","num_feature":"26","num_nodes":"7","size_leaf_vector":"1"}},{"base_weights":[1.2865285E0,1.4649483E0,1.0844296E0,1.7872648E-2,1.3365028E-2,-1.0764185E-2,1.113581E-2],"categories":[],"categories_nodes":[],"categories_segments":[],"categories_sizes":[],"default_left":[0,0,0,0,0,0,0],"id":66,"left_children":[1,3,5,-1,-1,-1,-1],"loss_changes":[1.8378027E2,1.0270068E2,1.6654102E2,0E0,0E0,0E0,0E0],"parents":[2147483647,0,0,1,1,2,2],"right_children":[2,4,6,-1,-1,-1,-1],"split_conditions":[4E0,4.9E1,1E0,1.7872648E-2,1.3365028E-2,-1.0764185E-2,1.113581E-2],"split_indices":[12,0,7,0,0,0,0],"split_type":[0,0,0,0,0,0,0],"sum_hessian":[5.382742E3,2.8396282E3,2.543114E3,7.885381E2,2.05109E3,3.1004158E1,2.5121099E3],"tree_param":{"num_deleted":"0","num_feature":"26","num_nodes":"7","size_leaf_vector":"1"}},{"base_weights":[1.2087244E0,1.2346143E0,-6.210234E-1,7.7449325E-3,1.3140189E-2,-1.6838964E-4,-1.08471215E-2],"categories":[],"categories_nodes":[],"categories_segments":[],"categories_sizes":[],"default_left":[0,0,0,0,0,0,0],"id":67,"left_children":[1,3,5,-1,-1,-1,-1],"loss_changes":[2.5495996E2,1.8341846E2,2.0258196E1,0E0,0E0,0E0,0E0],"parents":[2147483647,0,0,1,1,2,2],"right_children":[2,4,6,-1,-1,-1,-1],"split_conditions":[4E0,1E0,1E0,7.7449325E-3,1.3140189E-2,-1.6838964E-4,-1.08471215E-2],"split_indices":[22,14,2,0,0,0,0],"split_type":[0,0,0,0,0,0,0],"sum_hessian":[5.2832363E3,5.2116675E3,7.156901E1,7.7679474E2,4.4348726E3,3.4262856E1,3.7306156E1],"tree_param":{"num_deleted":"0","num_feature":"26","num_nodes":"7","size_leaf_vector":"1"}},{"base_weights":[1.2420635E0,8.157627E-1,1.3668854E0,1.0944771E-2,-2.6193785E-3,1.324805E-2,2.2766957E-2],"categories":[],"categories_nodes":[],"categories_segments":[],"categories_sizes":[],"default_left":[0,0,0,0,0,0,0],"id":68,"left_children":[1,3,5,-1,-1,-1,-1],"loss_changes":[2.8658594E2,3.828463E2,1.4477637E2,0E0,0E0,0E0,0E0],"parents":[2147483647,0,0,1,1,2,2],"right_children":[2,4,6,-1,-1,-1,-1],"split_conditions":[1E0,1.35E2,1.574E3,1.0944771E-2,-2.6193785E-3,1.324805E-2,2.2766957E-2],"split_indices":[6,0,17,0,0,0,0],"split_type":[0,0,0,0,0,0,0],"sum_hessian":[5.526547E3,1.2620365E3,4.2645103E3,1.0033903E3,2.5864618E2,4.0887766E3,1.7573392E2],"tree_param":{"num_deleted":"0","num_feature":"26","num_nodes":"7","size_leaf_vector":"1"}},{"base_weights":[1.2341601E0,1.1275606E0,1.6446027E0,1.1798558E-2,-8.715386E-4,1.7567173E-2,7.353935E-3],"categories":[],"categories_nodes":[],"categories_segments":[],"categories_sizes":[],"default_left":[0,0,0,0,0,0,0],"id":69,"left_children":[1,3,5,-1,-1,-1,-1],"loss_changes":[2.2785254E2,2.792295E2,1.04971436E2,0E0,0E0,0E0,0E0],"parents":[2147483647,0,0,1,1,2,2],"right_children":[2,4,6,-1,-1,-1,-1],"split_conditions":[9.255E3,5.825E3,4E0,1.1798558E-2,-8.715386E-4,1.7567173E-2,7.353935E-3],"split_indices":[16,16,14,0,0,0,0],"split_type":[0,0,0,0,0,0,0],"sum_hessian":[5.477975E3,4.365379E3,1.112596E3,4.186127E3,1.792519E2,9.8533374E2,1.2726216E2],"tree_param":{"num_deleted":"0","num_feature":"26","num_nodes":"7","size_leaf_vector":"1"}},{"base_weights":[1.2400014E0,9.089307E-1,1.3388184E0,1.1471871E-2,3.4426244E-3,2.0359203E-2,1.3034989E-2],"categories":[],"categories_nodes":[],"categories_segments":[],"categories_sizes":[],"default_left":[0,0,0,0,0,0,0],"id":70,"left_children":[1,3,5,-1,-1,-1,-1],"loss_changes":[1.7492676E2,1.7217334E2,8.928906E1,0E0,0E0,0E0,0E0],"parents":[2147483647,0,0,1,1,2,2],"right_children":[2,4,6,-1,-1,-1,-1],"split_conditions":[1E0,2.01E2,2E0,1.1471871E-2,3.4426244E-3,2.0359203E-2,1.3034989E-2],"split_indices":[6,2,12,0,0,0,0],"split_type":[0,0,0,0,0,0,0],"sum_hessian":[5.596608E3,1.3005226E3,4.2960854E3,9.097382E2,3.9078433E2,1.9214677E2,4.103939E3],"tree_param":{"num_deleted":"0","num_feature":"26","num_nodes":"7","size_leaf_vector":"1"}},{"base_weights":[1.2638047E0,1.2907256E0,-6.4565563E-1,1.1879112E-2,1.6813187E-2,-1.0880636E-2,7.646265E-4],"categories":[],"categories_nodes":[],"categories_segments":[],"categories_sizes":[],"default_left":[0,0,0,0,0,0,0],"id":71,"left_children":[1,3,5,-1,-1,-1,-1],"loss_changes":[2.9905078E2,2.1390332E2,2.7750443E1,0E0,0E0,0E0,0E0],"parents":[2147483647,0,0,1,1,2,2],"right_children":[2,4,6,-1,-1,-1,-1],"split_conditions":[2.88E2,9.999E3,1.98E2,1.1879112E-2,1.6813187E-2,-1.0880636E-2,7.646265E-4],"split_indices":[0,16,17,0,0,0,0],"split_type":[0,0,0,0,0,0,0],"sum_hessian":[5.7189707E3,5.6415757E3,7.739518E1,4.484028E3,1.157548E3,4.7279953E1,3.0115229E1],"tree_param":{"num_deleted":"0","num_feature":"26","num_nodes":"7","size_leaf_vector":"1"}},{"base_weights":[1.1491201E0,7.180559E-1,1.2243161E0,2.7879616E-3,1.1024692E-2,1.3543657E-2,9.4013335E-3],"categories":[],"categories_nodes":[],"categories_segments":[],"categories_sizes":[],"default_left":[0,0,0,0,0,0,0],"id":72,"left_children":[1,3,5,-1,-1,-1,-1],"loss_changes":[1.7281885E2,1.380806E2,1.6493213E2,0E0,0E0,0E0,0E0],"parents":[2147483647,0,0,1,1,2,2],"right_children":[2,4,6,-1,-1,-1,-1],"split_conditions":[1E0,2E0,2.2E2,2.7879616E-3,1.1024692E-2,1.3543657E-2,9.4013335E-3],"split_indices":[8,22,17,0,0,0,0],"split_type":[0,0,0,0,0,0,0],"sum_hessian":[5.522074E3,8.3001685E2,4.692057E3,3.9261395E2,4.3740286E2,3.203639E3,1.4884183E3],"tree_param":{"num_deleted":"0","num_feature":"26","num_nodes":"7","size_leaf_vector":"1"}},{"base_weights":[1.1741153E0,6.7121226E-1,1.259745E0,1.1051082E-2,5.6532477E-3,1.3169944E-2,5.431398E-3],"categories":[],"categories_nodes":[],"categories_segments":[],"categories_sizes":[],"default_left":[0,0,0,0,0,0,0],"id":73,"left_children":[1,3,5,-1,-1,-1,-1],"loss_changes":[2.371084E2,3.3537933E1,1.9229297E2,0E0,0E0,0E0,0E0],"parents":[2147483647,0,0,1,1,2,2],"right_children":[2,4,6,-1,-1,-1,-1],"split_conditions":[1E0,1E0,1.539E3,1.1051082E-2,5.6532477E-3,1.3169944E-2,5.431398E-3],"split_indices":[8,22,2,0,0,0,0],"split_type":[0,0,0,0,0,0,0],"sum_hessian":[5.6440376E3,8.293194E2,4.8147183E3,1.5157639E2,6.77743E2,4.453356E3,3.6136237E2],"tree_param":{"num_deleted":"0","num_feature":"26","num_nodes":"7","size_leaf_vector":"1"}},{"base_weights":[1.1556708E0,1.2023007E0,1.427854E-1,1.1000268E-2,1.5797772E-2,1.1071848E-2,-6.8737026E-3],"categories":[],"categories_nodes":[],"categories_segments":[],"categories_sizes":[],"default_left":[0,0,0,0,0,0,0],"id":74,"left_children":[1,3,5,-1,-1,-1,-1],"loss_changes":[2.64563E2,1.970249E2,2.0853596E2,0E0,0E0,0E0,0E0],"parents":[2147483647,0,0,1,1,2,2],"right_children":[2,4,6,-1,-1,-1,-1],"split_conditions":[3E0,9.255E3,3E0,1.1000268E-2,1.5797772E-2,1.1071848E-2,-6.8737026E-3],"split_indices":[22,16,17,0,0,0,0],"split_type":[0,0,0,0,0,0,0],"sum_hessian":[5.643156E3,5.3929595E3,2.501967E2,4.2607646E3,1.1321946E3,1.1552561E2,1.346711E2],"tree_param":{"num_deleted":"0","num_feature":"26","num_nodes":"7","size_leaf_vector":"1"}},{"base_weights":[1.1454486E0,1.1037799E0,2.1543927E0,1.1335583E-2,-2.6784411E-3,2.4431426E-2,1.0013899E-2],"categories":[],"categories_nodes":[],"categories_segments":[],"categories_sizes":[],"default_left":[0,0,0,0,0,0,0],"id":75,"left_children":[1,3,5,-1,-1,-1,-1],"loss_changes":[2.2515674E2,2.2704785E2,5.773224E1,0E0,0E0,0E0,0E0],"parents":[2147483647,0,0,1,1,2,2],"right_children":[2,4,6,-1,-1,-1,-1],"split_conditions":[1.574E3,1.458E3,1.3083333E1,1.1335583E-2,-2.6784411E-3,2.4431426E-2,1.0013899E-2],"split_indices":[17,17,11,0,0,0,0],"split_type":[0,0,0,0,0,0,0],"sum_hessian":[5.710909E3,5.4954136E3,2.1549576E2,5.3802036E3,1.1520982E2,1.6716908E2,4.832667E1],"tree_param":{"num_deleted":"0","num_feature":"26","num_nodes":"7","size_leaf_vector":"1"}},{"base_weights":[1.1805248E0,1.246576E0,4.245444E-1,1.22540565E-2,2.7036957E-2,4.7704484E-4,9.129926E-3],"categories":[],"categories_nodes":[],"categories_segments":[],"categories_sizes":[],"default_left":[0,0,0,0,0,0,0],"id":76,"left_children":[1,3,5,-1,-1,-1,-1],"loss_changes":[2.9065625E2,1.4697266E2,8.781034E1,0E0,0E0,0E0,0E0],"parents":[2147483647,0,0,1,1,2,2],"right_children":[2,4,6,-1,-1,-1,-1],"split_conditions":[2.03E2,2E2,2.56E2,1.22540565E-2,2.7036957E-2,4.7704484E-4,9.129926E-3],"split_indices":[0,0,0,0,0,0,0],"split_type":[0,0,0,0,0,0,0],"sum_hessian":[5.902336E3,5.4238765E3,4.7845944E2,5.355952E3,6.7924545E1,2.743403E2,2.0411914E2],"tree_param":{"num_deleted":"0","num_feature":"26","num_nodes":"7","size_leaf_vector":"1"}},{"base_weights":[1.1176637E0,1.0804503E0,2.0418801E0,1.1117618E-2,-5.1736324E-3,1.4602951E-2,2.7480602E-2],"categories":[],"categories_nodes":[],"categories_segments":[],"categories_sizes":[],"default_left":[0,0,0,0,0,0,0],"id":77,"left_children":[1,3,5,-1,-1,-1,-1],"loss_changes":[1.826333E2,2.7922852E2,6.3948242E1,0E0,0E0,0E0,0E0],"parents":[2147483647,0,0,1,1,2,2],"right_children":[2,4,6,-1,-1,-1,-1],"split_conditions":[1.574E3,1.458E3,2.953E3,1.1117618E-2,-5.1736324E-3,1.4602951E-2,2.7480602E-2],"split_indices":[17,17,16,0,0,0,0],"split_type":[0,0,0,0,0,0,0],"sum_hessian":[5.716666E3,5.506861E3,2.098054E2,5.4031255E3,1.0373516E2,1.2424068E2,8.556473E1],"tree_param":{"num_deleted":"0","num_feature":"26","num_nodes":"7","size_leaf_vector":"1"}},{"base_weights":[1.0755666E0,7.653058E-1,1.1666081E0,-6.307875E-3,8.438578E-3,-9.708844E-4,1.1852917E-2],"categories":[],"categories_nodes":[],"categories_segments":[],"categories_sizes":[],"default_left":[0,0,0,0,0,0,0],"id":78,"left_children":[1,3,5,-1,-1,-1,-1],"loss_changes":[1.5578271E2,1.4758722E2,1.0618555E2,0E0,0E0,0E0,0E0],"parents":[2147483647,0,0,1,1,2,2],"right_children":[2,4,6,-1,-1,-1,-1],"split_conditions":[1E0,-1.237E3,1E0,-6.307875E-3,8.438578E-3,-9.708844E-4,1.1852917E-2],"split_indices":[6,3,7,0,0,0,0],"split_type":[0,0,0,0,0,0,0],"sum_hessian":[5.7365156E3,1.314576E3,4.4219395E3,6.7474815E1,1.2471012E3,6.3340076E1,4.3585996E3],"tree_param":{"num_deleted":"0","num_feature":"26","num_nodes":"7","size_leaf_vector":"1"}},{"base_weights":[1.0481061E0,9.4633293E-1,1.3048439E0,2.452698E-3,1.0223987E-2,-6.958275E-3,1.3898513E-2],"categories":[],"categories_nodes":[],"categories_segments":[],"categories_sizes":[],"default_left":[0,0,0,0,0,0,0],"id":79,"left_children":[1,3,5,-1,-1,-1,-1],"loss_changes":[1.3968213E2,2.1506299E2,2.7647485E2,0E0,0E0,0E0,0E0],"parents":[2147483647,0,0,1,1,2,2],"right_children":[2,4,6,-1,-1,-1,-1],"split_conditions":[1E0,1.6666667E-1,4.76E2,2.452698E-3,1.0223987E-2,-6.958275E-3,1.3898513E-2],"split_indices":[20,11,16,0,0,0,0],"split_type":[0,0,0,0,0,0,0],"sum_hessian":[5.6633257E3,4.0752036E3,1.588122E3,4.0223694E2,3.6729668E3,6.2784386E1,1.5253375E3],"tree_param":{"num_deleted":"0","num_feature":"26","num_nodes":"7","size_leaf_vector":"1"}},{"base_weights":[1.0556692E0,9.715149E-1,1.3962198E0,1.0989053E-2,6.2196464E-3,1.4601054E-2,-3.539592E-3],"categories":[],"categories_nodes":[],"categories_segments":[],"categories_sizes":[],"default_left":[0,0,0,0,0,0,0],"id":80,"left_children":[1,3,5,-1,-1,-1,-1],"loss_changes":[1.5852295E2,2.0460107E2,1.3177002E2,0E0,0E0,0E0,0E0],"parents":[2147483647,0,0,1,1,2,2],"right_children":[2,4,6,-1,-1,-1,-1],"split_conditions":[9.255E3,3.233E3,8.9E1,1.0989053E-2,6.2196464E-3,1.4601054E-2,-3.539592E-3],"split_indices":[16,16,3,0,0,0,0],"split_type":[0,0,0,0,0,0,0],"sum_hessian":[5.8456494E3,4.705149E3,1.1405006E3,3.4384553E3,1.2666938E3,1.1016865E3,3.88141E1],"tree_param":{"num_deleted":"0","num_feature":"26","num_nodes":"7","size_leaf_vector":"1"}},{"base_weights":[1.0262674E0,1.0636779E0,-1.1802665E-2,6.2890043E-3,1.189333E-2],"categories":[],"categories_nodes":[],"categories_segments":[],"categories_sizes":[],"default_left":[0,0,0,0,0],"id":81,"left_children":[1,3,-1,-1,-1],"loss_changes":[4.8674365E2,3.0736914E2,0E0,0E0,0E0],"parents":[2147483647,0,0,1,1],"right_children":[2,4,-1,-1,-1],"split_conditions":[2.73E2,1E0,-1.1802665E-2,6.2890043E-3,1.189333E-2],"split_indices":[0,6,0,0,0],"split_type":[0,0,0,0,0],"sum_hessian":[5.8169E3,5.722914E3,9.39857E1,1.2916571E3,4.4312573E3],"tree_param":{"num_deleted":"0","num_feature":"26","num_nodes":"5","size_leaf_vector":"1"}},{"base_weights":[1.0346174E0,9.5226496E-1,1.3618131E0,5.4126712E-3,1.0721992E-2,1.4089972E-2,-1.4762111E-3],"categories":[],"categories_nodes":[],"categories_segments":[],"categories_sizes":[],"default_left":[0,0,0,0,0,0,0],"id":82,"left_children":[1,3,5,-1,-1,-1,-1],"loss_changes":[1.4911523E2,2.272168E2,8.522925E1,0E0,0E0,0E0,0E0],"parents":[2147483647,0,0,1,1,2,2],"right_children":[2,4,6,-1,-1,-1,-1],"split_conditions":[9.255E3,1E0,3E0,5.4126712E-3,1.0721992E-2,1.4089972E-2,-1.4762111E-3],"split_indices":[16,6,22,0,0,0,0],"split_type":[0,0,0,0,0,0,0],"sum_hessian":[5.8555146E3,4.696142E3,1.1593727E3,1.06894E3,3.627202E3,1.125195E3,3.4177776E1],"tree_param":{"num_deleted":"0","num_feature":"26","num_nodes":"7","size_leaf_vector":"1"}},{"base_weights":[1.000704E0,6.6317254E-1,1.1050212E0,1.0891111E-2,3.551927E-3,5.6627677E-3,1.1697473E-2],"categories":[],"categories_nodes":[],"categories_segments":[],"categories_sizes":[],"default_left":[0,0,0,0,0,0,0],"id":83,"left_children":[1,3,5,-1,-1,-1,-1],"loss_changes":[2.0212988E2,1.8112866E2,1.5164062E2,0E0,0E0,0E0,0E0],"parents":[2147483647,0,0,1,1,2,2],"right_children":[2,4,6,-1,-1,-1,-1],"split_conditions":[1E0,4E0,2.5E-1,1.0891111E-2,3.551927E-3,5.6627677E-3,1.1697473E-2],"split_indices":[6,17,11,0,0,0,0],"split_type":[0,0,0,0,0,0,0],"sum_hessian":[5.889916E3,1.4015137E3,4.4884023E3,5.8144385E2,8.200698E2,4.8829526E2,4.000107E3],"tree_param":{"num_deleted":"0","num_feature":"26","num_nodes":"7","size_leaf_vector":"1"}},{"base_weights":[9.250971E-1,5.915548E-1,1.021687E0,2.1423467E-3,1.2210484E-2,1.2769378E-2,9.079492E-3],"categories":[],"categories_nodes":[],"categories_segments":[],"categories_sizes":[],"default_left":[0,0,0,0,0,0,0],"id":84,"left_children":[1,3,5,-1,-1,-1,-1],"loss_changes":[1.7958496E2,3.056204E2,1.2047998E2,0E0,0E0,0E0,0E0],"parents":[2147483647,0,0,1,1,2,2],"right_children":[2,4,6,-1,-1,-1,-1],"split_conditions":[1E0,4.334E3,1.581E3,2.1423467E-3,1.2210484E-2,1.2769378E-2,9.079492E-3],"split_indices":[6,16,16,0,0,0,0],"split_type":[0,0,0,0,0,0,0],"sum_hessian":[5.7131455E3,1.2932609E3,4.419885E3,8.137732E2,4.794877E2,1.3439224E3,3.0759624E3],"tree_param":{"num_deleted":"0","num_feature":"26","num_nodes":"7","size_leaf_vector":"1"}},{"base_weights":[1.001523E0,1.0215219E0,-3.1850338E-1,1.0749198E-2,7.1152113E-3,-1.1272708E-2,3.0228947E-3],"categories":[],"categories_nodes":[],"categories_segments":[],"categories_sizes":[],"default_left":[0,0,0,0,0,0,0],"id":85,"left_children":[1,3,5,-1,-1,-1,-1],"loss_changes":[1.5770361E2,9.039307E1,4.816909E1,0E0,0E0,0E0,0E0],"parents":[2147483647,0,0,1,1,2,2],"right_children":[2,4,6,-1,-1,-1,-1],"split_conditions":[4E0,7.34E2,3.571E3,1.0749198E-2,7.1152113E-3,-1.1272708E-2,3.0228947E-3],"split_indices":[22,2,16,0,0,0,0],"split_type":[0,0,0,0,0,0,0],"sum_hessian":[5.880567E3,5.794664E3,8.590297E1,4.9299185E3,8.6474567E2,3.623181E1,4.9671158E1],"tree_param":{"num_deleted":"0","num_feature":"26","num_nodes":"7","size_leaf_vector":"1"}},{"base_weights":[9.6124464E-1,1.1774881E0,7.043772E-1,1.2747413E-2,4.0312023E-3,8.693311E-3,1.5846315E-3],"categories":[],"categories_nodes":[],"categories_segments":[],"categories_sizes":[],"default_left":[0,0,0,0,0,0,0],"id":86,"left_children":[1,3,5,-1,-1,-1,-1],"loss_changes":[3.2273193E2,2.3703906E2,2.4320471E2,0E0,0E0,0E0,0E0],"parents":[2147483647,0,0,1,1,2,2],"right_children":[2,4,6,-1,-1,-1,-1],"split_conditions":[4E0,1E0,1.5166667E1,1.2747413E-2,4.0312023E-3,8.693311E-3,1.5846315E-3],"split_indices":[12,25,11,0,0,0,0],"split_type":[0,0,0,0,0,0,0],"sum_hessian":[5.9137295E3,3.1989155E3,2.7148142E3,2.837971E3,3.609444E2,2.0811711E3,6.3364294E2],"tree_param":{"num_deleted":"0","num_feature":"26","num_nodes":"7","size_leaf_vector":"1"}},{"base_weights":[9.468201E-1,4.8848867E-1,1.0263221E0,-1.478689E-3,7.719582E-3,9.23047E-3,1.4202525E-2],"categories":[],"categories_nodes":[],"categories_segments":[],"categories_sizes":[],"default_left":[0,0,0,0,0,0,0],"id":87,"left_children":[1,3,5,-1,-1,-1,-1],"loss_changes":[2.1441064E2,1.6309535E2,1.9866943E2,0E0,0E0,0E0,0E0],"parents":[2147483647,0,0,1,1,2,2],"right_children":[2,4,6,-1,-1,-1,-1],"split_conditions":[1E0,3.261E3,9.999E3,-1.478689E-3,7.719582E-3,9.23047E-3,1.4202525E-2],"split_indices":[8,16,16,0,0,0,0],"split_type":[0,0,0,0,0,0,0],"sum_hessian":[5.989573E3,8.925126E2,5.0970605E3,2.7470175E2,6.178108E2,4.0536008E3,1.04346E3],"tree_param":{"num_deleted":"0","num_feature":"26","num_nodes":"7","size_leaf_vector":"1"}},{"base_weights":[9.801803E-1,1.0832117E0,7.00968E-1,-4.607669E-3,1.0990471E-2,7.997185E-3,-5.6790025E-3],"categories":[],"categories_nodes":[],"categories_segments":[],"categories_sizes":[],"default_left":[0,0,0,0,0,0,0],"id":88,"left_children":[1,3,5,-1,-1,-1,-1],"loss_changes":[1.6979932E2,1.1176123E2,2.1050787E2,0E0,0E0,0E0,0E0],"parents":[2147483647,0,0,1,1,2,2],"right_children":[2,4,6,-1,-1,-1,-1],"split_conditions":[1.3E2,5.6E1,1.451E3,-4.607669E-3,1.0990471E-2,7.997185E-3,-5.6790025E-3],"split_indices":[0,16,2,0,0,0,0],"split_type":[0,0,0,0,0,0,0],"sum_hessian":[6.0914375E3,4.436397E3,1.6550404E3,4.2971706E1,4.3934253E3,1.5379827E3,1.17057686E2],"tree_param":{"num_deleted":"0","num_feature":"26","num_nodes":"7","size_leaf_vector":"1"}},{"base_weights":[9.4510335E-1,9.676269E-1,-6.9449836E-1,9.375589E-3,2.0196728E-2,3.5494065E-4,-1.1257565E-2],"categories":[],"categories_nodes":[],"categories_segments":[],"categories_sizes":[],"default_left":[0,0,0,0,0,0,0],"id":89,"left_children":[1,3,5,-1,-1,-1,-1],"loss_changes":[2.2788135E2,1.771416E2,2.7921955E1,0E0,0E0,0E0,0E0],"parents":[2147483647,0,0,1,1,2,2],"right_children":[2,4,6,-1,-1,-1,-1],"split_conditions":[2.88E2,2.56E2,-2.53E2,9.375589E-3,2.0196728E-2,3.5494065E-4,-1.1257565E-2],"split_indices":[0,0,3,0,0,0,0],"split_type":[0,0,0,0,0,0,0],"sum_hessian":[6.067293E3,5.9876978E3,7.9595345E1,5.831439E3,1.5625896E2,3.0402536E1,4.9192806E1],"tree_param":{"num_deleted":"0","num_feature":"26","num_nodes":"7","size_leaf_vector":"1"}},{"base_weights":[8.572001E-1,9.151812E-1,2.080061E-1,5.7223695E-3,1.0148414E-2,-5.635319E-3,6.1831116E-3],"categories":[],"categories_nodes":[],"categories_segments":[],"categories_sizes":[],"default_left":[0,0,0,0,0,0,0],"id":90,"left_children":[1,3,5,-1,-1,-1,-1],"loss_changes":[2.192041E2,1.7985791E2,1.56875E2,0E0,0E0,0E0,0E0],"parents":[2147483647,0,0,1,1,2,2],"right_children":[2,4,6,-1,-1,-1,-1],"split_conditions":[2.03E2,1E0,4.334E3,5.7223695E-3,1.0148414E-2,-5.635319E-3,6.1831116E-3],"split_indices":[0,6,16,0,0,0,0],"split_type":[0,0,0,0,0,0,0],"sum_hessian":[5.8736787E3,5.3888027E3,4.8487595E2,1.2232343E3,4.165569E3,1.6684189E2,3.1803406E2],"tree_param":{"num_deleted":"0","num_feature":"26","num_nodes":"7","size_leaf_vector":"1"}},{"base_weights":[9.811144E-1,1.0068772E0,-1.1593939E-2,9.154079E-3,1.3723286E-2],"categories":[],"categories_nodes":[],"categories_segments":[],"categories_sizes":[],"default_left":[0,0,0,0,0],"id":91,"left_children":[1,3,-1,-1,-1],"loss_changes":[3.5003516E2,1.9779004E2,0E0,0E0,0E0],"parents":[2147483647,0,0,1,1],"right_children":[2,4,-1,-1,-1],"split_conditions":[2.88E2,9.999E3,-1.1593939E-2,9.154079E-3,1.3723286E-2],"split_indices":[0,16,0,0,0],"split_type":[0,0,0,0,0],"sum_hessian":[6.2394224E3,6.1682974E3,7.112527E1,4.949693E3,1.2186042E3],"tree_param":{"num_deleted":"0","num_feature":"26","num_nodes":"5","size_leaf_vector":"1"}},{"base_weights":[9.2247176E-1,1.0880243E0,7.3807025E-1,1.2185171E-2,8.705502E-3,7.969936E-3,-5.9542614E-3],"categories":[],"categories_nodes":[],"categories_segments":[],"categories_sizes":[],"default_left":[0,0,0,0,0,0,0],"id":92,"left_children":[1,3,5,-1,-1,-1,-1],"loss_changes":[1.8136475E2,8.392651E1,2.3196301E2,0E0,0E0,0E0,0E0],"parents":[2147483647,0,0,1,1,2,2],"right_children":[2,4,6,-1,-1,-1,-1],"split_conditions":[4E0,2E0,1.482E3,1.2185171E-2,8.705502E-3,7.969936E-3,-5.9542614E-3],"split_indices":[12,22,2,0,0,0,0],"split_type":[0,0,0,0,0,0,0],"sum_hessian":[6.127265E3,3.2128762E3,2.9143892E3,1.9907402E3,1.222136E3,2.7937048E3,1.2068435E2],"tree_param":{"num_deleted":"0","num_feature":"26","num_nodes":"7","size_leaf_vector":"1"}},{"base_weights":[9.410563E-1,8.4721833E-1,1.3013493E0,9.954071E-3,7.101934E-3,1.3745434E-2,8.450245E-4],"categories":[],"categories_nodes":[],"categories_segments":[],"categories_sizes":[],"default_left":[0,0,0,0,0,0,0],"id":93,"left_children":[1,3,5,-1,-1,-1,-1],"loss_changes":[2.024917E2,9.52312E1,1.1132959E2,0E0,0E0,0E0,0E0],"parents":[2147483647,0,0,1,1,2,2],"right_children":[2,4,6,-1,-1,-1,-1],"split_conditions":[9.255E3,4E0,6E0,9.954071E-3,7.101934E-3,1.3745434E-2,8.450245E-4],"split_indices":[16,12,3,0,0,0,0],"split_type":[0,0,0,0,0,0,0],"sum_hessian":[6.210849E3,4.942986E3,1.2678634E3,2.3562E3,2.5867861E3,1.1945411E3,7.332222E1],"tree_param":{"num_deleted":"0","num_feature":"26","num_nodes":"7","size_leaf_vector":"1"}},{"base_weights":[8.3566594E-1,5.1046443E-1,9.328177E-1,1.2636608E-2,3.501055E-3,9.772125E-3,5.5037597E-3],"categories":[],"categories_nodes":[],"categories_segments":[],"categories_sizes":[],"default_left":[0,0,0,0,0,0,0],"id":94,"left_children":[1,3,5,-1,-1,-1,-1],"loss_changes":[1.8769336E2,1.6620908E2,7.488672E1,0E0,0E0,0E0,0E0],"parents":[2147483647,0,0,1,1,2,2],"right_children":[2,4,6,-1,-1,-1,-1],"split_conditions":[1E0,3E0,1.93E2,1.2636608E-2,3.501055E-3,9.772125E-3,5.5037597E-3],"split_indices":[6,12,0,0,0,0,0],"split_type":[0,0,0,0,0,0,0],"sum_hessian":[6.056847E3,1.4027864E3,4.6540605E3,2.3910188E2,1.1636846E3,4.1606865E3,4.9337384E2],"tree_param":{"num_deleted":"0","num_feature":"26","num_nodes":"7","size_leaf_vector":"1"}},{"base_weights":[8.546921E-1,9.1396755E-1,4.6675634E-1,7.0511573E-3,1.0700804E-2,-3.5156128E-3,7.986962E-3],"categories":[],"categories_nodes":[],"categories_segments":[],"categories_sizes":[],"default_left":[0,0,0,0,0,0,0],"id":95,"left_children":[1,3,5,-1,-1,-1,-1],"loss_changes":[1.3709668E2,1.6715283E2,2.2538754E2,0E0,0E0,0E0,0E0],"parents":[2147483647,0,0,1,1,2,2],"right_children":[2,4,6,-1,-1,-1,-1],"split_conditions":[7.34E2,1E0,6.25E0,7.0511573E-3,1.0700804E-2,-3.5156128E-3,7.986962E-3],"split_indices":[2,2,11,0,0,0,0],"split_type":[0,0,0,0,0,0,0],"sum_hessian":[6.109796E3,5.291858E3,8.1793787E2,2.2781199E3,3.0137383E3,2.3508484E2,5.82853E2],"tree_param":{"num_deleted":"0","num_feature":"26","num_nodes":"7","size_leaf_vector":"1"}},{"base_weights":[9.1525584E-1,1.103805E0,7.112336E-1,1.17184445E-2,3.7192141E-3,6.5717525E-3,1.6857669E-2],"categories":[],"categories_nodes":[],"categories_segments":[],"categories_sizes":[],"default_left":[0,0,0,0,0,0,0],"id":96,"left_children":[1,3,5,-1,-1,-1,-1],"loss_changes":[2.3864551E2,1.601123E2,1.537384E2,0E0,0E0,0E0,0E0],"parents":[2147483647,0,0,1,1,2,2],"right_children":[2,4,6,-1,-1,-1,-1],"split_conditions":[1E0,1E0,1.574E3,1.17184445E-2,3.7192141E-3,6.5717525E-3,1.6857669E-2],"split_indices":[21,4,17,0,0,0,0],"split_type":[0,0,0,0,0,0,0],"sum_hessian":[6.3479253E3,3.285056E3,3.0628691E3,3.0016367E3,2.8341907E2,2.9108018E3,1.5206732E2],"tree_param":{"num_deleted":"0","num_feature":"26","num_nodes":"7","size_leaf_vector":"1"}},{"base_weights":[8.0944127E-1,7.2454196E-1,1.1529231E0,8.448237E-3,5.0078607E-3,4.590719E-3,1.3473525E-2],"categories":[],"categories_nodes":[],"categories_segments":[],"categories_sizes":[],"default_left":[0,0,0,0,0,0,0],"id":97,"left_children":[1,3,5,-1,-1,-1,-1],"loss_changes":[1.7340771E2,1.2976855E2,1.5818347E2,0E0,0E0,0E0,0E0],"parents":[2147483647,0,0,1,1,2,2],"right_children":[2,4,6,-1,-1,-1,-1],"split_conditions":[9.999E3,2.816E3,2E0,8.448237E-3,5.0078607E-3,4.590719E-3,1.3473525E-2],"split_indices":[16,16,11,0,0,0,0],"split_type":[0,0,0,0,0,0,0],"sum_hessian":[6.149107E3,4.945238E3,1.2038694E3,3.2043608E3,1.740877E3,2.683107E2,9.355587E2],"tree_param":{"num_deleted":"0","num_feature":"26","num_nodes":"7","size_leaf_vector":"1"}},{"base_weights":[7.74757E-1,7.9168653E-1,-1.1272644E-2,8.278532E-3,3.3773488E-4],"categories":[],"categories_nodes":[],"categories_segments":[],"categories_sizes":[],"default_left":[0,0,0,0,0],"id":98,"left_children":[1,3,-1,-1,-1],"loss_changes":[1.9588452E2,1.608916E2,0E0,0E0,0E0],"parents":[2147483647,0,0,1,1],"right_children":[2,4,-1,-1,-1],"split_conditions":[3.08E2,1.665E3,-1.1272644E-2,8.278532E-3,3.3773488E-4],"split_indices":[0,2,0,0,0],"split_type":[0,0,0,0,0],"sum_hessian":[5.95017E3,5.9010903E3,4.9079807E1,5.630623E3,2.70467E2],"tree_param":{"num_deleted":"0","num_feature":"26","num_nodes":"5","size_leaf_vector":"1"}},{"base_weights":[8.620542E-1,7.808015E-1,1.191344E0,8.657704E-3,3.98068E-3,1.2449852E-2,-4.0793824E-3],"categories":[],"categories_nodes":[],"categories_segments":[],"categories_sizes":[],"default_left":[0,0,0,0,0,0,0],"id":99,"left_children":[1,3,5,-1,-1,-1,-1],"loss_changes":[1.637124E2,1.6362451E2,1.1044348E2,0E0,0E0,0E0,0E0],"parents":[2147483647,0,0,1,1,2,2],"right_children":[2,4,6,-1,-1,-1,-1],"split_conditions":[9.999E3,3.912E3,8.9E1,8.657704E-3,3.98068E-3,1.2449852E-2,-4.0793824E-3],"split_indices":[16,16,3,0,0,0,0],"split_type":[0,0,0,0,0,0,0],"sum_hessian":[6.361333E3,5.1182817E3,1.2430515E3,4.1811255E3,9.3715607E2,1.2043883E3,3.8663216E1],"tree_param":{"num_deleted":"0","num_feature":"26","num_nodes":"7","size_leaf_vector":"1"}},{"base_weights":[8.07228E-1,9.476821E-1,6.6407037E-1,1.3016015E-2,8.812357E-3,6.1558257E-3,1.4231067E-2],"categories":[],"categories_nodes":[],"categories_segments":[],"categories_sizes":[],"default_left":[0,0,0,0,0,0,0],"id":100,"left_children":[1,3,5,-1,-1,-1,-1],"loss_changes":[1.19595215E2,6.5137695E1,1.0704956E2,0E0,0E0,0E0,0E0],"parents":[2147483647,0,0,1,1,2,2],"right_children":[2,4,6,-1,-1,-1,-1],"split_conditions":[1E0,1E0,5.9E1,1.3016015E-2,8.812357E-3,6.1558257E-3,1.4231067E-2],"split_indices":[21,22,11,0,0,0,0],"split_type":[0,0,0,0,0,0,0],"sum_hessian":[6.179583E3,3.1015364E3,3.0780469E3,4.731835E2,2.6283528E3,2.902975E3,1.750717E2],"tree_param":{"num_deleted":"0","num_feature":"26","num_nodes":"7","size_leaf_vector":"1"}},{"base_weights":[8.330513E-1,8.540906E-1,-2.4111919E-1,5.921883E-3,9.3290415E-3,1.9582096E-2,-1.1928011E-2],"categories":[],"categories_nodes":[],"categories_segments":[],"categories_sizes":[],"default_left":[0,0,0,0,0,0,0],"id":101,"left_children":[1,3,5,-1,-1,-1,-1],"loss_changes":[1.4514746E2,1.2430713E2,2.724796E2,0E0,0E0,0E0,0E0],"parents":[2147483647,0,0,1,1,2,2],"right_children":[2,4,6,-1,-1,-1,-1],"split_conditions":[2.78E2,1E0,1.988E3,5.921883E-3,9.3290415E-3,1.9582096E-2,-1.1928011E-2],"split_indices":[0,6,16,0,0,0,0],"split_type":[0,0,0,0,0,0,0],"sum_hessian":[6.3448496E3,6.2248813E3,1.1996826E2,1.4527067E3,4.7721743E3,3.4318825E1,8.564944E1],"tree_param":{"num_deleted":"0","num_feature":"26","num_nodes":"7","size_leaf_vector":"1"}},{"base_weights":[7.953912E-1,3.5586968E-1,8.546559E-1,4.602334E-3,-7.0625874E-3,1.9237682E-2,8.269499E-3],"categories":[],"categories_nodes":[],"categories_segments":[],"categories_sizes":[],"default_left":[0,0,0,0,0,0,0],"id":102,"left_children":[1,3,5,-1,-1,-1,-1],"loss_changes":[1.608164E2,8.524556E1,1.5301196E2,0E0,0E0,0E0,0E0],"parents":[2147483647,0,0,1,1,2,2],"right_children":[2,4,6,-1,-1,-1,-1],"split_conditions":[5E-1,7.34E2,9.166667E-1,4.602334E-3,-7.0625874E-3,1.9237682E-2,8.269499E-3],"split_indices":[11,2,11,0,0,0,0],"split_type":[0,0,0,0,0,0,0],"sum_hessian":[6.2736733E3,7.5159076E2,5.5220825E3,6.877846E2,6.380614E1,1.2993457E2,5.392148E3],"tree_param":{"num_deleted":"0","num_feature":"26","num_nodes":"7","size_leaf_vector":"1"}},{"base_weights":[7.176743E-1,6.772087E-1,1.6668946E0,-3.4088804E-3,7.11518E-3,4.0088166E-3,1.9046368E-2],"categories":[],"categories_nodes":[],"categories_segments":[],"categories_sizes":[],"default_left":[0,0,0,0,0,0,0],"id":103,"left_children":[1,3,5,-1,-1,-1,-1],"loss_changes":[2.2540234E2,2.054773E2,6.731915E1,0E0,0E0,0E0,0E0],"parents":[2147483647,0,0,1,1,2,2],"right_children":[2,4,6,-1,-1,-1,-1],"split_conditions":[1.574E3,-1.296E3,6.25E0,-3.4088804E-3,7.11518E-3,4.0088166E-3,1.9046368E-2],"split_indices":[17,3,11,0,0,0,0],"split_type":[0,0,0,0,0,0,0],"sum_hessian":[6.0711787E3,5.832172E3,2.3900688E2,1.8772711E2,5.644445E3,4.0575203E1,1.9843169E2],"tree_param":{"num_deleted":"0","num_feature":"26","num_nodes":"7","size_leaf_vector":"1"}},{"base_weights":[7.650004E-1,7.41412E-1,1.7447965E-2,7.596889E-3,-3.8614555E-3],"categories":[],"categories_nodes":[],"categories_segments":[],"categories_sizes":[],"default_left":[0,0,0,0,0],"id":104,"left_children":[1,3,-1,-1,-1],"loss_changes":[1.3545703E2,1.27781006E2,0E0,0E0,0E0],"parents":[2147483647,0,0,1,1],"right_children":[2,4,-1,-1,-1],"split_conditions":[1E0,2.88E2,1.7447965E-2,7.596889E-3,-3.8614555E-3],"split_indices":[10,0,0,0,0],"split_type":[0,0,0,0,0],"sum_hessian":[6.2433687E3,6.1061675E3,1.3720087E2,6.0112476E3,9.492006E1],"tree_param":{"num_deleted":"0","num_feature":"26","num_nodes":"5","size_leaf_vector":"1"}},{"base_weights":[7.8304523E-1,8.044695E-1,-5.829122E-1,7.816067E-3,1.7498447E-2,-1.3349334E-2,8.657531E-3],"categories":[],"categories_nodes":[],"categories_segments":[],"categories_sizes":[],"default_left":[0,0,0,0,0,0,0],"id":105,"left_children":[1,3,5,-1,-1,-1,-1],"loss_changes":[1.8917603E2,1.26386475E2,1.158963E2,0E0,0E0,0E0,0E0],"parents":[2147483647,0,0,1,1,2,2],"right_children":[2,4,6,-1,-1,-1,-1],"split_conditions":[2.241E3,1E0,1.753E3,7.816067E-3,1.7498447E-2,-1.3349334E-2,8.657531E-3],"split_indices":[2,10,17,0,0,0,0],"split_type":[0,0,0,0,0,0,0],"sum_hessian":[6.371619E3,6.275971E3,9.564785E1,6.1377295E3,1.3824207E2,6.367576E1,3.1972092E1],"tree_param":{"num_deleted":"0","num_feature":"26","num_nodes":"7","size_leaf_vector":"1"}},{"base_weights":[7.5343096E-1,9.480427E-1,5.520935E-1,9.733012E-3,-2.5509482E-3,2.675009E-4,6.7461208E-3],"categories":[],"categories_nodes":[],"categories_segments":[],"categories_sizes":[],"default_left":[0,0,0,0,0,0,0],"id":106,"left_children":[1,3,5,-1,-1,-1,-1],"loss_changes":[2.4132324E2,9.846802E1,1.9830695E2,0E0,0E0,0E0,0E0],"parents":[2147483647,0,0,1,1,2,2],"right_children":[2,4,6,-1,-1,-1,-1],"split_conditions":[1E0,2E0,1E0,9.733012E-3,-2.5509482E-3,2.675009E-4,6.7461208E-3],"split_indices":[21,3,17,0,0,0,0],"split_type":[0,0,0,0,0,0,0],"sum_hessian":[6.259017E3,3.1707122E3,3.088305E3,3.107265E3,6.344717E1,5.8673145E2,2.5015735E3],"tree_param":{"num_deleted":"0","num_feature":"26","num_nodes":"7","size_leaf_vector":"1"}},{"base_weights":[7.05236E-1,8.9600325E-1,4.9309364E-1,1.4590325E-2,8.338252E-3,-2.9225275E-3,5.5881618E-3],"categories":[],"categories_nodes":[],"categories_segments":[],"categories_sizes":[],"default_left":[0,0,0,0,0,0,0],"id":107,"left_children":[1,3,5,-1,-1,-1,-1],"loss_changes":[2.5049829E2,1.0705542E2,1.5522528E2,0E0,0E0,0E0,0E0],"parents":[2147483647,0,0,1,1,2,2],"right_children":[2,4,6,-1,-1,-1,-1],"split_conditions":[4E0,2E0,-1.098E3,1.4590325E-2,8.338252E-3,-2.9225275E-3,5.5881618E-3],"split_indices":[12,12,3,0,0,0,0],"split_type":[0,0,0,0,0,0,0],"sum_hessian":[6.2736626E3,3.2922783E3,2.9813845E3,3.1465265E2,2.9776257E3,2.2772722E2,2.7536572E3],"tree_param":{"num_deleted":"0","num_feature":"26","num_nodes":"7","size_leaf_vector":"1"}},{"base_weights":[7.847396E-1,8.027183E-1,-4.176939E-1,7.77648E-3,1.4856634E-2,-1.2437691E-2,5.668948E-3],"categories":[],"categories_nodes":[],"categories_segments":[],"categories_sizes":[],"default_left":[0,0,0,0,0,0,0],"id":108,"left_children":[1,3,5,-1,-1,-1,-1],"loss_changes":[1.4119385E2,1.00573E2,8.332498E1,0E0,0E0,0E0,0E0],"parents":[2147483647,0,0,1,1,2,2],"right_children":[2,4,6,-1,-1,-1,-1],"split_conditions":[4E0,1.574E3,1.86E2,7.77648E-3,1.4856634E-2,-1.2437691E-2,5.668948E-3],"split_indices":[22,17,0,0,0,0,0],"split_type":[0,0,0,0,0,0,0],"sum_hessian":[6.430897E3,6.338616E3,9.2280655E1,6.125898E3,2.1271828E2,5.001623E1,4.2264423E1],"tree_param":{"num_deleted":"0","num_feature":"26","num_nodes":"7","size_leaf_vector":"1"}},{"base_weights":[7.338051E-1,2.6187024E-1,8.133431E-1,-8.198171E-3,3.6656412E-3,1.11512765E-2,7.1733003E-3],"categories":[],"categories_nodes":[],"categories_segments":[],"categories_sizes":[],"default_left":[0,0,0,0,0,0,0],"id":109,"left_children":[1,3,5,-1,-1,-1,-1],"loss_changes":[2.3868506E2,1.0687954E2,1.5313232E2,0E0,0E0,0E0,0E0],"parents":[2147483647,0,0,1,1,2,2],"right_children":[2,4,6,-1,-1,-1,-1],"split_conditions":[1E0,1.89E3,6.1E1,-8.198171E-3,3.6656412E-3,1.11512765E-2,7.1733003E-3],"split_indices":[8,16,0,0,0,0,0],"split_type":[0,0,0,0,0,0,0],"sum_hessian":[6.4107163E3,9.295158E2,5.4812007E3,7.816965E1,8.513462E2,1.3076282E3,4.1735723E3],"tree_param":{"num_deleted":"0","num_feature":"26","num_nodes":"7","size_leaf_vector":"1"}},{"base_weights":[7.5429136E-1,3.2004848E-1,8.7778884E-1,9.79301E-4,7.3091984E-3,-7.990309E-3,8.991998E-3],"categories":[],"categories_nodes":[],"categories_segments":[],"categories_sizes":[],"default_left":[0,0,0,0,0,0,0],"id":110,"left_children":[1,3,5,-1,-1,-1,-1],"loss_changes":[3.4465625E2,1.3054652E2,1.8452783E2,0E0,0E0,0E0,0E0],"parents":[2147483647,0,0,1,1,2,2],"right_children":[2,4,6,-1,-1,-1,-1],"split_conditions":[1E0,1.725E1,1E0,9.79301E-4,7.3091984E-3,-7.990309E-3,8.991998E-3],"split_indices":[6,11,7,0,0,0,0],"split_type":[0,0,0,0,0,0,0],"sum_hessian":[6.470336E3,1.4384612E3,5.031875E3,9.3929877E2,4.9916235E2,6.0562508E1,4.9713125E3],"tree_param":{"num_deleted":"0","num_feature":"26","num_nodes":"7","size_leaf_vector":"1"}},{"base_weights":[7.276428E-1,9.3144894E-1,4.9807933E-1,9.603076E-3,-3.5520622E-3,1.2199514E-3,6.3392497E-3],"categories":[],"categories_nodes":[],"categories_segments":[],"categories_sizes":[],"default_left":[0,0,0,0,0,0,0],"id":111,"left_children":[1,3,5,-1,-1,-1,-1],"loss_changes":[2.960586E2,1.280503E2,1.5348596E2,0E0,0E0,0E0,0E0],"parents":[2147483647,0,0,1,1,2,2],"right_children":[2,4,6,-1,-1,-1,-1],"split_conditions":[4E0,2.307E3,-1.18E2,9.603076E-3,-3.5520622E-3,1.2199514E-3,6.3392497E-3],"split_indices":[12,2,3,0,0,0,0],"split_type":[0,0,0,0,0,0,0],"sum_hessian":[6.4030054E3,3.3813777E3,3.0216274E3,3.3092004E3,7.217729E1,8.062904E2,2.2153372E3],"tree_param":{"num_deleted":"0","num_feature":"26","num_nodes":"7","size_leaf_vector":"1"}},{"base_weights":[7.2488165E-1,4.205145E-1,8.159653E-1,6.656334E-3,-5.091772E-3,8.621412E-3,4.5893467E-3],"categories":[],"categories_nodes":[],"categories_segments":[],"categories_sizes":[],"default_left":[0,0,0,0,0,0,0],"id":112,"left_children":[1,3,5,-1,-1,-1,-1],"loss_changes":[1.7599585E2,3.4358542E2,7.847705E1,0E0,0E0,0E0,0E0],"parents":[2147483647,0,0,1,1,2,2],"right_children":[2,4,6,-1,-1,-1,-1],"split_conditions":[1E0,1.36E2,8.36E2,6.656334E-3,-5.091772E-3,8.621412E-3,4.5893467E-3],"split_indices":[6,0,2,0,0,0,0],"split_type":[0,0,0,0,0,0,0],"sum_hessian":[6.4498877E3,1.4945908E3,4.955297E3,1.1847262E3,3.0986456E2,4.3790635E3,5.762335E2],"tree_param":{"num_deleted":"0","num_feature":"26","num_nodes":"7","size_leaf_vector":"1"}},{"base_weights":[6.7972594E-1,8.559779E-1,4.9126574E-1,2.578458E-4,9.09798E-3,4.566926E-3,2.2878194E-2],"categories":[],"categories_nodes":[],"categories_segments":[],"categories_sizes":[],"default_left":[0,0,0,0,0,0,0],"id":113,"left_children":[1,3,5,-1,-1,-1,-1],"loss_changes":[2.0684521E2,1.4469702E2,1.829674E2,0E0,0E0,0E0,0E0],"parents":[2147483647,0,0,1,1,2,2],"right_children":[2,4,6,-1,-1,-1,-1],"split_conditions":[4E0,2.49E2,1.663E3,2.578458E-4,9.09798E-3,4.566926E-3,2.2878194E-2],"split_indices":[12,16,17,0,0,0,0],"split_type":[0,0,0,0,0,0,0],"sum_hessian":[6.3260396E3,3.257005E3,3.0690347E3,1.99873E2,3.0571318E3,3.0177876E3,5.1247116E1],"tree_param":{"num_deleted":"0","num_feature":"26","num_nodes":"7","size_leaf_vector":"1"}},{"base_weights":[6.813739E-1,2.2958866E-1,7.605669E-1,1.0400029E-3,7.406385E-3,1.0600168E-2,6.5993154E-3],"categories":[],"categories_nodes":[],"categories_segments":[],"categories_sizes":[],"default_left":[0,0,0,0,0,0,0],"id":114,"left_children":[1,3,5,-1,-1,-1,-1],"loss_changes":[2.2798218E2,6.084582E1,1.5938086E2,0E0,0E0,0E0,0E0],"parents":[2147483647,0,0,1,1,2,2],"right_children":[2,4,6,-1,-1,-1,-1],"split_conditions":[1E0,1E0,6.2E1,1.0400029E-3,7.406385E-3,1.0600168E-2,6.5993154E-3],"split_indices":[8,19,0,0,0,0,0],"split_type":[0,0,0,0,0,0,0],"sum_hessian":[6.419173E3,9.621819E2,5.4569907E3,7.787754E2,1.834065E2,1.3581333E3,4.0988574E3],"tree_param":{"num_deleted":"0","num_feature":"26","num_nodes":"7","size_leaf_vector":"1"}},{"base_weights":[7.2731763E-1,6.65678E-1,9.8892754E-1,7.478604E-3,2.534438E-3,3.7953847E-3,1.1716405E-2],"categories":[],"categories_nodes":[],"categories_segments":[],"categories_sizes":[],"default_left":[0,0,0,0,0,0,0],"id":115,"left_children":[1,3,5,-1,-1,-1,-1],"loss_changes":[1.0155029E2,1.7975024E2,1.3495386E2,0E0,0E0,0E0,0E0],"parents":[2147483647,0,0,1,1,2,2],"right_children":[2,4,6,-1,-1,-1,-1],"split_conditions":[9.999E3,4.049E3,2.3333333E0,7.478604E-3,2.534438E-3,3.7953847E-3,1.1716405E-2],"split_indices":[16,16,11,0,0,0,0],"split_type":[0,0,0,0,0,0,0],"sum_hessian":[6.599227E3,5.3582754E3,1.2409517E3,4.462201E3,8.960742E2,2.9106006E2,9.498916E2],"tree_param":{"num_deleted":"0","num_feature":"26","num_nodes":"7","size_leaf_vector":"1"}},{"base_weights":[6.8087506E-1,3.4781826E-1,7.8109056E-1,6.468811E-3,-1.0061693E-4,8.017289E-3,-4.516643E-3],"categories":[],"categories_nodes":[],"categories_segments":[],"categories_sizes":[],"default_left":[0,0,0,0,0,0,0],"id":116,"left_children":[1,3,5,-1,-1,-1,-1],"loss_changes":[2.1289893E2,1.6163033E2,1.2820459E2,0E0,0E0,0E0,0E0],"parents":[2147483647,0,0,1,1,2,2],"right_children":[2,4,6,-1,-1,-1,-1],"split_conditions":[1E0,4E0,2.241E3,6.468811E-3,-1.0061693E-4,8.017289E-3,-4.516643E-3],"split_indices":[6,12,2,0,0,0,0],"split_type":[0,0,0,0,0,0,0],"sum_hessian":[6.448051E3,1.4989064E3,4.9491445E3,8.1587555E2,6.830309E2,4.870169E3,7.8975624E1],"tree_param":{"num_deleted":"0","num_feature":"26","num_nodes":"7","size_leaf_vector":"1"}},{"base_weights":[6.9198215E-1,5.909912E-1,1.0925536E0,7.3654642E-3,2.6305951E-3,1.1394558E-2,-4.1686837E-3],"categories":[],"categories_nodes":[],"categories_segments":[],"categories_sizes":[],"default_left":[0,0,0,0,0,0,0],"id":117,"left_children":[1,3,5,-1,-1,-1,-1],"loss_changes":[2.5786743E2,2.4627234E2,9.513501E1,0E0,0E0,0E0,0E0],"parents":[2147483647,0,0,1,1,2,2],"right_children":[2,4,6,-1,-1,-1,-1],"split_conditions":[9.999E3,3.014E3,2.232E3,7.3654642E-3,2.6305951E-3,1.1394558E-2,-4.1686837E-3],"split_indices":[16,16,2,0,0,0,0],"split_type":[0,0,0,0,0,0,0],"sum_hessian":[6.4907446E3,5.195695E3,1.29505E3,3.5920522E3,1.6036423E3,1.2578528E3,3.7197212E1],"tree_param":{"num_deleted":"0","num_feature":"26","num_nodes":"7","size_leaf_vector":"1"}},{"base_weights":[6.648905E-1,5.831037E-1,9.9739945E-1,6.1458205E-3,-8.913027E-3,4.1677663E-3,1.17745055E-2],"categories":[],"categories_nodes":[],"categories_segments":[],"categories_sizes":[],"default_left":[0,0,0,0,0,0,0],"id":118,"left_children":[1,3,5,-1,-1,-1,-1],"loss_changes":[1.707605E2,2.4317712E2,1.2795801E2,0E0,0E0,0E0,0E0],"parents":[2147483647,0,0,1,1,2,2],"right_children":[2,4,6,-1,-1,-1,-1],"split_conditions":[9.999E3,6.874E3,2E0,6.1458205E-3,-8.913027E-3,4.1677663E-3,1.17745055E-2],"split_indices":[16,16,11,0,0,0,0],"split_type":[0,0,0,0,0,0,0],"sum_hessian":[6.4392007E3,5.1814917E3,1.2577091E3,5.0766987E3,1.04792625E2,3.029366E2,9.5477246E2],"tree_param":{"num_deleted":"0","num_feature":"26","num_nodes":"7","size_leaf_vector":"1"}},{"base_weights":[6.706733E-1,8.2051635E-1,5.186193E-1,4.74055E-3,9.003937E-3,2.5830852E-4,5.6612403E-3],"categories":[],"categories_nodes":[],"categories_segments":[],"categories_sizes":[],"default_left":[0,0,0,0,0,0,0],"id":119,"left_children":[1,3,5,-1,-1,-1,-1],"loss_changes":[1.4556714E2,8.733545E1,7.5732666E1,0E0,0E0,0E0,0E0],"parents":[2147483647,0,0,1,1,2,2],"right_children":[2,4,6,-1,-1,-1,-1],"split_conditions":[1E0,1E0,-1.25E3,4.74055E-3,9.003937E-3,2.5830852E-4,5.6612403E-3],"split_indices":[21,6,3,0,0,0,0],"split_type":[0,0,0,0,0,0,0],"sum_hessian":[6.536096E3,3.277599E3,3.258497E3,6.2292163E2,2.6546775E3,2.8902963E2,2.9694675E3],"tree_param":{"num_deleted":"0","num_feature":"26","num_nodes":"7","size_leaf_vector":"1"}},{"base_weights":[7.257031E-1,6.373768E-1,1.0760624E0,7.298329E-3,2.8728463E-3,1.1338345E-2,-1.862275E-3],"categories":[],"categories_nodes":[],"categories_segments":[],"categories_sizes":[],"default_left":[0,0,0,0,0,0,0],"id":120,"left_children":[1,3,5,-1,-1,-1,-1],"loss_changes":[2.037771E2,1.7292896E2,1.00433716E2,0E0,0E0,0E0,0E0],"parents":[2147483647,0,0,1,1,2,2],"right_children":[2,4,6,-1,-1,-1,-1],"split_conditions":[9.999E3,2.1083334E1,2.155E3,7.298329E-3,2.8728463E-3,1.1338345E-2,-1.862275E-3],"split_indices":[16,11,2,0,0,0,0],"split_type":[0,0,0,0,0,0,0],"sum_hessian":[6.7461187E3,5.4013716E3,1.3447471E3,4.26638E3,1.1349917E3,1.2871388E3,5.7608284E1],"tree_param":{"num_deleted":"0","num_feature":"26","num_nodes":"7","size_leaf_vector":"1"}},{"base_weights":[6.815691E-1,4.6364796E-1,8.0009365E-1,3.1596224E-3,7.8697605E-3,-1.144154E-3,8.369615E-3],"categories":[],"categories_nodes":[],"categories_segments":[],"categories_sizes":[],"default_left":[0,0,0,0,0,0,0],"id":121,"left_children":[1,3,5,-1,-1,-1,-1],"loss_changes":[1.6890405E2,1.1039795E2,1.4631299E2,0E0,0E0,0E0,0E0],"parents":[2147483647,0,0,1,1,2,2],"right_children":[2,4,6,-1,-1,-1,-1],"split_conditions":[1E0,1E0,2.28E2,3.1596224E-3,7.8697605E-3,-1.144154E-3,8.369615E-3],"split_indices":[2,20,16,0,0,0,0],"split_type":[0,0,0,0,0,0,0],"sum_hessian":[6.655035E3,2.3560886E3,4.2989463E3,1.6262498E3,7.29839E2,1.6513448E2,4.1338115E3],"tree_param":{"num_deleted":"0","num_feature":"26","num_nodes":"7","size_leaf_vector":"1"}},{"base_weights":[6.346135E-1,6.846738E-1,8.966883E-2,3.9093676E-3,7.7307713E-3,-5.9024786E-4,1.32377315E-2],"categories":[],"categories_nodes":[],"categories_segments":[],"categories_sizes":[],"default_left":[0,0,0,0,0,0,0],"id":122,"left_children":[1,3,5,-1,-1,-1,-1],"loss_changes":[1.776836E2,1.5310742E2,1.0418989E2,0E0,0E0,0E0,0E0],"parents":[2147483647,0,0,1,1,2,2],"right_children":[2,4,6,-1,-1,-1,-1],"split_conditions":[2.03E2,1E0,9.999E3,3.9093676E-3,7.7307713E-3,-5.9024786E-4,1.32377315E-2],"split_indices":[0,6,16,0,0,0,0],"split_type":[0,0,0,0,0,0,0],"sum_hessian":[6.5479346E3,5.994174E3,5.5376044E2,1.3955651E3,4.598609E3,4.9773978E2,5.602065E1],"tree_param":{"num_deleted":"0","num_feature":"26","num_nodes":"7","size_leaf_vector":"1"}},{"base_weights":[5.7926255E-1,5.550334E-1,1.5098662E0,2.2990864E-3,6.2004966E-3,1.6660191E-2,7.1094017E-3],"categories":[],"categories_nodes":[],"categories_segments":[],"categories_sizes":[],"default_left":[0,0,0,0,0,0,0],"id":123,"left_children":[1,3,5,-1,-1,-1,-1],"loss_changes":[1.3717285E2,1.29677E2,1.1344727E1,0E0,0E0,0E0,0E0],"parents":[2147483647,0,0,1,1,2,2],"right_children":[2,4,6,-1,-1,-1,-1],"split_conditions":[1E0,1.4E1,1.31E2,2.2990864E-3,6.2004966E-3,1.6660191E-2,7.1094017E-3],"split_indices":[10,0,2,0,0,0,0],"split_type":[0,0,0,0,0,0,0],"sum_hessian":[6.356058E3,6.203598E3,1.5246017E2,1.0401611E3,5.163437E3,1.2194693E2,3.0513245E1],"tree_param":{"num_deleted":"0","num_feature":"26","num_nodes":"7","size_leaf_vector":"1"}},{"base_weights":[5.8176535E-1,5.310394E-1,1.1189185E0,2.750331E-3,6.0847853E-3,1.2761398E-2,5.178614E-3],"categories":[],"categories_nodes":[],"categories_segments":[],"categories_sizes":[],"default_left":[0,0,0,0,0,0,0],"id":124,"left_children":[1,3,5,-1,-1,-1,-1],"loss_changes":[1.7008203E2,1.1464514E2,4.6594727E1,0E0,0E0,0E0,0E0],"parents":[2147483647,0,0,1,1,2,2],"right_children":[2,4,6,-1,-1,-1,-1],"split_conditions":[1E0,1E0,3.06E2,2.750331E-3,6.0847853E-3,1.2761398E-2,5.178614E-3],"split_indices":[1,6,2,0,0,0,0],"split_type":[0,0,0,0,0,0,0],"sum_hessian":[6.406675E3,5.864652E3,5.420229E2,1.3702871E3,4.4943647E3,4.2386978E2,1.181531E2],"tree_param":{"num_deleted":"0","num_feature":"26","num_nodes":"7","size_leaf_vector":"1"}},{"base_weights":[5.7771367E-1,-9.058648E-2,6.163633E-1,2.2053495E-3,-1.4867691E-2,2.4042607E-3,6.9035348E-3],"categories":[],"categories_nodes":[],"categories_segments":[],"categories_sizes":[],"default_left":[0,0,0,0,0,0,0],"id":125,"left_children":[1,3,5,-1,-1,-1,-1],"loss_changes":[1.6512354E2,1.5526181E2,1.6557568E2,0E0,0E0,0E0,0E0],"parents":[2147483647,0,0,1,1,2,2],"right_children":[2,4,6,-1,-1,-1,-1],"split_conditions":[4.76E2,1E0,1E0,2.2053495E-3,-1.4867691E-2,2.4042607E-3,6.9035348E-3],"split_indices":[16,20,8,0,0,0,0],"split_type":[0,0,0,0,0,0,0],"sum_hessian":[6.3566494E3,3.4574207E2,6.010907E3,2.8559488E2,6.0147175E1,9.942057E2,5.0167017E3],"tree_param":{"num_deleted":"0","num_feature":"26","num_nodes":"7","size_leaf_vector":"1"}},{"base_weights":[5.6727004E-1,4.637394E-1,8.339122E-1,4.9090623E-3,-8.052831E-3,-4.7763204E-3,8.9468835E-3],"categories":[],"categories_nodes":[],"categories_segments":[],"categories_sizes":[],"default_left":[0,0,0,0,0,0,0],"id":126,"left_children":[1,3,5,-1,-1,-1,-1],"loss_changes":[1.7416504E2,1.6172394E2,1.451001E2,0E0,0E0,0E0,0E0],"parents":[2147483647,0,0,1,1,2,2],"right_children":[2,4,6,-1,-1,-1,-1],"split_conditions":[1E0,2.78E2,4.13E2,4.9090623E-3,-8.052831E-3,-4.7763204E-3,8.9468835E-3],"split_indices":[20,0,16,0,0,0,0],"split_type":[0,0,0,0,0,0,0],"sum_hessian":[6.421091E3,4.6377944E3,1.7832963E3,4.5443643E3,9.343051E1,7.672966E1,1.7065665E3],"tree_param":{"num_deleted":"0","num_feature":"26","num_nodes":"7","size_leaf_vector":"1"}},{"base_weights":[5.5614746E-1,6.808875E-1,2.1404336E-1,3.087668E-3,7.391786E-3,4.692168E-3,-2.1624395E-3],"categories":[],"categories_nodes":[],"categories_segments":[],"categories_sizes":[],"default_left":[0,0,0,0,0,0,0],"id":127,"left_children":[1,3,5,-1,-1,-1,-1],"loss_changes":[2.756095E2,1.0097974E2,1.9238992E2,0E0,0E0,0E0,0E0],"parents":[2147483647,0,0,1,1,2,2],"right_children":[2,4,6,-1,-1,-1,-1],"split_conditions":[1.29E2,2E0,2.2E2,3.087668E-3,7.391786E-3,4.692168E-3,-2.1624395E-3],"split_indices":[0,11,17,0,0,0,0],"split_type":[0,0,0,0,0,0,0],"sum_hessian":[6.4915176E3,4.751223E3,1.7402943E3,6.500508E2,4.1011724E3,1.0936176E3,6.466767E2],"tree_param":{"num_deleted":"0","num_feature":"26","num_nodes":"7","size_leaf_vector":"1"}},{"base_weights":[5.2477825E-1,7.099326E-1,3.3600882E-1,7.570454E-3,2.9830916E-3,-6.062263E-3,3.9640814E-3],"categories":[],"categories_nodes":[],"categories_segments":[],"categories_sizes":[],"default_left":[0,0,0,0,0,0,0],"id":128,"left_children":[1,3,5,-1,-1,-1,-1],"loss_changes":[2.2086853E2,6.0170044E1,1.8156708E2,0E0,0E0,0E0,0E0],"parents":[2147483647,0,0,1,1,2,2],"right_children":[2,4,6,-1,-1,-1,-1],"split_conditions":[1E0,5.97E2,2.5E-1,7.570454E-3,2.9830916E-3,-6.062263E-3,3.9640814E-3],"split_indices":[21,2,11,0,0,0,0],"split_type":[0,0,0,0,0,0,0],"sum_hessian":[6.378334E3,3.2103562E3,3.1679775E3,2.8747036E3,3.3565253E2,1.8712166E2,2.980856E3],"tree_param":{"num_deleted":"0","num_feature":"26","num_nodes":"7","size_leaf_vector":"1"}},{"base_weights":[5.656557E-1,7.5184107E-1,3.4567872E-1,-7.9144863E-4,7.969865E-3,3.6515063E-3,-1.2218411E-2],"categories":[],"categories_nodes":[],"categories_segments":[],"categories_sizes":[],"default_left":[0,0,0,0,0,0,0],"id":129,"left_children":[1,3,5,-1,-1,-1,-1],"loss_changes":[2.6386255E2,1.328706E2,9.269174E1,0E0,0E0,0E0,0E0],"parents":[2147483647,0,0,1,1,2,2],"right_children":[2,4,6,-1,-1,-1,-1],"split_conditions":[9E1,2.49E2,2.232E3,-7.9144863E-4,7.969865E-3,3.6515063E-3,-1.2218411E-2],"split_indices":[0,16,2,0,0,0,0],"split_type":[0,0,0,0,0,0,0],"sum_hessian":[6.496039E3,3.509237E3,2.9868022E3,1.7948936E2,3.3297478E3,2.9545732E3,3.222883E1],"tree_param":{"num_deleted":"0","num_feature":"26","num_nodes":"7","size_leaf_vector":"1"}},{"base_weights":[5.678195E-1,5.3630793E-1,1.5911928E0,-3.6573438E-3,5.731129E-3,1.9197816E-2,8.31335E-3],"categories":[],"categories_nodes":[],"categories_segments":[],"categories_sizes":[],"default_left":[0,0,0,0,0,0,0],"id":130,"left_children":[1,3,5,-1,-1,-1,-1],"loss_changes":[2.0465967E2,2.1232837E2,3.7210968E1,0E0,0E0,0E0,0E0],"parents":[2147483647,0,0,1,1,2,2],"right_children":[2,4,6,-1,-1,-1,-1],"split_conditions":[1.663E3,-1.296E3,1.3083333E1,-3.6573438E-3,5.731129E-3,1.9197816E-2,8.31335E-3],"split_indices":[17,3,11,0,0,0,0],"split_type":[0,0,0,0,0,0,0],"sum_hessian":[6.5397085E3,6.3526953E3,1.8701338E2,2.46223E2,6.106472E3,1.2430924E2,6.270414E1],"tree_param":{"num_deleted":"0","num_feature":"26","num_nodes":"7","size_leaf_vector":"1"}},{"base_weights":[6.075834E-1,7.804316E-1,4.1180232E-1,1.1389016E-3,8.655619E-3,-1.2644701E-2,4.3522404E-3],"categories":[],"categories_nodes":[],"categories_segments":[],"categories_sizes":[],"default_left":[0,0,0,0,0,0,0],"id":131,"left_children":[1,3,5,-1,-1,-1,-1],"loss_changes":[2.2677588E2,2.0250415E2,1.2733472E2,0E0,0E0,0E0,0E0],"parents":[2147483647,0,0,1,1,2,2],"right_children":[2,4,6,-1,-1,-1,-1],"split_conditions":[4E0,2E0,1E0,1.1389016E-3,8.655619E-3,-1.2644701E-2,4.3522404E-3],"split_indices":[12,11,7,0,0,0,0],"split_type":[0,0,0,0,0,0,0],"sum_hessian":[6.7790547E3,3.5897507E3,3.189304E3,4.0921005E2,3.1805408E3,3.970938E1,3.1495945E3],"tree_param":{"num_deleted":"0","num_feature":"26","num_nodes":"7","size_leaf_vector":"1"}},{"base_weights":[6.0188967E-1,3.062997E-1,6.895891E-1,5.480173E-3,-4.160033E-3,9.013577E-3,5.3387224E-3],"categories":[],"categories_nodes":[],"categories_segments":[],"categories_sizes":[],"default_left":[0,0,0,0,0,0,0],"id":132,"left_children":[1,3,5,-1,-1,-1,-1],"loss_changes":[1.7230981E2,2.7199524E2,1.6699194E2,0E0,0E0,0E0,0E0],"parents":[2147483647,0,0,1,1,2,2],"right_children":[2,4,6,-1,-1,-1,-1],"split_conditions":[1E0,1.62E2,2.141E3,5.480173E-3,-4.160033E-3,9.013577E-3,5.3387224E-3],"split_indices":[6,17,16,0,0,0,0],"split_type":[0,0,0,0,0,0,0],"sum_hessian":[6.721135E3,1.5455934E3,5.1755415E3,1.159994E3,3.8559943E2,2.180197E3,2.9953447E3],"tree_param":{"num_deleted":"0","num_feature":"26","num_nodes":"7","size_leaf_vector":"1"}},{"base_weights":[5.4630697E-1,1.912858E-1,6.498151E-1,4.9776454E-3,-6.076607E-3,8.034888E-3,4.777886E-3],"categories":[],"categories_nodes":[],"categories_segments":[],"categories_sizes":[],"default_left":[0,0,0,0,0,0,0],"id":133,"left_children":[1,3,5,-1,-1,-1,-1],"loss_changes":[2.4201208E2,3.698985E2,