{"learner":{"attributes":{"best_iteration":"70","best_score":"0.6726324832107844"},"feature_names":["tenure_bucket","experience_bucket","is_experience_missing","mobility_tier","firm_rep_count_at_contact","firm_net_change_12mo","firm_stability_tier","has_firm_data","is_wirehouse","is_broker_protocol","has_email","has_linkedin","mobility_x_heavy_bleeding","short_tenure_x_high_mobility"],"feature_types":["int","int","int","int","float","int","int","int","int","int","int","int","int","int"],"gradient_booster":{"model":{"cats":{"enc":[],"feature_segments":[],"sorted_idx":[]},"gbtree_model_param":{"num_parallel_tree":"1","num_trees":"121"},"iteration_indptr":[0,1,2,3,4,5,6,7,8,9,10,11,12,13,14,15,16,17,18,19,20,21,22,23,24,25,26,27,28,29,30,31,32,33,34,35,36,37,38,39,40,41,42,43,44,45,46,47,48,49,50,51,52,53,54,55,56,57,58,59,60,61,62,63,64,65,66,67,68,69,70,71,72,73,74,75,76,77,78,79,80,81,82,83,84,85,86,87,88,89,90,91,92,93,94,95,96,97,98,99,100,101,102,103,104,105,106,107,108,109,110,111,112,113,114,115,116,117,118,119,120,121],"tree_info":[0,0,0,0,0,0,0,0,0,0,0,0,0,0,0,0,0,0,0,0,0,0,0,0,0,0,0,0,0,0,0,0,0,0,0,0,0,0,0,0,0,0,0,0,0,0,0,0,0,0,0,0,0,0,0,0,0,0,0,0,0,0,0,0,0,0,0,0,0,0,0,0,0,0,0,0,0,0,0,0,0,0,0,0,0,0,0,0,0,0,0,0,0,0,0,0,0,0,0,0,0,0,0,0,0,0,0,0,0,0,0,0,0,0,0,0,0,0,0,0,0],"trees":[{"base_weights":[-1.41092455E-2,-4.1665578E-1,1.250626E-1,5.233419E-1,-4.9150115E-1,8.67161E-1,7.155751E-2,2.4630241E-2,-1.0281337E-3,-2.8564494E-2,-7.254317E-3,2.9147554E-2,6.946826E-3,-6.253545E-3,7.330584E-3],"categories":[],"categories_nodes":[],"categories_segments":[],"categories_sizes":[],"default_left":[0,0,0,0,0,0,0,0,0,0,0,0,0,0,0],"id":0,"left_children":[1,3,5,7,9,11,13,-1,-1,-1,-1,-1,-1,-1,-1],"loss_changes":[5.391509E2,1.7651562E2,2.8219492E2,3.1979252E1,2.6065857E2,2.8302338E1,3.2365173E2,0E0,0E0,0E0,0E0,0E0,0E0,0E0,0E0],"parents":[2147483647,0,0,1,1,2,2,3,3,4,4,5,5,6,6],"right_children":[2,4,6,8,10,12,14,-1,-1,-1,-1,-1,-1,-1,-1],"split_conditions":[1E0,2E0,2E0,9E1,3E0,6.27E2,3E0,2.4630241E-2,-1.0281337E-3,-2.8564494E-2,-7.254317E-3,2.9147554E-2,6.946826E-3,-6.253545E-3,7.330584E-3],"split_indices":[10,3,3,4,0,4,0,0,0,0,0,0,0,0,0],"split_type":[0,0,0,0,0,0,0,0,0,0,0,0,0,0,0],"sum_hessian":[9.599211E3,2.4628386E3,7.136372E3,1.7623132E2,2.2866074E3,4.6844397E2,6.6679277E3,1.1298642E2,6.3244907E1,7.9246606E2,1.4941414E3,3.9645078E2,7.199321E1,2.5415615E3,4.126366E3],"tree_param":{"num_deleted":"0","num_feature":"14","num_nodes":"15","size_leaf_vector":"1"}},{"base_weights":[2.1825237E-2,1.2129647E-1,-4.585785E-1,-1.9882333E-1,3.980715E-1,-2.171299E-1,-2.2330293E-2,2.9616607E-2,-1.0166359E-2,1.2866081E-2,-6.2188907E-3,1.3648578E-3,-1.071032E-2],"categories":[],"categories_nodes":[],"categories_segments":[],"categories_sizes":[],"default_left":[0,0,0,0,0,0,0,0,0,0,0,0,0],"id":1,"left_children":[1,3,5,7,9,11,-1,-1,-1,-1,-1,-1,-1],"loss_changes":[4.6968692E2,7.229742E2,1.1372592E2,6.3117596E2,8.268237E1,3.4626488E1,0E0,0E0,0E0,0E0,0E0,0E0,0E0],"parents":[2147483647,0,0,1,1,2,2,3,3,4,4,5,5],"right_children":[2,4,6,8,10,12,-1,-1,-1,-1,-1,-1,-1],"split_conditions":[5E0,3E0,2E0,2E0,2E0,1E0,-2.2330293E-2,2.9616607E-2,-1.0166359E-2,1.2866081E-2,-6.2188907E-3,1.3648578E-3,-1.071032E-2],"split_indices":[0,0,1,0,5,1,0,0,0,0,0,0,0],"split_type":[0,0,0,0,0,0,0,0,0,0,0,0,0],"sum_hessian":[9.814311E3,8.1386895E3,1.6756207E3,3.7734714E3,4.3652183E3,9.196698E2,7.5595087E2,3.9139087E2,3.3820806E3,4.158237E3,2.0698128E2,3.1946857E2,6.0020123E2],"tree_param":{"num_deleted":"0","num_feature":"14","num_nodes":"13","size_leaf_vector":"1"}},{"base_weights":[-2.5188934E-2,-4.4516876E-1,1.18221335E-1,-4.7929168E-1,2.7984127E-2,2.064585E-1,-3.223434E-1,-1.1311439E-2,-2.5784355E-2,5.3120838E-3,3.918003E-2,4.4290153E-3,-1.3071805E-2],"categories":[],"categories_nodes":[],"categories_segments":[],"categories_sizes":[],"default_left":[0,0,0,0,0,0,0,0,0,0,0,0,0],"id":2,"left_children":[1,3,5,7,-1,9,11,-1,-1,-1,-1,-1,-1],"loss_changes":[5.7541254E2,1.1837787E2,2.7723138E2,8.806415E1,0E0,1.8807915E2,6.432418E1,0E0,0E0,0E0,0E0,0E0,0E0],"parents":[2147483647,0,0,1,1,2,2,3,3,5,5,6,6],"right_children":[2,4,6,8,-1,10,12,-1,-1,-1,-1,-1,-1],"split_conditions":[1E0,1E0,4E0,4E0,2.7984127E-2,1E0,1E0,-1.1311439E-2,-2.5784355E-2,5.3120838E-3,3.918003E-2,4.4290153E-3,-1.3071805E-2],"split_indices":[10,13,6,6,0,13,1,0,0,0,0,0,0],"split_type":[0,0,0,0,0,0,0,0,0,0,0,0,0],"sum_hessian":[9.529512E3,2.4221445E3,7.107367E3,2.3706865E3,5.1458134E1,5.927733E3,1.1796342E3,1.8860253E3,4.8466122E2,5.785613E3,1.4212039E2,2.2697534E2,9.526588E2],"tree_param":{"num_deleted":"0","num_feature":"14","num_nodes":"13","size_leaf_vector":"1"}},{"base_weights":[7.986394E-3,8.73301E-1,-5.9522267E-2,9.819347E-1,-4.3080742E-3,-4.723007E-1,8.000532E-2,2.4561288E-2,3.999753E-2,-2.3146095E-2,-1.1553934E-2,-2.400394E-3,6.044106E-3],"categories":[],"categories_nodes":[],"categories_segments":[],"categories_sizes":[],"default_left":[0,0,0,0,0,0,0,0,0,0,0,0,0],"id":3,"left_children":[1,3,5,7,-1,9,11,-1,-1,-1,-1,-1,-1],"loss_changes":[5.696092E2,8.021045E1,5.20977E2,2.3619873E1,0E0,5.5476135E1,1.3162065E2,0E0,0E0,0E0,0E0,0E0,0E0],"parents":[2147483647,0,0,1,1,2,2,3,3,5,5,6,6],"right_children":[2,4,6,8,-1,10,12,-1,-1,-1,-1,-1,-1],"split_conditions":[2E0,7.75E2,1E0,1E0,-4.3080742E-3,1E0,2E0,2.4561288E-2,3.999753E-2,-2.3146095E-2,-1.1553934E-2,-2.400394E-3,6.044106E-3],"split_indices":[3,4,10,13,0,7,4,0,0,0,0,0,0],"split_type":[0,0,0,0,0,0,0,0,0,0,0,0,0],"sum_hessian":[9.718042E3,6.9573096E2,9.022312E3,6.2978015E2,6.5950836E1,2.2750676E3,6.7472437E3,4.5468115E2,1.7509898E2,4.9293552E2,1.7821322E3,2.9094712E3,3.8377722E3],"tree_param":{"num_deleted":"0","num_feature":"14","num_nodes":"13","size_leaf_vector":"1"}},{"base_weights":[-7.3754214E-2,-4.942007E-1,7.0095696E-2,2.6723178E-2,-5.9068215E-1,1.4660157E-1,-3.0342528E-1,-2.8001469E-2,-1.1950567E-2,-3.321863E-3,1.1425307E-2,7.975719E-3,-1.3388338E-2],"categories":[],"categories_nodes":[],"categories_segments":[],"categories_sizes":[],"default_left":[0,0,0,0,0,0,0,0,0,0,0,0,0],"id":4,"left_children":[1,3,5,-1,7,9,11,-1,-1,-1,-1,-1,-1],"loss_changes":[5.652931E2,3.2330676E2,1.9922256E2,0E0,1.4219135E2,3.4951562E2,9.769493E1,0E0,0E0,0E0,0E0,0E0,0E0],"parents":[2147483647,0,0,1,1,2,2,4,4,5,5,6,6],"right_children":[2,4,6,-1,8,10,12,-1,-1,-1,-1,-1,-1],"split_conditions":[1E0,2E0,5E0,2.6723178E-2,3E0,3E0,1E0,-2.8001469E-2,-1.1950567E-2,-3.321863E-3,1.1425307E-2,7.975719E-3,-1.3388338E-2],"split_indices":[10,0,0,0,0,0,1,0,0,0,0,0,0],"split_type":[0,0,0,0,0,0,0,0,0,0,0,0,0],"sum_hessian":[9.323854E3,2.3723916E3,6.9514624E3,1.4846815E2,2.2239236E3,5.776958E3,1.1745043E3,7.837249E2,1.4401986E3,2.7532903E3,3.0236677E3,2.3247125E2,9.42033E2],"tree_param":{"num_deleted":"0","num_feature":"14","num_nodes":"13","size_leaf_vector":"1"}},{"base_weights":[-5.8658617E-3,-3.355576E-1,1.0999594E-1,7.125961E-1,-4.3773648E-1,1.7770046E-1,-2.674821E-1,2.8214516E-2,9.780079E-4,-3.1856366E-2,-1.1192834E-2,-1.735317E-3,1.13419965E-2,-2.7855195E-2,2.4867847E-4],"categories":[],"categories_nodes":[],"categories_segments":[],"categories_sizes":[],"default_left":[0,0,0,0,0,0,0,0,0,0,0,0,0,0,0],"id":5,"left_children":[1,3,5,7,9,11,13,-1,-1,-1,-1,-1,-1,-1,-1],"loss_changes":[3.7047177E2,2.7302112E2,1.8363678E2,3.3899048E1,8.7627075E1,2.8786652E2,2.0010043E2,0E0,0E0,0E0,0E0,0E0,0E0,0E0,0E0],"parents":[2147483647,0,0,1,1,2,2,3,3,4,4,5,5,6,6],"right_children":[2,4,6,8,10,12,14,-1,-1,-1,-1,-1,-1,-1,-1],"split_conditions":[1E0,2E0,6.84E2,1.77E2,-1.098E3,1E0,1.174E3,2.8214516E-2,9.780079E-4,-3.1856366E-2,-1.1192834E-2,-1.735317E-3,1.13419965E-2,-2.7855195E-2,2.4867847E-4],"split_indices":[10,3,4,4,5,4,4,0,0,0,0,0,0,0,0],"split_type":[0,0,0,0,0,0,0,0,0,0,0,0,0,0,0],"sum_hessian":[9.672981E3,2.512677E3,7.1603047E3,2.1701408E2,2.2956628E3,6.078081E3,1.082224E3,1.5857076E2,5.844333E1,1.995166E2,2.0961462E3,2.7947634E3,3.2833174E3,3.126819E2,7.695421E2],"tree_param":{"num_deleted":"0","num_feature":"14","num_nodes":"15","size_leaf_vector":"1"}},{"base_weights":[7.258848E-3,9.8395936E-2,-4.2583537E-1,-1.9041665E-1,3.5506967E-1,1.1766911E-1,-5.6033945E-1,2.8180173E-2,-9.81965E-3,1.1560451E-2,-6.4450754E-3,1.808697E-2,-1.2995441E-3,-1.3215774E-2,-2.3705542E-2],"categories":[],"categories_nodes":[],"categories_segments":[],"categories_sizes":[],"default_left":[0,0,0,0,0,0,0,0,0,0,0,0,0,0,0],"id":6,"left_children":[1,3,5,7,9,11,13,-1,-1,-1,-1,-1,-1,-1,-1],"loss_changes":[3.8038974E2,5.916544E2,1.2354938E2,5.832214E2,7.390613E1,2.7307863E1,3.2352814E1,0E0,0E0,0E0,0E0,0E0,0E0,0E0,0E0],"parents":[2147483647,0,0,1,1,2,2,3,3,4,4,5,5,6,6],"right_children":[2,4,6,8,10,12,14,-1,-1,-1,-1,-1,-1,-1,-1],"split_conditions":[5E0,3E0,1E0,2E0,2E0,1E0,4E0,2.8180173E-2,-9.81965E-3,1.1560451E-2,-6.4450754E-3,1.808697E-2,-1.2995441E-3,-1.3215774E-2,-2.3705542E-2],"split_indices":[0,0,1,0,5,2,1,0,0,0,0,0,0,0,0],"split_type":[0,0,0,0,0,0,0,0,0,0,0,0,0,0,0],"sum_hessian":[9.624888E3,7.959903E3,1.6649851E3,3.7448428E3,4.21506E3,3.2907492E2,1.3359102E3,3.9763092E2,3.347212E3,4.0071555E3,2.079047E2,7.6689E1,2.5238591E2,9.0018115E2,4.3572906E2],"tree_param":{"num_deleted":"0","num_feature":"14","num_nodes":"15","size_leaf_vector":"1"}},{"base_weights":[1.8277986E-2,-3.3543175E-1,1.3935918E-1,2.9661577E-2,-3.956989E-1,2.243869E-1,-2.9380435E-1,-2.5959292E-2,-4.612136E-3,-1.4410692E-3,1.3904554E-2,2.406629E-3,-1.1317478E-2],"categories":[],"categories_nodes":[],"categories_segments":[],"categories_sizes":[],"default_left":[0,0,0,0,0,0,0,0,0,0,0,0,0],"id":7,"left_children":[1,3,5,-1,7,9,11,-1,-1,-1,-1,-1,-1],"loss_changes":[4.1743433E2,2.016178E2,2.681908E2,0E0,2.6860104E2,3.9673328E2,3.7883453E1,0E0,0E0,0E0,0E0,0E0,0E0],"parents":[2147483647,0,0,1,1,2,2,4,4,5,5,6,6],"right_children":[2,4,6,-1,8,10,12,-1,-1,-1,-1,-1,-1],"split_conditions":[1E0,1E0,5E0,2.9661577E-2,3E0,3E0,1E0,-2.5959292E-2,-4.612136E-3,-1.4410692E-3,1.3904554E-2,2.406629E-3,-1.1317478E-2],"split_indices":[10,0,0,0,0,0,1,0,0,0,0,0,0],"split_type":[0,0,0,0,0,0,0,0,0,0,0,0,0],"sum_hessian":[9.730518E3,2.474856E3,7.2556616E3,1.0030782E2,2.374548E3,6.071071E3,1.1845908E3,7.9726953E2,1.5772787E3,2.839558E3,3.2315125E3,2.1396004E2,9.706308E2],"tree_param":{"num_deleted":"0","num_feature":"14","num_nodes":"13","size_leaf_vector":"1"}},{"base_weights":[2.8412461E-2,-3.1215006E-1,1.4507796E-1,-5.2322084E-1,-9.9288374E-2,2.2532156E-1,-2.6222718E-1,-8.449311E-3,-3.8692206E-2,5.8717555E-3,-1.6812565E-2,2.307422E-2,5.3262925E-3,-2.0035019E-3,-1.5695056E-2],"categories":[],"categories_nodes":[],"categories_segments":[],"categories_sizes":[],"default_left":[0,0,0,0,0,0,0,0,0,0,0,0,0,0,0],"id":8,"left_children":[1,3,5,7,9,11,13,-1,-1,-1,-1,-1,-1,-1,-1],"loss_changes":[3.8846487E2,1.1090486E2,2.3868977E2,2.2580063E2,1.7237773E2,1.5603589E2,6.034954E1,0E0,0E0,0E0,0E0,0E0,0E0,0E0,0E0],"parents":[2147483647,0,0,1,1,2,2,3,3,4,4,5,5,6,6],"right_children":[2,4,6,8,10,12,14,-1,-1,-1,-1,-1,-1,-1,-1],"split_conditions":[1E0,3E0,4E0,3.78E2,4E0,2E0,2E0,-8.449311E-3,-3.8692206E-2,5.8717555E-3,-1.6812565E-2,2.307422E-2,5.3262925E-3,-2.0035019E-3,-1.5695056E-2],"split_indices":[10,1,6,4,1,3,1,0,0,0,0,0,0,0,0],"split_type":[0,0,0,0,0,0,0,0,0,0,0,0,0,0,0],"sum_hessian":[9.759961E3,2.4838718E3,7.276089E3,1.2375027E3,1.2463693E3,6.0843315E3,1.1917573E3,9.5234076E2,2.851619E2,7.6227924E2,4.8409003E2,4.7749762E2,5.606834E3,6.907675E2,5.0098975E2],"tree_param":{"num_deleted":"0","num_feature":"14","num_nodes":"15","size_leaf_vector":"1"}},{"base_weights":[-1.29415225E-2,-3.8358487E-2,3.5184335E-2,-2.8048232E-1,1.0819667E-1,-6.6071567E-3,-2.9447315E-2,8.663095E-3,-9.523994E-3],"categories":[],"categories_nodes":[],"categories_segments":[],"categories_sizes":[],"default_left":[0,0,0,0,0,0,0,0,0],"id":9,"left_children":[1,3,-1,5,7,-1,-1,-1,-1],"loss_changes":[2.8757816E2,3.3312424E2,0E0,1.4615775E2,4.5010675E2,0E0,0E0,0E0,0E0],"parents":[2147483647,0,0,1,1,3,3,4,4],"right_children":[2,4,-1,6,8,-1,-1,-1,-1],"split_conditions":[1E0,3E0,3.5184335E-2,1.491E3,5E0,-6.6071567E-3,-2.9447315E-2,8.663095E-3,-9.523994E-3],"split_indices":[13,0,0,4,0,0,0,0,0],"split_type":[0,0,0,0,0,0,0,0,0],"sum_hessian":[9.554686E3,9.364475E3,1.9021048E2,3.5300928E3,5.8343823E3,3.264176E3,2.659167E2,4.100465E3,1.7339175E3],"tree_param":{"num_deleted":"0","num_feature":"14","num_nodes":"9","size_leaf_vector":"1"}},{"base_weights":[-2.2209415E-4,-3.5162827E-1,1.1879066E-1,7.838554E-1,-4.2914468E-1,-1.11332156E-1,2.5998488E-1,1.2870931E-2,3.1446982E-2,-2.5294337E-2,-6.23672E-3,2.437536E-2,-5.991346E-3,1.2555362E-2,-4.4583012E-3],"categories":[],"categories_nodes":[],"categories_segments":[],"categories_sizes":[],"default_left":[0,0,0,0,0,0,0,0,0,0,0,0,0,0,0],"id":10,"left_children":[1,3,5,7,9,11,13,-1,-1,-1,-1,-1,-1,-1,-1],"loss_changes":[4.0182263E2,2.170234E2,2.3343657E2,8.856049E0,2.0635083E2,2.2399916E2,2.89125E2,0E0,0E0,0E0,0E0,0E0,0E0,0E0,0E0],"parents":[2147483647,0,0,1,1,2,2,3,3,4,4,5,5,6,6],"right_children":[2,4,6,8,10,12,14,-1,-1,-1,-1,-1,-1,-1,-1],"split_conditions":[1E0,2E0,3E0,1E0,3E0,2E0,5E0,1.2870931E-2,3.1446982E-2,-2.5294337E-2,-6.23672E-3,2.437536E-2,-5.991346E-3,1.2555362E-2,-4.4583012E-3],"split_indices":[10,0,0,9,0,0,0,0,0,0,0,0,0,0,0],"split_type":[0,0,0,0,0,0,0,0,0,0,0,0,0,0,0],"sum_hessian":[9.582412E3,2.4214653E3,7.160947E3,1.4809555E2,2.2733696E3,2.7210789E3,4.439868E3,7.604501E1,7.205054E1,7.8043317E2,1.4929365E3,2.2944136E2,2.4916375E3,3.2003838E3,1.2394845E3],"tree_param":{"num_deleted":"0","num_feature":"14","num_nodes":"15","size_leaf_vector":"1"}},{"base_weights":[-1.0521175E-2,-3.3695683E-1,1.02717504E-1,-2.4257074E-1,-6.9589245E-1,9.6567667E-1,6.736837E-2,-1.6865296E-2,1.1224768E-3,-7.1463366E-3,-3.404512E-2,3.3941925E-2,5.258125E-3,-4.0889224E-3,5.74037E-3],"categories":[],"categories_nodes":[],"categories_segments":[],"categories_sizes":[],"default_left":[0,0,0,0,0,0,0,0,0,0,0,0,0,0,0],"id":11,"left_children":[1,3,5,7,9,11,13,-1,-1,-1,-1,-1,-1,-1,-1],"loss_changes":[3.526462E2,8.06333E1,2.1418915E2,1.764359E2,9.72036E1,3.2942505E1,1.7226942E2,0E0,0E0,0E0,0E0,0E0,0E0,0E0,0E0],"parents":[2147483647,0,0,1,1,2,2,3,3,4,4,5,5,6,6],"right_children":[2,4,6,8,10,12,14,-1,-1,-1,-1,-1,-1,-1,-1],"split_conditions":[1E0,5E0,2E0,3E0,2E0,4.25E2,3E0,-1.6865296E-2,1.1224768E-3,-7.1463366E-3,-3.404512E-2,3.3941925E-2,5.258125E-3,-4.0889224E-3,5.74037E-3],"split_indices":[10,0,0,0,1,4,0,0,0,0,0,0,0,0,0],"split_type":[0,0,0,0,0,0,0,0,0,0,0,0,0,0,0],"sum_hessian":[9.514267E3,2.4475977E3,7.0666694E3,1.9534583E3,4.941393E2,2.666093E2,6.80006E3,9.091513E2,1.0443069E3,2.5057433E2,2.4356499E2,2.1578693E2,5.0822384E1,2.5696555E3,4.2304043E3],"tree_param":{"num_deleted":"0","num_feature":"14","num_nodes":"15","size_leaf_vector":"1"}},{"base_weights":[8.1133726E-4,8.43155E-2,-3.989377E-1,-1.6649058E-1,3.0871525E-1,-1.455991E-2,1.8002897E-3,3.2992404E-2,-7.0968475E-3,1.0040955E-2,-1.677742E-2],"categories":[],"categories_nodes":[],"categories_segments":[],"categories_sizes":[],"default_left":[0,0,0,0,0,0,0,0,0,0,0],"id":12,"left_children":[1,3,5,7,9,-1,-1,-1,-1,-1,-1],"loss_changes":[3.219143E2,4.5017746E2,6.677127E1,3.367728E2,9.684311E1,0E0,0E0,0E0,0E0,0E0,0E0],"parents":[2147483647,0,0,1,1,2,2,3,3,4,4],"right_children":[2,4,6,8,10,-1,-1,-1,-1,-1,-1],"split_conditions":[5E0,3E0,1E0,1E0,2.307E3,-1.455991E-2,1.8002897E-3,3.2992404E-2,-7.0968475E-3,1.0040955E-2,-1.677742E-2],"split_indices":[0,0,2,3,4,0,0,0,0,0,0],"split_type":[0,0,0,0,0,0,0,0,0,0,0],"sum_hessian":[9.633071E3,7.977113E3,1.6559584E3,3.7660337E3,4.211079E3,1.3949718E3,2.6098657E2,1.8902303E2,3.5770107E3,4.0957646E3,1.1531446E2],"tree_param":{"num_deleted":"0","num_feature":"14","num_nodes":"11","size_leaf_vector":"1"}},{"base_weights":[-2.5563336E-3,-2.9462886E-1,1.0029634E-1,-6.0245526E-1,-1.2112357E-1,-1.3896391E-1,2.4276614E-1,-9.851111E-3,-4.111182E-2,2.0324105E-2,-8.025785E-3,-5.129643E-3,7.184607E-3,1.1845216E-2,-6.075481E-3],"categories":[],"categories_nodes":[],"categories_segments":[],"categories_sizes":[],"default_left":[0,0,0,0,0,0,0,0,0,0,0,0,0,0,0],"id":13,"left_children":[1,3,5,7,9,11,13,-1,-1,-1,-1,-1,-1,-1,-1],"loss_changes":[2.8899152E2,1.3240373E2,2.4271835E2,1.8298703E2,1.9050403E2,3.2535748E1,3.030807E2,0E0,0E0,0E0,0E0,0E0,0E0,0E0,0E0],"parents":[2147483647,0,0,1,1,2,2,3,3,4,4,5,5,6,6],"right_children":[2,4,6,8,10,12,14,-1,-1,-1,-1,-1,-1,-1,-1],"split_conditions":[1E0,3E0,1E0,6.21E2,4E0,1E0,6.61E2,-9.851111E-3,-4.111182E-2,2.0324105E-2,-8.025785E-3,-5.129643E-3,7.184607E-3,1.1845216E-2,-6.075481E-3],"split_indices":[10,0,4,4,0,2,4,0,0,0,0,0,0,0,0],"split_type":[0,0,0,0,0,0,0,0,0,0,0,0,0,0,0],"sum_hessian":[9.593777E3,2.4962395E3,7.0975376E3,8.8882837E2,1.607411E3,2.6464246E3,4.451113E3,6.665193E2,2.2230908E2,2.4234854E2,1.3650625E3,2.447448E3,1.9897672E2,3.320472E3,1.1306411E3],"tree_param":{"num_deleted":"0","num_feature":"14","num_nodes":"15","size_leaf_vector":"1"}},{"base_weights":[2.2542007E-2,-3.0614796E-1,1.3474908E-1,5.9887296E-1,-3.911934E-1,9.0107656E-1,1.05537504E-1,2.9715334E-4,2.4267273E-2,-2.2158904E-2,-6.090261E-3,3.2395426E-2,8.119485E-3,-3.890014E-3,7.2158827E-3],"categories":[],"categories_nodes":[],"categories_segments":[],"categories_sizes":[],"default_left":[0,0,0,0,0,0,0,0,0,0,0,0,0,0,0],"id":14,"left_children":[1,3,5,7,9,11,13,-1,-1,-1,-1,-1,-1,-1,-1],"loss_changes":[3.592068E2,1.928467E2,1.6067813E2,2.5794228E1,1.4610904E2,2.550148E1,2.2302689E2,0E0,0E0,0E0,0E0,0E0,0E0,0E0,0E0],"parents":[2147483647,0,0,1,1,2,2,3,3,4,4,5,5,6,6],"right_children":[2,4,6,8,10,12,14,-1,-1,-1,-1,-1,-1,-1,-1],"split_conditions":[1E0,2E0,2E0,-5.1E1,3E0,3E2,3E0,2.9715334E-4,2.4267273E-2,-2.2158904E-2,-6.090261E-3,3.2395426E-2,8.119485E-3,-3.890014E-3,7.2158827E-3],"split_indices":[10,3,0,5,0,4,0,0,0,0,0,0,0,0,0],"split_type":[0,0,0,0,0,0,0,0,0,0,0,0,0,0,0],"sum_hessian":[9.722988E3,2.467807E3,7.2551816E3,2.0578159E2,2.2620251E3,2.5418826E2,7.000993E3,5.8098557E1,1.4768303E2,7.825938E2,1.4794314E3,1.9124237E2,6.2945885E1,2.55035E3,4.450643E3],"tree_param":{"num_deleted":"0","num_feature":"14","num_nodes":"15","size_leaf_vector":"1"}},{"base_weights":[-1.93605E-2,5.5575716E-1,-5.889955E-2,3.3319783E-1,3.1022035E-2,6.7169582E-3,-3.3839896E-1,1.489709E-2,-1.834367E-2,3.157368E-3,-9.5306495E-3,-4.7175214E-3,-1.6269416E-2],"categories":[],"categories_nodes":[],"categories_segments":[],"categories_sizes":[],"default_left":[0,0,0,0,0,0,0,0,0,0,0,0,0],"id":15,"left_children":[1,3,5,7,-1,9,11,-1,-1,-1,-1,-1,-1],"loss_changes":[2.1570975E2,6.012564E1,1.6345943E2,6.966786E1,0E0,2.3056088E2,6.1022232E1,0E0,0E0,0E0,0E0,0E0,0E0],"parents":[2147483647,0,0,1,1,2,2,3,3,5,5,6,6],"right_children":[2,4,6,8,-1,10,12,-1,-1,-1,-1,-1,-1],"split_conditions":[2E0,1E0,4E0,1E0,3.1022035E-2,1E0,2E0,1.489709E-2,-1.834367E-2,3.157368E-3,-9.5306495E-3,-4.7175214E-3,-1.6269416E-2],"split_indices":[3,13,6,5,0,8,1,0,0,0,0,0,0],"split_type":[0,0,0,0,0,0,0,0,0,0,0,0,0],"sum_hessian":[9.483535E3,6.0002234E2,8.883513E3,4.2249228E2,1.7753008E2,7.199507E3,1.684006E3,3.6514478E2,5.7347523E1,5.5298228E3,1.6696841E3,9.037624E2,7.802436E2],"tree_param":{"num_deleted":"0","num_feature":"14","num_nodes":"13","size_leaf_vector":"1"}},{"base_weights":[1.2419051E-2,-3.02294E-1,1.1906906E-1,5.79272E-1,-3.4861672E-1,1.9230384E-1,-2.58804E-1,1.0765423E-2,2.1735694E-2,-2.147842E-2,-4.751423E-3,7.4277015E-4,1.0397309E-2,1.6676814E-3,-9.95159E-3],"categories":[],"categories_nodes":[],"categories_segments":[],"categories_sizes":[],"default_left":[0,0,0,0,0,0,0,0,0,0,0,0,0,0,0],"id":16,"left_children":[1,3,5,7,9,11,13,-1,-1,-1,-1,-1,-1,-1,-1],"loss_changes":[3.2372998E2,1.0144498E2,1.9994238E2,3.031006E-1,1.6052145E2,1.5584416E2,2.7338326E1,0E0,0E0,0E0,0E0,0E0,0E0,0E0,0E0],"parents":[2147483647,0,0,1,1,2,2,3,3,4,4,5,5,6,6],"right_children":[2,4,6,8,10,12,14,-1,-1,-1,-1,-1,-1,-1,-1],"split_conditions":[1E0,2E0,5E0,0E0,3E0,3E0,1E0,1.0765423E-2,2.1735694E-2,-2.147842E-2,-4.751423E-3,7.4277015E-4,1.0397309E-2,1.6676814E-3,-9.95159E-3],"split_indices":[10,0,0,5,0,0,1,0,0,0,0,0,0,0,0],"split_type":[0,0,0,0,0,0,0,0,0,0,0,0,0,0,0],"sum_hessian":[9.629848E3,2.4303672E3,7.1994805E3,1.1450918E2,2.315858E3,6.037016E3,1.162464E3,6.2004627E1,5.2504555E1,7.789247E2,1.5369333E3,2.9026963E3,3.1343198E3,2.167135E2,9.4575055E2],"tree_param":{"num_deleted":"0","num_feature":"14","num_nodes":"15","size_leaf_vector":"1"}},{"base_weights":[-2.7610362E-2,-3.2274812E-1,7.2889395E-2,-1.1404519E0,-2.4484025E-1,1.3566478E-1,-2.3859197E-1,-4.749343E-2,-1.656241E-2,-7.827392E-4,-1.5029504E-2,-2.8806885E-3,1.0174704E-2,8.661067E-3,-1.1444396E-2],"categories":[],"categories_nodes":[],"categories_segments":[],"categories_sizes":[],"default_left":[0,0,0,0,0,0,0,0,0,0,0,0,0,0,0],"id":17,"left_children":[1,3,5,7,9,11,13,-1,-1,-1,-1,-1,-1,-1,-1],"loss_changes":[2.810541E2,1.4917245E2,1.383053E2,4.265912E1,1.23261826E2,2.7809534E2,9.051255E1,0E0,0E0,0E0,0E0,0E0,0E0,0E0,0E0],"parents":[2147483647,0,0,1,1,2,2,3,3,4,4,5,5,6,6],"right_children":[2,4,6,8,10,12,14,-1,-1,-1,-1,-1,-1,-1,-1],"split_conditions":[1E0,-1.098E3,5E0,4E0,0E0,3E0,1E0,-4.749343E-2,-1.656241E-2,-7.827392E-4,-1.5029504E-2,-2.8806885E-3,1.0174704E-2,8.661067E-3,-1.1444396E-2],"split_indices":[10,5,0,0,5,0,1,0,0,0,0,0,0,0,0],"split_type":[0,0,0,0,0,0,0,0,0,0,0,0,0,0,0],"sum_hessian":[9.449102E3,2.397169E3,7.051933E3,1.9554558E2,2.2016233E3,5.8764575E3,1.1754756E3,1.00972435E2,9.457314E1,1.1955414E3,1.0060819E3,2.7480298E3,3.1284277E3,2.4695242E2,9.2852313E2],"tree_param":{"num_deleted":"0","num_feature":"14","num_nodes":"15","size_leaf_vector":"1"}},{"base_weights":[-1.7076023E-2,5.7445873E-2,-3.7080744E-1,-1.7675284E-1,2.6294565E-1,-1.494737E-1,-6.291992E-1,2.2993656E-2,-8.644566E-3,1.5301789E-2,6.25679E-3,-1.2003499E-2,-1.7147628E-3,-2.4456216E-2,-1.5379814E-2],"categories":[],"categories_nodes":[],"categories_segments":[],"categories_sizes":[],"default_left":[0,0,0,0,0,0,0,0,0,0,0,0,0,0,0],"id":18,"left_children":[1,3,5,7,9,11,13,-1,-1,-1,-1,-1,-1,-1,-1],"loss_changes":[2.5318121E2,3.818675E2,9.387598E1,3.9119745E2,5.5017944E1,2.0497343E1,1.1097473E1,0E0,0E0,0E0,0E0,0E0,0E0,0E0,0E0],"parents":[2147483647,0,0,1,1,2,2,3,3,4,4,5,5,6,6],"right_children":[2,4,6,8,10,12,14,-1,-1,-1,-1,-1,-1,-1,-1],"split_conditions":[5E0,3E0,2E0,2E0,4E0,1E0,1E0,2.2993656E-2,-8.644566E-3,1.5301789E-2,6.25679E-3,-1.2003499E-2,-1.7147628E-3,-2.4456216E-2,-1.5379814E-2],"split_indices":[0,0,1,0,0,10,10,0,0,0,0,0,0,0,0],"split_type":[0,0,0,0,0,0,0,0,0,0,0,0,0,0,0],"sum_hessian":[9.574514E3,7.913002E3,1.6615121E3,3.6966414E3,4.2163604E3,9.055171E2,7.5599493E2,3.8332083E2,3.3133206E3,7.421368E2,3.4742236E3,2.3184984E2,6.736673E2,2.648053E2,4.9118964E2],"tree_param":{"num_deleted":"0","num_feature":"14","num_nodes":"15","size_leaf_vector":"1"}},{"base_weights":[-3.3549026E-2,6.0216266E-1,-8.139586E-2,6.8455446E-1,-4.7570704E-3,-2.9442218E-1,-5.393779E-3,1.5741771E-2,3.150424E-2,-6.206318E-3,-1.9689174E-2,-3.8328015E-3,2.3304347E-3],"categories":[],"categories_nodes":[],"categories_segments":[],"categories_sizes":[],"default_left":[0,0,0,0,0,0,0,0,0,0,0,0,0],"id":19,"left_children":[1,3,5,7,-1,9,11,-1,-1,-1,-1,-1,-1],"loss_changes":[2.8659702E2,4.2936996E1,1.4173938E2,2.7854706E1,0E0,7.075774E1,6.6026955E1,0E0,0E0,0E0,0E0,0E0,0E0],"parents":[2147483647,0,0,1,1,2,2,3,3,5,5,6,6],"right_children":[2,4,6,8,-1,10,12,-1,-1,-1,-1,-1,-1],"split_conditions":[2E0,6E0,1E0,1E0,-4.7570704E-3,4E0,1E0,1.5741771E-2,3.150424E-2,-6.206318E-3,-1.9689174E-2,-3.8328015E-3,2.3304347E-3],"split_indices":[3,5,10,13,0,1,4,0,0,0,0,0,0],"split_type":[0,0,0,0,0,0,0,0,0,0,0,0,0],"sum_hessian":[9.413337E3,6.493302E2,8.764007E3,5.879659E2,6.136432E1,2.293541E3,6.470466E3,4.2795786E2,1.60008E2,1.8616588E3,4.3188232E2,2.619176E3,3.8512896E3],"tree_param":{"num_deleted":"0","num_feature":"14","num_nodes":"13","size_leaf_vector":"1"}},{"base_weights":[4.175622E-2,-2.3301521E-1,1.343234E-1,-2.6867554E-1,3.261153E-2,1.8758303E-1,-1.2565881E-1,-1.6773408E-2,-3.1207593E-3,6.895359E-4,1.0170052E-2,3.418317E-3,-5.465619E-3],"categories":[],"categories_nodes":[],"categories_segments":[],"categories_sizes":[],"default_left":[0,0,0,0,0,0,0,0,0,0,0,0,0],"id":20,"left_children":[1,3,5,7,-1,9,11,-1,-1,-1,-1,-1,-1],"loss_changes":[2.4703998E2,1.17261566E2,1.0093295E2,1.1308284E2,0E0,1.5008086E2,1.7051033E1,0E0,0E0,0E0,0E0,0E0,0E0],"parents":[2147483647,0,0,1,1,2,2,3,3,5,5,6,6],"right_children":[2,4,6,8,-1,10,12,-1,-1,-1,-1,-1,-1],"split_conditions":[1E0,1E0,5E0,3E0,3.261153E-2,3E0,1E0,-1.6773408E-2,-3.1207593E-3,6.895359E-4,1.0170052E-2,3.418317E-3,-5.465619E-3],"split_indices":[10,12,0,0,0,0,1,0,0,0,0,0,0],"split_type":[0,0,0,0,0,0,0,0,0,0,0,0,0],"sum_hessian":[9.694243E3,2.4363472E3,7.2578965E3,2.3807556E3,5.5591606E1,6.029361E3,1.2285356E3,8.504883E2,1.5302672E3,2.8976335E3,3.131727E3,2.2919946E2,9.993362E2],"tree_param":{"num_deleted":"0","num_feature":"14","num_nodes":"13","size_leaf_vector":"1"}},{"base_weights":[-1.5053902E-2,-3.064723E-1,8.332054E-2,-1.4304635E-1,-8.4156305E-1,6.162041E-2,3.1013625E-2,1.6375628E-3,-2.14607E-2,-3.8195416E-2,-1.2689919E-2,3.476192E-3,-6.170967E-3],"categories":[],"categories_nodes":[],"categories_segments":[],"categories_sizes":[],"default_left":[0,0,0,0,0,0,0,0,0,0,0,0,0],"id":21,"left_children":[1,3,5,7,9,11,-1,-1,-1,-1,-1,-1,-1],"loss_changes":[2.727252E2,2.0780783E2,1.4481212E2,2.106424E2,9.379068E1,1.0106133E2,0E0,0E0,0E0,0E0,0E0,0E0,0E0],"parents":[2147483647,0,0,1,1,2,2,3,3,4,4,5,5],"right_children":[2,4,6,8,10,12,-1,-1,-1,-1,-1,-1,-1],"split_conditions":[1E0,4.2E2,1E0,5E0,3E0,5E0,3.1013625E-2,1.6375628E-3,-2.14607E-2,-3.8195416E-2,-1.2689919E-2,3.476192E-3,-6.170967E-3],"split_indices":[10,4,13,0,1,0,0,0,0,0,0,0,0],"split_type":[0,0,0,0,0,0,0,0,0,0,0,0,0],"sum_hessian":[9.486495E3,2.3913928E3,7.0951025E3,1.8430391E3,5.483537E2,6.948169E3,1.469334E2,1.3753859E3,4.6765314E2,2.587394E2,2.896143E2,5.7837573E3,1.1644117E3],"tree_param":{"num_deleted":"0","num_feature":"14","num_nodes":"13","size_leaf_vector":"1"}},{"base_weights":[-1.4539942E-2,-2.864159E-1,7.907848E-2,-3.9646976E-2,-2.2486116E-1,1.3808976E-1,-2.192626E-1,-7.7212043E-3,2.6252978E-2,3.572422E-3,2.7954005E-2,-3.308527E-3,-1.0645929E-2],"categories":[],"categories_nodes":[],"categories_segments":[],"categories_sizes":[],"default_left":[0,0,0,0,0,0,0,0,0,0,0,0,0],"id":22,"left_children":[1,3,5,-1,7,9,11,-1,-1,-1,-1,-1,-1],"loss_changes":[2.4205757E2,1.5073029E2,1.2463277E2,0E0,8.43415E1,8.698652E1,1.6403915E1,0E0,0E0,0E0,0E0,0E0,0E0],"parents":[2147483647,0,0,1,1,2,2,4,4,5,5,6,6],"right_children":[2,4,6,-1,8,10,12,-1,-1,-1,-1,-1,-1],"split_conditions":[1E0,-1.261E3,4E0,-3.9646976E-2,1E0,1E0,2E0,-7.7212043E-3,2.6252978E-2,3.572422E-3,2.7954005E-2,-3.308527E-3,-1.0645929E-2],"split_indices":[10,5,6,0,13,13,1,0,0,0,0,0,0],"split_type":[0,0,0,0,0,0,0,0,0,0,0,0,0],"sum_hessian":[9.483088E3,2.4264773E3,7.056611E3,1.2378998E2,2.3026873E3,5.898602E3,1.1580087E3,2.2449023E3,5.7784927E1,5.7730986E3,1.2550307E2,6.5617285E2,5.0183582E2],"tree_param":{"num_deleted":"0","num_feature":"14","num_nodes":"13","size_leaf_vector":"1"}},{"base_weights":[2.3174258E-2,7.5598806E-1,-9.168597E-3,8.788998E-1,-1.5797306E-4,-2.9614154E-1,8.500087E-2,2.1165237E-2,3.4380134E-2,-1.6713887E-2,-4.695344E-3,-2.853245E-3,5.8138366E-3],"categories":[],"categories_nodes":[],"categories_segments":[],"categories_sizes":[],"default_left":[0,0,0,0,0,0,0,0,0,0,0,0,0],"id":23,"left_children":[1,3,5,7,-1,9,11,-1,-1,-1,-1,-1,-1],"loss_changes":[2.2982083E2,3.9267487E1,2.5076755E2,6.4610596E0,0E0,8.198634E1,1.370342E2,0E0,0E0,0E0,0E0,0E0,0E0],"parents":[2147483647,0,0,1,1,2,2,3,3,5,5,6,6],"right_children":[2,4,6,8,-1,10,12,-1,-1,-1,-1,-1,-1],"split_conditions":[2E0,6E0,1E0,0E0,-1.5797306E-4,3E0,3E0,2.1165237E-2,3.4380134E-2,-1.6713887E-2,-4.695344E-3,-2.853245E-3,5.8138366E-3],"split_indices":[0,5,10,5,0,0,0,0,0,0,0,0,0],"split_type":[0,0,0,0,0,0,0,0,0,0,0,0,0],"sum_hessian":[9.65212E3,3.9984058E2,9.25228E3,3.440574E2,5.5783176E1,2.2833003E3,6.96898E3,2.3297676E2,1.1108064E2,7.828962E2,1.500404E3,2.6213594E3,4.3476206E3],"tree_param":{"num_deleted":"0","num_feature":"14","num_nodes":"13","size_leaf_vector":"1"}},{"base_weights":[-8.697662E-3,6.8020844E-1,-3.622378E-2,9.0970314E-1,-1.6587848E-2,2.1301094E-2,-2.9415622E-1,1.675685E-2,2.932297E-2,-5.802217E-3,5.9833177E-3,-3.8898422E-3,-1.4581536E-2],"categories":[],"categories_nodes":[],"categories_segments":[],"categories_sizes":[],"default_left":[0,0,0,0,0,0,0,0,0,0,0,0,0],"id":24,"left_children":[1,3,5,7,-1,9,11,-1,-1,-1,-1,-1,-1],"loss_changes":[1.7999101E2,1.08567566E2,1.3621924E2,4.211731E-1,0E0,2.8703732E2,5.1590744E1,0E0,0E0,0E0,0E0,0E0,0E0],"parents":[2147483647,0,0,1,1,2,2,3,3,5,5,6,6],"right_children":[2,4,6,8,-1,10,12,-1,-1,-1,-1,-1,-1],"split_conditions":[2E0,5.44E2,5E0,5E0,-1.6587848E-2,3E0,2E0,1.675685E-2,2.932297E-2,-5.802217E-3,5.9833177E-3,-3.8898422E-3,-1.4581536E-2],"split_indices":[0,4,0,4,0,0,1,0,0,0,0,0,0],"split_type":[0,0,0,0,0,0,0,0,0,0,0,0,0],"sum_hessian":[9.502706E3,3.5459854E2,9.148107E3,3.0185513E2,5.2743393E1,7.4842456E3,1.663862E3,6.614772E1,2.3570743E2,3.3908826E3,4.0933633E3,9.077205E2,7.561415E2],"tree_param":{"num_deleted":"0","num_feature":"14","num_nodes":"13","size_leaf_vector":"1"}},{"base_weights":[9.150834E-4,6.1953608E-2,-2.8134492E-1,8.165521E-2,-8.7772125E-1,-3.635283E-1,1.3963364E-1,-1.0830967E-2,3.4510447E-3,-5.331797E-2,1.2579249E-2,-1.9049311E-2,-7.3395204E-3,-2.4291347E-3,6.729036E-3],"categories":[],"categories_nodes":[],"categories_segments":[],"categories_sizes":[],"default_left":[0,0,0,0,0,0,0,0,0,0,0,0,0,0,0],"id":25,"left_children":[1,3,5,7,9,11,13,-1,-1,-1,-1,-1,-1,-1,-1],"loss_changes":[1.6404608E2,1.4509976E2,5.9281067E1,1.13818886E2,1.9647983E2,4.341043E1,5.585605E0,0E0,0E0,0E0,0E0,0E0,0E0,0E0,0E0],"parents":[2147483647,0,0,1,1,2,2,3,3,4,4,5,5,6,6],"right_children":[2,4,6,8,10,12,14,-1,-1,-1,-1,-1,-1,-1,-1],"split_conditions":[4E0,2.307E3,1E0,-1.296E3,3.269E3,1E0,1E0,-1.0830967E-2,3.4510447E-3,-5.331797E-2,1.2579249E-2,-1.9049311E-2,-7.3395204E-3,-2.4291347E-3,6.729036E-3],"split_indices":[6,4,2,5,4,10,10,0,0,0,0,0,0,0,0],"split_type":[0,0,0,0,0,0,0,0,0,0,0,0,0,0,0],"sum_hessian":[9.514274E3,7.8319653E3,1.682309E3,7.681115E3,1.5085016E2,1.4106602E3,2.7164883E2,5.295811E2,7.1515337E3,8.734272E1,6.350744E1,4.1384576E2,9.968144E2,7.218736E1,1.9946147E2],"tree_param":{"num_deleted":"0","num_feature":"14","num_nodes":"15","size_leaf_vector":"1"}},{"base_weights":[-1.7125234E-2,5.2239724E-2,-3.541753E-1,-1.3844961E-1,2.2434433E-1,1.4207608E-1,-4.8343012E-1,2.017681E-2,-6.8548326E-3,8.15592E-3,-6.8325773E-3,-2.162928E-3,6.983939E-3,-1.9019164E-2,-1.2339335E-2],"categories":[],"categories_nodes":[],"categories_segments":[],"categories_sizes":[],"default_left":[0,0,0,0,0,0,0,0,0,0,0,0,0,0,0],"id":26,"left_children":[1,3,5,7,9,11,13,-1,-1,-1,-1,-1,-1,-1,-1],"loss_changes":[2.2149947E2,2.578935E2,1.0475911E2,2.7315625E2,8.940263E1,6.940764E0,1.0318665E1,0E0,0E0,0E0,0E0,0E0,0E0,0E0,0E0],"parents":[2147483647,0,0,1,1,2,2,3,3,4,4,5,5,6,6],"right_children":[2,4,6,8,10,12,14,-1,-1,-1,-1,-1,-1,-1,-1],"split_conditions":[5E0,3E0,1E0,2E0,1.451E3,1E0,1E0,2.017681E-2,-6.8548326E-3,8.15592E-3,-6.8325773E-3,-2.162928E-3,6.983939E-3,-1.9019164E-2,-1.2339335E-2],"split_indices":[0,0,1,0,4,10,10,0,0,0,0,0,0,0,0],"split_type":[0,0,0,0,0,0,0,0,0,0,0,0,0,0,0],"sum_hessian":[9.443275E3,7.83609E3,1.6071853E3,3.7155078E3,4.120582E3,3.3030566E2,1.2768796E3,3.63726E2,3.3517817E3,3.734273E3,3.8630902E2,9.561372E1,2.3469194E2,3.8385117E2,8.930285E2],"tree_param":{"num_deleted":"0","num_feature":"14","num_nodes":"15","size_leaf_vector":"1"}},{"base_weights":[5.587476E-3,7.631959E-1,-2.9151991E-2,9.2779356E-1,-5.905882E-4,-2.230418E-1,8.137033E-2,1.9772977E-2,3.0657262E-2,-4.3914947E-3,-3.6481295E-2,6.9647105E-3,-8.8784965E-3],"categories":[],"categories_nodes":[],"categories_segments":[],"categories_sizes":[],"default_left":[0,0,0,0,0,0,0,0,0,0,0,0,0],"id":27,"left_children":[1,3,5,7,-1,9,11,-1,-1,-1,-1,-1,-1],"loss_changes":[2.5350072E2,5.5512985E1,1.9711148E2,4.4024658E-1,0E0,2.5111205E2,3.336357E2,0E0,0E0,0E0,0E0,0E0,0E0],"parents":[2147483647,0,0,1,1,2,2,3,3,5,5,6,6],"right_children":[2,4,6,8,-1,10,12,-1,-1,-1,-1,-1,-1],"split_conditions":[2E0,5.44E2,3E0,3E0,-5.905882E-4,1.491E3,5E0,1.9772977E-2,3.0657262E-2,-4.3914947E-3,-3.6481295E-2,6.9647105E-3,-8.8784965E-3],"split_indices":[0,4,0,1,0,4,0,0,0,0,0,0,0],"split_type":[0,0,0,0,0,0,0,0,0,0,0,0,0],"sum_hessian":[9.585541E3,4.1233405E2,9.173207E3,3.4022873E2,7.210532E1,3.3300872E3,5.8431196E3,1.11774445E2,2.2845428E2,3.1030186E3,2.2706851E2,4.1794165E3,1.663703E3],"tree_param":{"num_deleted":"0","num_feature":"14","num_nodes":"13","size_leaf_vector":"1"}},{"base_weights":[-1.199489E-3,4.820016E-1,-3.5795998E-2,6.0436785E-1,-1.9001845E-2,-2.5821212E-1,4.0149555E-2,2.312618E-2,1.0806493E-2,-3.707282E-2,-6.0137613E-3,-2.804653E-3,3.8812011E-3],"categories":[],"categories_nodes":[],"categories_segments":[],"categories_sizes":[],"default_left":[0,0,0,0,0,0,0,0,0,0,0,0,0],"id":28,"left_children":[1,3,5,7,-1,9,11,-1,-1,-1,-1,-1,-1],"loss_changes":[1.5804214E2,8.9992676E1,1.4979128E2,1.9467606E1,0E0,1.2351433E2,7.887355E1,0E0,0E0,0E0,0E0,0E0,0E0],"parents":[2147483647,0,0,1,1,2,2,3,3,5,5,6,6],"right_children":[2,4,6,8,-1,10,12,-1,-1,-1,-1,-1,-1],"split_conditions":[2E0,7.75E2,1E0,2E0,-1.9001845E-2,-1.261E3,1E0,2.312618E-2,1.0806493E-2,-3.707282E-2,-6.0137613E-3,-2.804653E-3,3.8812011E-3],"split_indices":[3,4,10,0,0,5,4,0,0,0,0,0,0],"split_type":[0,0,0,0,0,0,0,0,0,0,0,0,0],"sum_hessian":[9.46031E3,6.2151624E2,8.838793E3,5.650092E2,5.6507046E1,2.247086E3,6.591707E3,3.2065887E2,2.443503E2,1.1300741E2,2.1340786E3,2.6343438E3,3.9573633E3],"tree_param":{"num_deleted":"0","num_feature":"14","num_nodes":"13","size_leaf_vector":"1"}},{"base_weights":[1.1183359E-2,5.651097E-1,-3.128083E-2,3.901311E-1,9.473766E-1,-3.178624E-1,6.355871E-2,1.44340955E-2,-5.901279E-3,1.637508E-2,3.192596E-2,-3.698678E-2,-7.863156E-3,-2.1345234E-3,4.4957856E-3],"categories":[],"categories_nodes":[],"categories_segments":[],"categories_sizes":[],"default_left":[0,0,0,0,0,0,0,0,0,0,0,0,0,0,0],"id":29,"left_children":[1,3,5,7,9,11,13,-1,-1,-1,-1,-1,-1,-1,-1],"loss_changes":[2.2641782E2,4.081349E1,2.4289919E2,2.734584E1,2.2646637E0,1.0865228E2,7.816803E1,0E0,0E0,0E0,0E0,0E0,0E0,0E0,0E0],"parents":[2147483647,0,0,1,1,2,2,3,3,4,4,5,5,6,6],"right_children":[2,4,6,8,10,12,14,-1,-1,-1,-1,-1,-1,-1,-1],"split_conditions":[2E0,1E0,1E0,2E0,3E0,-1.261E3,3E0,1.44340955E-2,-5.901279E-3,1.637508E-2,3.192596E-2,-3.698678E-2,-7.863156E-3,-2.1345234E-3,4.4957856E-3],"split_indices":[3,13,10,5,1,5,0,0,0,0,0,0,0,0,0],"split_type":[0,0,0,0,0,0,0,0,0,0,0,0,0,0,0],"sum_hessian":[9.585564E3,6.754245E2,8.910141E3,4.789925E2,1.9643202E2,2.212262E3,6.6978784E3,4.1771915E2,6.1273357E1,5.8982227E1,1.374498E2,1.1390565E2,2.0983562E3,2.6115698E3,4.0863086E3],"tree_param":{"num_deleted":"0","num_feature":"14","num_nodes":"15","size_leaf_vector":"1"}},{"base_weights":[3.5377607E-2,4.84731E-1,3.8597223E-3,5.8144045E-1,-5.167045E-3,-1.6895854E-1,1.07997835E-1,1.2781014E-2,2.789279E-2,-1.5391915E-2,-1.9298531E-3,6.9670435E-3,-5.084088E-3],"categories":[],"categories_nodes":[],"categories_segments":[],"categories_sizes":[],"default_left":[0,0,0,0,0,0,0,0,0,0,0,0,0],"id":30,"left_children":[1,3,5,7,-1,9,11,-1,-1,-1,-1,-1,-1],"loss_changes":[1.3606459E2,4.1429962E1,1.6251193E2,2.4599655E1,0E0,1.2125689E2,1.9488065E2,0E0,0E0,0E0,0E0,0E0,0E0],"parents":[2147483647,0,0,1,1,2,2,3,3,5,5,6,6],"right_children":[2,4,6,8,-1,10,12,-1,-1,-1,-1,-1,-1],"split_conditions":[2E0,2E0,3E0,1E0,-5.167045E-3,1E0,5E0,1.2781014E-2,2.789279E-2,-1.5391915E-2,-1.9298531E-3,6.9670435E-3,-5.084088E-3],"split_indices":[3,5,0,13,0,10,0,0,0,0,0,0,0],"split_type":[0,0,0,0,0,0,0,0,0,0,0,0,0],"sum_hessian":[9.63309E3,6.1988E2,9.01321E3,5.426677E2,7.72123E1,3.3830974E3,5.6301123E3,3.926047E2,1.5006302E2,7.77495E2,2.6056025E3,3.892477E3,1.737635E3],"tree_param":{"num_deleted":"0","num_feature":"14","num_nodes":"13","size_leaf_vector":"1"}},{"base_weights":[6.688923E-3,-1.457767E-1,1.0185851E-1,5.469326E-1,-2.2121254E-1,2.4368787E-1,-2.516297E-1,2.0624287E-2,-4.396051E-4,-1.447978E-2,-7.8017026E-4,4.664911E-3,1.1476216E-2,-1.6884794E-2,-3.7749931E-3],"categories":[],"categories_nodes":[],"categories_segments":[],"categories_sizes":[],"default_left":[0,0,0,0,0,0,0,0,0,0,0,0,0,0,0],"id":31,"left_children":[1,3,5,7,9,11,13,-1,-1,-1,-1,-1,-1,-1,-1],"loss_changes":[1.3849178E2,1.9241962E2,2.954951E2,2.9308853E1,1.6849237E2,5.0356964E1,6.4650024E1,0E0,0E0,0E0,0E0,0E0,0E0,0E0,0E0],"parents":[2147483647,0,0,1,1,2,2,3,3,4,4,5,5,6,6],"right_children":[2,4,6,8,10,12,14,-1,-1,-1,-1,-1,-1,-1,-1],"split_conditions":[3E0,2E0,5E0,5.44E2,-1.18E2,-3E0,1E0,2.0624287E-2,-4.396051E-4,-1.447978E-2,-7.8017026E-4,4.664911E-3,1.1476216E-2,-1.6884794E-2,-3.7749931E-3],"split_indices":[0,0,0,4,5,5,10,0,0,0,0,0,0,0,0],"split_type":[0,0,0,0,0,0,0,0,0,0,0,0,0,0,0],"sum_hessian":[9.527308E3,3.6553923E3,5.871915E3,3.5153854E2,3.3038538E3,4.194785E3,1.6771299E3,2.8080313E2,7.073541E1,1.4038218E3,1.900032E3,2.5827676E3,1.6120176E3,4.7050357E2,1.2066263E3],"tree_param":{"num_deleted":"0","num_feature":"14","num_nodes":"15","size_leaf_vector":"1"}},{"base_weights":[-1.4929606E-3,5.4282993E-1,-4.275543E-2,6.207312E-1,-5.7331016E-3,-2.1415941E-1,5.9799444E-2,1.6095608E-3,2.060268E-2,-4.4427174E-3,-3.0870913E-2,4.9377033E-3,-5.189786E-3],"categories":[],"categories_nodes":[],"categories_segments":[],"categories_sizes":[],"default_left":[0,0,0,0,0,0,0,0,0,0,0,0,0],"id":32,"left_children":[1,3,5,7,-1,9,11,-1,-1,-1,-1,-1,-1],"loss_changes":[2.1241272E2,3.9708878E1,1.5520018E2,2.1577377E1,0E0,1.7522833E2,1.348868E2,0E0,0E0,0E0,0E0,0E0,0E0],"parents":[2147483647,0,0,1,1,2,2,3,3,5,5,6,6],"right_children":[2,4,6,8,-1,10,12,-1,-1,-1,-1,-1,-1],"split_conditions":[2E0,6E0,3E0,1E0,-5.7331016E-3,1.491E3,5E0,1.6095608E-3,2.060268E-2,-4.4427174E-3,-3.0870913E-2,4.9377033E-3,-5.189786E-3],"split_indices":[3,5,0,4,0,4,0,0,0,0,0,0,0],"split_type":[0,0,0,0,0,0,0,0,0,0,0,0,0],"sum_hessian":[9.459266E3,6.562612E2,8.803004E3,5.9591455E2,6.03467E1,3.2949287E3,5.5080757E3,6.561627E1,5.302983E2,3.0598816E3,2.3504724E2,3.8032715E3,1.7048042E3],"tree_param":{"num_deleted":"0","num_feature":"14","num_nodes":"13","size_leaf_vector":"1"}},{"base_weights":[2.069049E-2,-2.0467608E-1,9.73324E-2,2.263895E-2,-2.4047896E-1,1.14407144E-1,-8.8025457E-1,-4.310102E-3,-1.6043905E-2,5.0170524E-3,-4.3749837E-3,-3.4095645E-2,-1.285094E-2],"categories":[],"categories_nodes":[],"categories_segments":[],"categories_sizes":[],"default_left":[0,0,0,0,0,0,0,0,0,0,0,0,0],"id":33,"left_children":[1,3,5,-1,7,9,11,-1,-1,-1,-1,-1,-1],"loss_changes":[1.6565976E2,8.4846954E1,1.1980845E2,0E0,6.561232E1,9.7188484E1,7.8233185E0,0E0,0E0,0E0,0E0,0E0,0E0],"parents":[2147483647,0,0,1,1,2,2,4,4,5,5,6,6],"right_children":[2,4,6,-1,8,10,12,-1,-1,-1,-1,-1,-1],"split_conditions":[1E0,1E0,2.241E3,2.263895E-2,4.2E2,4E0,3.205E3,-4.310102E-3,-1.6043905E-2,5.0170524E-3,-4.3749837E-3,-3.4095645E-2,-1.285094E-2],"split_indices":[10,3,4,0,4,6,4,0,0,0,0,0,0],"split_type":[0,0,0,0,0,0,0,0,0,0,0,0,0],"sum_hessian":[9.575621E3,2.4224937E3,7.1531274E3,7.892989E1,2.3435637E3,7.0400176E3,1.13109795E2,1.7772565E3,5.663072E2,5.858231E3,1.1817869E3,6.109784E1,5.2011955E1],"tree_param":{"num_deleted":"0","num_feature":"14","num_nodes":"13","size_leaf_vector":"1"}},{"base_weights":[5.937947E-4,6.530137E-2,-3.154692E-1,6.579311E-1,3.331898E-2,1.7079613E-1,-4.4225994E-1,2.4178598E-2,-6.5186707E-4,-4.399632E-3,5.4667885E-3,1.3081564E-2,2.5453083E-3,-9.211098E-3,-2.1309664E-2],"categories":[],"categories_nodes":[],"categories_segments":[],"categories_sizes":[],"default_left":[0,0,0,0,0,0,0,0,0,0,0,0,0,0,0],"id":34,"left_children":[1,3,5,7,9,11,13,-1,-1,-1,-1,-1,-1,-1,-1],"loss_changes":[1.937428E2,1.4836984E2,1.00247574E2,4.131671E1,2.0089319E2,6.824873E0,4.3232086E1,0E0,0E0,0E0,0E0,0E0,0E0,0E0,0E0],"parents":[2147483647,0,0,1,1,2,2,3,3,4,4,5,5,6,6],"right_children":[2,4,6,8,10,12,14,-1,-1,-1,-1,-1,-1,-1,-1],"split_conditions":[5E0,2E0,1E0,5.44E2,3E0,1E0,4E0,2.4178598E-2,-6.5186707E-4,-4.399632E-3,5.4667885E-3,1.3081564E-2,2.5453083E-3,-9.211098E-3,-2.1309664E-2],"split_indices":[0,0,1,4,0,2,1,0,0,0,0,0,0,0,0],"split_type":[0,0,0,0,0,0,0,0,0,0,0,0,0,0,0],"sum_hessian":[9.465361E3,7.866044E3,1.5993174E3,3.9114743E2,7.4748965E3,3.2841788E2,1.2708995E3,3.2087717E2,7.027025E1,3.3814365E3,4.0934597E3,6.7559135E1,2.6085873E2,8.615016E2,4.093979E2],"tree_param":{"num_deleted":"0","num_feature":"14","num_nodes":"15","size_leaf_vector":"1"}},{"base_weights":[2.3633646E-2,-1.5766671E-1,8.676236E-2,2.1681866E-2,-1.8957722E-1,1.2718448E-1,-1.1335169E-1,-3.6691779E-3,-1.4113904E-2,5.145791E-3,-6.5964204E-4,-4.771065E-3,2.1986855E-4],"categories":[],"categories_nodes":[],"categories_segments":[],"categories_sizes":[],"default_left":[0,0,0,0,0,0,0,0,0,0,0,0,0],"id":35,"left_children":[1,3,5,-1,7,9,11,-1,-1,-1,-1,-1,-1],"loss_changes":[1.1020238E2,7.0643616E1,5.797945E1,0E0,4.4311028E1,3.958216E1,6.7922335E0,0E0,0E0,0E0,0E0,0E0,0E0],"parents":[2147483647,0,0,1,1,2,2,4,4,5,5,6,6],"right_children":[2,4,6,-1,8,10,12,-1,-1,-1,-1,-1,-1],"split_conditions":[1E0,1E0,4E0,2.1681866E-2,4E0,1E0,4E0,-3.6691779E-3,-1.4113904E-2,5.145791E-3,-6.5964204E-4,-4.771065E-3,2.1986855E-4],"split_indices":[10,3,6,0,1,8,1,0,0,0,0,0,0],"split_type":[0,0,0,0,0,0,0,0,0,0,0,0,0],"sum_hessian":[9.612893E3,2.4747637E3,7.138129E3,7.789358E1,2.39687E3,5.945755E3,1.1923738E3,1.9481979E3,4.4867224E2,4.5873574E3,1.3583977E3,8.6865234E2,3.237214E2],"tree_param":{"num_deleted":"0","num_feature":"14","num_nodes":"13","size_leaf_vector":"1"}},{"base_weights":[1.5630303E-2,7.471646E-2,-2.710391E-1,-7.554473E-2,2.101552E-1,-1.081285E-2,4.986632E-3,1.630757E-2,-4.240612E-3,1.55836595E-2,4.015738E-3],"categories":[],"categories_nodes":[],"categories_segments":[],"categories_sizes":[],"default_left":[0,0,0,0,0,0,0,0,0,0,0],"id":36,"left_children":[1,3,5,7,9,-1,-1,-1,-1,-1,-1],"loss_changes":[1.6198868E2,1.6187434E2,6.464148E1,1.5387923E2,9.733946E1,0E0,0E0,0E0,0E0,0E0,0E0],"parents":[2147483647,0,0,1,1,2,2,3,3,4,4],"right_children":[2,4,6,8,10,-1,-1,-1,-1,-1,-1],"split_conditions":[5E0,3E0,1E0,2E0,4E0,-1.081285E-2,4.986632E-3,1.630757E-2,-4.240612E-3,1.55836595E-2,4.015738E-3],"split_indices":[0,0,2,0,0,0,0,0,0,0,0],"split_type":[0,0,0,0,0,0,0,0,0,0,0],"sum_hessian":[9.55315E3,7.929635E3,1.6235154E3,3.7577139E3,4.171921E3,1.3513105E3,2.7220477E2,3.5260593E2,3.405108E3,8.1140216E2,3.3605186E3],"tree_param":{"num_deleted":"0","num_feature":"14","num_nodes":"11","size_leaf_vector":"1"}},{"base_weights":[-1.02419555E-2,-1.9052005E-1,9.988509E-2,5.0256044E-1,-2.6750267E-1,2.17959E-1,-2.0086546E-1,2.201327E-2,-1.975916E-2,-1.0569326E-2,1.973028E-3,7.565206E-3,-3.6814292E-3,7.516956E-3,-9.768984E-3],"categories":[],"categories_nodes":[],"categories_segments":[],"categories_sizes":[],"default_left":[0,0,0,0,0,0,0,0,0,0,0,0,0,0,0],"id":37,"left_children":[1,3,5,7,9,11,13,-1,-1,-1,-1,-1,-1,-1,-1],"loss_changes":[1.888068E2,1.9360869E2,2.0989636E2,1.0232934E2,9.251875E1,4.988835E1,9.470142E1,0E0,0E0,0E0,0E0,0E0,0E0,0E0,0E0],"parents":[2147483647,0,0,1,1,2,2,3,3,4,4,5,5,6,6],"right_children":[2,4,6,8,10,12,14,-1,-1,-1,-1,-1,-1,-1,-1],"split_conditions":[3E0,2E0,5E0,5.44E2,4E0,1.539E3,1E0,2.201327E-2,-1.975916E-2,-1.0569326E-2,1.973028E-3,7.565206E-3,-3.6814292E-3,7.516956E-3,-9.768984E-3],"split_indices":[0,0,0,4,1,4,1,0,0,0,0,0,0,0,0],"split_type":[0,0,0,0,0,0,0,0,0,0,0,0,0,0,0],"sum_hessian":[9.485854E3,3.597888E3,5.887966E3,3.5285297E2,3.245035E3,4.23241E3,1.6555557E3,2.9804834E2,5.480463E1,2.5887083E3,6.5632654E2,3.8511628E3,3.8124728E2,3.5456793E2,1.3009878E3],"tree_param":{"num_deleted":"0","num_feature":"14","num_nodes":"15","size_leaf_vector":"1"}},{"base_weights":[2.7718537E-2,6.024636E-1,2.1794566E-3,8.5266554E-1,3.469647E-1,-1.5290959E-1,9.232052E-2,1.216874E-2,2.995116E-2,-5.522149E-3,1.9209914E-2,-1.184916E-2,9.811067E-5,5.241295E-3,-3.123229E-3],"categories":[],"categories_nodes":[],"categories_segments":[],"categories_sizes":[],"default_left":[0,0,0,0,0,0,0,0,0,0,0,0,0,0,0],"id":38,"left_children":[1,3,5,7,9,11,13,-1,-1,-1,-1,-1,-1,-1,-1],"loss_changes":[1.4028992E2,2.1841644E1,1.2873624E2,7.3553925E0,3.5918438E1,1.2827985E2,9.460987E1,0E0,0E0,0E0,0E0,0E0,0E0,0E0,0E0],"parents":[2147483647,0,0,1,1,2,2,3,3,4,4,5,5,6,6],"right_children":[2,4,6,8,10,12,14,-1,-1,-1,-1,-1,-1,-1,-1],"split_conditions":[2E0,1E0,3E0,3E0,1E0,-1.81E2,5E0,1.216874E-2,2.995116E-2,-5.522149E-3,1.9209914E-2,-1.184916E-2,9.811067E-5,5.241295E-3,-3.123229E-3],"split_indices":[0,3,0,1,0,5,0,0,0,0,0,0,0,0,0],"split_type":[0,0,0,0,0,0,0,0,0,0,0,0,0,0,0],"sum_hessian":[9.589623E3,3.9671365E2,9.192909E3,1.8664836E2,2.1006529E2,3.3724688E3,5.8204404E3,5.6869408E1,1.2977896E2,7.486506E1,1.3520023E2,1.3191064E3,2.0533623E3,4.104892E3,1.7155486E3],"tree_param":{"num_deleted":"0","num_feature":"14","num_nodes":"15","size_leaf_vector":"1"}},{"base_weights":[2.9274704E-2,-2.0569849E-1,1.0749042E-1,-4.266164E-1,-8.041946E-2,1.5976618E-1,-2.5590393E-1,-4.784996E-3,-2.3883542E-2,1.2510817E-3,-1.0581585E-2,3.7893425E-3,1.3759716E-2,-3.986261E-2,-9.5011666E-4],"categories":[],"categories_nodes":[],"categories_segments":[],"categories_sizes":[],"default_left":[0,0,0,0,0,0,0,0,0,0,0,0,0,0,0],"id":39,"left_children":[1,3,5,7,9,11,13,-1,-1,-1,-1,-1,-1,-1,-1],"loss_changes":[1.7620184E2,6.537695E1,1.370462E2,8.272722E1,5.1742004E1,6.1842438E1,2.1632916E2,0E0,0E0,0E0,0E0,0E0,0E0,0E0,0E0],"parents":[2147483647,0,0,1,1,2,2,3,3,4,4,5,5,6,6],"right_children":[2,4,6,8,10,12,14,-1,-1,-1,-1,-1,-1,-1,-1],"split_conditions":[1E0,3E0,8.36E2,1.77E2,5E0,5.44E2,1.174E3,-4.784996E-3,-2.3883542E-2,1.2510817E-3,-1.0581585E-2,3.7893425E-3,1.3759716E-2,-3.986261E-2,-9.5011666E-4],"split_indices":[10,0,4,4,0,4,4,0,0,0,0,0,0,0,0],"split_type":[0,0,0,0,0,0,0,0,0,0,0,0,0,0,0],"sum_hessian":[9.570652E3,2.3829087E3,7.1877437E3,8.507156E2,1.5321931E3,6.2910986E3,8.9664484E2,5.03647E2,3.4706857E2,1.061102E3,4.710911E2,5.673624E3,6.1747473E2,1.4572118E2,7.5092365E2],"tree_param":{"num_deleted":"0","num_feature":"14","num_nodes":"15","size_leaf_vector":"1"}},{"base_weights":[2.0170426E-2,-1.6073206E-1,8.263974E-2,-9.707725E-1,-1.09612174E-1,3.6519676E-2,2.6138508E-1,-1.7126957E-2,-4.0675897E-2,-7.205348E-4,-1.4838798E-2,1.1826834E-2,3.3531178E-4,2.0404337E-2,4.6014776E-3],"categories":[],"categories_nodes":[],"categories_segments":[],"categories_sizes":[],"default_left":[0,0,0,0,0,0,0,0,0,0,0,0,0,0,0],"id":40,"left_children":[1,3,5,7,9,11,13,-1,-1,-1,-1,-1,-1,-1,-1],"loss_changes":[1.0823261E2,9.957266E1,5.8352795E1,1.2411591E1,7.591749E1,5.1047016E1,6.3951584E1,0E0,0E0,0E0,0E0,0E0,0E0,0E0,0E0],"parents":[2147483647,0,0,1,1,2,2,3,3,4,4,5,5,6,6],"right_children":[2,4,6,8,10,12,14,-1,-1,-1,-1,-1,-1,-1,-1],"split_conditions":[1E0,-1.237E3,4E0,-1.438E3,4E0,2E0,-7.67E2,-1.7126957E-2,-4.0675897E-2,-7.205348E-4,-1.4838798E-2,1.1826834E-2,3.3531178E-4,2.0404337E-2,4.6014776E-3],"split_indices":[10,5,1,5,1,3,5,0,0,0,0,0,0,0,0],"split_type":[0,0,0,0,0,0,0,0,0,0,0,0,0,0,0],"sum_hessian":[9.562539E3,2.446391E3,7.116148E3,1.3338133E2,2.3130098E3,5.6706406E3,1.4455071E3,7.888738E1,5.449395E1,1.903136E3,4.0987387E2,3.629285E2,5.3077124E3,2.8361377E2,1.1618933E3],"tree_param":{"num_deleted":"0","num_feature":"14","num_nodes":"15","size_leaf_vector":"1"}},{"base_weights":[-4.8204087E-2,-2.4216458E-1,6.735675E-2,-3.6345658E-1,2.1268445E-1,1.8269604E-1,-2.2516276E-1,-2.1288406E-2,-4.2400435E-3,-1.0615268E-2,1.080551E-2,1.1276697E-2,4.155873E-3,-3.342216E-3,-1.6039828E-2],"categories":[],"categories_nodes":[],"categories_segments":[],"categories_sizes":[],"default_left":[0,0,0,0,0,0,0,0,0,0,0,0,0,0,0],"id":41,"left_children":[1,3,5,7,9,11,13,-1,-1,-1,-1,-1,-1,-1,-1],"loss_changes":[2.0900037E2,1.9297403E2,1.9734654E2,2.0987244E2,6.290207E1,3.4761887E1,5.6957344E1,0E0,0E0,0E0,0E0,0E0,0E0,0E0,0E0],"parents":[2147483647,0,0,1,1,2,2,3,3,4,4,5,5,6,6],"right_children":[2,4,6,8,10,12,14,-1,-1,-1,-1,-1,-1,-1,-1],"split_conditions":[3E0,4E0,5E0,-1.24E2,1E0,4E0,4E0,-2.1288406E-2,-4.2400435E-3,-1.0615268E-2,1.080551E-2,1.1276697E-2,4.155873E-3,-3.342216E-3,-1.6039828E-2],"split_indices":[0,1,0,5,10,0,1,0,0,0,0,0,0,0,0],"split_type":[0,0,0,0,0,0,0,0,0,0,0,0,0,0,0],"sum_hessian":[9.29937E3,3.4710918E3,5.828279E3,2.7436628E3,7.274291E2,4.1852314E3,1.6430472E3,1.062071E3,1.6815918E3,1.4597762E2,5.814514E2,7.6057916E2,3.424652E3,1.2137616E3,4.2928558E2],"tree_param":{"num_deleted":"0","num_feature":"14","num_nodes":"15","size_leaf_vector":"1"}},{"base_weights":[4.34573E-3,-1.3187577E-1,8.873255E-2,4.883008E-1,-2.0026423E-1,1.8442969E-1,-1.4987968E-1,1.9477045E-2,-3.3614377E-3,-8.385175E-3,3.3512607E-3,6.082838E-3,-1.1480999E-2,-1.6740833E-3,-1.1898378E-2],"categories":[],"categories_nodes":[],"categories_segments":[],"categories_sizes":[],"default_left":[0,0,0,0,0,0,0,0,0,0,0,0,0,0,0],"id":42,"left_children":[1,3,5,7,9,11,13,-1,-1,-1,-1,-1,-1,-1,-1],"loss_changes":[1.08869255E2,1.5421509E2,1.3399701E2,3.6140617E1,8.1288895E1,4.411682E1,3.8285355E1,0E0,0E0,0E0,0E0,0E0,0E0,0E0,0E0],"parents":[2147483647,0,0,1,1,2,2,3,3,4,4,5,5,6,6],"right_children":[2,4,6,8,10,12,14,-1,-1,-1,-1,-1,-1,-1,-1],"split_conditions":[3E0,2E0,5E0,5.44E2,4E0,2.307E3,4E0,1.9477045E-2,-3.3614377E-3,-8.385175E-3,3.3512607E-3,6.082838E-3,-1.1480999E-2,-1.6740833E-3,-1.1898378E-2],"split_indices":[0,0,0,4,1,4,1,0,0,0,0,0,0,0,0],"split_type":[0,0,0,0,0,0,0,0,0,0,0,0,0,0,0],"sum_hessian":[9.454336E3,3.6097751E3,5.844561E3,3.5097314E2,3.258802E3,4.1761484E3,1.6684125E3,2.7744937E2,7.352379E1,2.6021084E3,6.5669366E2,4.0533193E3,1.2282915E2,1.2196763E3,4.4873627E2],"tree_param":{"num_deleted":"0","num_feature":"14","num_nodes":"15","size_leaf_vector":"1"}},{"base_weights":[-9.898795E-3,-2.4177124E-1,6.749862E-2,-1.3010238E-1,-7.4411076E-1,9.288878E-2,-3.377383E-1,3.5592134E-3,-1.6718987E-2,-1.2565709E-2,-4.3265227E-2,-1.5323691E-3,5.775924E-3,-5.027181E-2,-9.373401E-4],"categories":[],"categories_nodes":[],"categories_segments":[],"categories_sizes":[],"default_left":[0,0,0,0,0,0,0,0,0,0,0,0,0,0,0],"id":43,"left_children":[1,3,5,7,9,11,13,-1,-1,-1,-1,-1,-1,-1,-1],"loss_changes":[1.6959618E2,1.3086325E2,7.287083E1,2.0822635E2,8.893399E1,9.590332E1,1.6878467E2,0E0,0E0,0E0,0E0,0E0,0E0,0E0,0E0],"parents":[2147483647,0,0,1,1,2,2,3,3,4,4,5,5,6,6],"right_children":[2,4,6,8,10,12,14,-1,-1,-1,-1,-1,-1,-1,-1],"split_conditions":[1E0,5E0,1.539E3,2.15E2,4E0,1E0,-1.198E3,3.5592134E-3,-1.6718987E-2,-1.2565709E-2,-4.3265227E-2,-1.5323691E-3,5.775924E-3,-5.027181E-2,-9.373401E-4],"split_indices":[10,0,4,4,1,4,5,0,0,0,0,0,0,0,0],"split_type":[0,0,0,0,0,0,0,0,0,0,0,0,0,0,0],"sum_hessian":[9.421385E3,2.3557002E3,7.065685E3,1.9392012E3,4.1649908E2,6.658661E3,4.0702377E2,1.2286696E3,7.105317E2,2.9600986E2,1.2048921E2,2.7214346E3,3.9372268E3,6.692553E1,3.4009824E2],"tree_param":{"num_deleted":"0","num_feature":"14","num_nodes":"15","size_leaf_vector":"1"}},{"base_weights":[9.4906084E-4,5.8715977E-2,-2.8957406E-1,-7.101136E-2,1.7479509E-1,3.3956447E-1,-4.6915504E-1,1.6092129E-2,-4.204557E-3,1.2161853E-2,3.6793887E-3,2.0086447E-2,6.5603E-3,-1.0011586E-2,-1.9126438E-2],"categories":[],"categories_nodes":[],"categories_segments":[],"categories_sizes":[],"default_left":[0,0,0,0,0,0,0,0,0,0,0,0,0,0,0],"id":44,"left_children":[1,3,5,7,9,11,13,-1,-1,-1,-1,-1,-1,-1,-1],"loss_changes":[1.5860464E2,1.1915022E2,1.7874945E2,1.5710701E2,4.9179398E1,1.1709091E1,2.4824554E1,0E0,0E0,0E0,0E0,0E0,0E0,0E0,0E0],"parents":[2147483647,0,0,1,1,2,2,3,3,4,4,5,5,6,6],"right_children":[2,4,6,8,10,12,14,-1,-1,-1,-1,-1,-1,-1,-1],"split_conditions":[5E0,3E0,1E0,2E0,4E0,1E0,3E0,1.6092129E-2,-4.204557E-3,1.2161853E-2,3.6793887E-3,2.0086447E-2,6.5603E-3,-1.0011586E-2,-1.9126438E-2],"split_indices":[0,0,1,0,0,2,1,0,0,0,0,0,0,0,0],"split_type":[0,0,0,0,0,0,0,0,0,0,0,0,0,0,0],"sum_hessian":[9.444152E3,7.887284E3,1.5568676E3,3.7224397E3,4.1648447E3,3.42497E2,1.2143706E3,3.7202954E2,3.3504102E3,7.521135E2,3.412731E3,7.744358E1,2.650534E2,6.9286646E2,5.2150415E2],"tree_param":{"num_deleted":"0","num_feature":"14","num_nodes":"15","size_leaf_vector":"1"}},{"base_weights":[-1.0850719E-2,-2.6718138E-2,2.3528358E-2,-8.3598816E-1,-1.31076565E-2,-3.420584E-2,-1.4701275E-2,4.1971097E-4,-1.1835498E-2],"categories":[],"categories_nodes":[],"categories_segments":[],"categories_sizes":[],"default_left":[0,0,0,0,0,0,0,0,0],"id":45,"left_children":[1,3,-1,5,7,-1,-1,-1,-1],"loss_changes":[1.1757814E2,1.00269905E2,0E0,8.635071E0,9.396929E1,0E0,0E0,0E0,0E0],"parents":[2147483647,0,0,1,1,3,3,4,4],"right_children":[2,4,-1,6,8,-1,-1,-1,-1],"split_conditions":[1E0,1E0,2.3528358E-2,6E0,1.539E3,-3.420584E-2,-1.4701275E-2,4.1971097E-4,-1.1835498E-2],"split_indices":[13,11,0,4,4,0,0,0,0],"split_type":[0,0,0,0,0,0,0,0,0],"sum_hessian":[9.352719E3,9.1804375E3,1.7228108E2,1.4063573E2,9.039802E3,6.107775E1,7.9557976E1,8.446699E3,5.9310266E2],"tree_param":{"num_deleted":"0","num_feature":"14","num_nodes":"9","size_leaf_vector":"1"}},{"base_weights":[3.073256E-2,7.620011E-2,-1.8688026E-1,-4.334286E-2,1.8385242E-1,-4.6191305E-2,-1.3792621E-2,1.217345E-2,-2.6185429E-3,-4.1694986E-3,6.9236974E-3,2.8009284E-3,-3.1748908E-3],"categories":[],"categories_nodes":[],"categories_segments":[],"categories_sizes":[],"default_left":[0,0,0,0,0,0,0,0,0,0,0,0,0],"id":46,"left_children":[1,3,5,7,9,11,-1,-1,-1,-1,-1,-1,-1],"loss_changes":[9.452884E1,1.0202658E2,6.2614597E1,7.408563E1,6.3582672E1,9.283358E0,0E0,0E0,0E0,0E0,0E0,0E0,0E0],"parents":[2147483647,0,0,1,1,2,2,3,3,4,4,5,5],"right_children":[2,4,6,8,10,12,-1,-1,-1,-1,-1,-1,-1],"split_conditions":[5E0,3E0,3E0,2E0,-9.17E2,1E0,-1.3792621E-2,1.217345E-2,-2.6185429E-3,-4.1694986E-3,6.9236974E-3,2.8009284E-3,-3.1748908E-3],"split_indices":[0,0,1,0,5,1,0,0,0,0,0,0,0],"split_type":[0,0,0,0,0,0,0,0,0,0,0,0,0],"sum_hessian":[9.540641E3,7.900931E3,1.6397098E3,3.7421401E3,4.158791E3,1.0920338E3,5.47676E2,3.2413153E2,3.4180085E3,5.2270624E2,3.6360847E3,3.2024E2,7.717938E2],"tree_param":{"num_deleted":"0","num_feature":"14","num_nodes":"13","size_leaf_vector":"1"}},{"base_weights":[-1.0304602E-2,-2.443997E-1,6.7056246E-2,-4.654306E-1,-8.561567E-2,8.156051E-2,-6.719048E-1,-6.897687E-3,-3.4321904E-2,3.445329E-4,-1.564879E-2,-1.5300591E-3,5.443477E-3,-3.647982E-2,4.033378E-3],"categories":[],"categories_nodes":[],"categories_segments":[],"categories_sizes":[],"default_left":[0,0,0,0,0,0,0,0,0,0,0,0,0,0,0],"id":47,"left_children":[1,3,5,7,9,11,13,-1,-1,-1,-1,-1,-1,-1,-1],"loss_changes":[1.7031999E2,8.1059845E1,7.56199E1,1.5134163E2,5.877101E1,9.203503E1,6.2228565E1,0E0,0E0,0E0,0E0,0E0,0E0,0E0,0E0],"parents":[2147483647,0,0,1,1,2,2,3,3,4,4,5,5,6,6],"right_children":[2,4,6,8,10,12,14,-1,-1,-1,-1,-1,-1,-1,-1],"split_conditions":[1E0,2E0,2.241E3,3E2,5E0,3E0,3.233E3,-6.897687E-3,-3.4321904E-2,3.445329E-4,-1.564879E-2,-1.5300591E-3,5.443477E-3,-3.647982E-2,4.033378E-3],"split_indices":[10,1,4,4,0,4,4,0,0,0,0,0,0,0,0],"split_type":[0,0,0,0,0,0,0,0,0,0,0,0,0,0,0],"sum_hessian":[9.376012E3,2.326704E3,7.049308E3,9.6198694E2,1.3647172E3,6.9236606E3,1.2564743E2,7.2518555E2,2.3680139E2,1.1222368E3,2.4248041E2,2.9730305E3,3.9506301E3,7.273145E1,5.2915977E1],"tree_param":{"num_deleted":"0","num_feature":"14","num_nodes":"15","size_leaf_vector":"1"}},{"base_weights":[2.3168746E-2,6.719726E-2,-1.8537018E-1,-6.07392E-2,1.8086599E-1,3.1661332E-1,-3.2898062E-1,1.3880945E-2,-3.5203944E-3,-7.525868E-4,5.7760063E-3,1.8103119E-2,6.4425995E-3,-1.4473689E-2,-7.794931E-3],"categories":[],"categories_nodes":[],"categories_segments":[],"categories_sizes":[],"default_left":[0,0,0,0,0,0,0,0,0,0,0,0,0,0,0],"id":48,"left_children":[1,3,5,7,9,11,13,-1,-1,-1,-1,-1,-1,-1,-1],"loss_changes":[8.7191E1,1.14409775E2,1.20290695E2,1.09749275E2,1.02222595E1,8.738834E0,1.172139E1,0E0,0E0,0E0,0E0,0E0,0E0,0E0,0E0],"parents":[2147483647,0,0,1,1,2,2,3,3,4,4,5,5,6,6],"right_children":[2,4,6,8,10,12,14,-1,-1,-1,-1,-1,-1,-1,-1],"split_conditions":[5E0,3E0,1E0,2E0,2E0,1E0,1E0,1.3880945E-2,-3.5203944E-3,-7.525868E-4,5.7760063E-3,1.8103119E-2,6.4425995E-3,-1.4473689E-2,-7.794931E-3],"split_indices":[0,0,1,0,3,2,10,0,0,0,0,0,0,0,0],"split_type":[0,0,0,0,0,0,0,0,0,0,0,0,0,0,0],"sum_hessian":[9.485519E3,7.841523E3,1.6439962E3,3.6872769E3,4.154246E3,3.614734E2,1.2825228E3,3.5112094E2,3.336156E3,2.1751572E2,3.9367302E3,7.925179E1,2.822216E2,3.7530716E2,9.0721564E2],"tree_param":{"num_deleted":"0","num_feature":"14","num_nodes":"15","size_leaf_vector":"1"}},{"base_weights":[9.83439E-3,3.7088208E-2,-3.700977E-1,-1.17686026E-1,1.4613022E-1,-4.0779896E-2,-7.209629E-2,-4.222342E-3,1.8753659E-2,3.3659637E-3,1.6691668E-2,-1.8959839E-2,5.32659E-3],"categories":[],"categories_nodes":[],"categories_segments":[],"categories_sizes":[],"default_left":[0,0,0,0,0,0,0,0,0,0,0,0,0],"id":49,"left_children":[1,3,5,7,9,-1,11,-1,-1,-1,-1,-1,-1],"loss_changes":[9.765445E1,1.4920592E2,1.8359047E2,6.293027E1,7.092728E1,0E0,7.093805E1,0E0,0E0,0E0,0E0,0E0,0E0],"parents":[2147483647,0,0,1,1,2,2,3,3,4,4,6,6],"right_children":[2,4,6,8,10,-1,12,-1,-1,-1,-1,-1,-1],"split_conditions":[1.539E3,1E0,-1.198E3,1E0,1.261E3,-4.0779896E-2,3E0,-4.222342E-3,1.8753659E-2,3.3659637E-3,1.6691668E-2,-1.8959839E-2,5.32659E-3],"split_indices":[4,4,5,9,4,0,0,0,0,0,0,0,0],"split_type":[0,0,0,0,0,0,0,0,0,0,0,0,0],"sum_hessian":[9.439925E3,8.818966E3,6.209585E2,3.6409863E3,5.17798E3,1.3473329E2,4.8622522E2,3.5405303E3,1.004559E2,4.79645E3,3.8152942E2,1.4645503E2,3.397702E2],"tree_param":{"num_deleted":"0","num_feature":"14","num_nodes":"13","size_leaf_vector":"1"}},{"base_weights":[2.4191486E-2,-1.4858228E-1,8.331879E-2,-3.815174E-1,-2.0351972E-2,6.992563E-2,2.388909E-2,-2.4046712E-2,-2.3044723E-3,1.3851825E-2,-3.088263E-3,6.2924076E-4,7.7888602E-3],"categories":[],"categories_nodes":[],"categories_segments":[],"categories_sizes":[],"default_left":[0,0,0,0,0,0,0,0,0,0,0,0,0],"id":50,"left_children":[1,3,5,7,9,11,-1,-1,-1,-1,-1,-1,-1],"loss_changes":[9.729483E1,7.1988235E1,6.639679E1,1.0832691E2,6.294832E1,6.451561E1,0E0,0E0,0E0,0E0,0E0,0E0,0E0],"parents":[2147483647,0,0,1,1,2,2,3,3,4,4,5,5],"right_children":[2,4,6,8,10,12,-1,-1,-1,-1,-1,-1,-1],"split_conditions":[1E0,3E0,1E0,2E0,4E0,4E0,2.388909E-2,-2.4046712E-2,-2.3044723E-3,1.3851825E-2,-3.088263E-3,6.2924076E-4,7.7888602E-3],"split_indices":[10,0,13,1,0,1,0,0,0,0,0,0,0],"split_type":[0,0,0,0,0,0,0,0,0,0,0,0,0],"sum_hessian":[9.508369E3,2.4161584E3,7.0922104E3,8.480653E2,1.5680931E3,6.973597E3,1.1861336E2,3.483151E2,4.9975018E2,2.2086833E2,1.3472247E3,5.5562427E3,1.4173546E3],"tree_param":{"num_deleted":"0","num_feature":"14","num_nodes":"13","size_leaf_vector":"1"}},{"base_weights":[-3.1070309E-2,-4.0353187E-3,-3.5431746E-1,2.0803966E-1,-4.4622213E-2,-7.5001127E-1,-3.9752036E-2,3.1028911E-3,1.6394647E-2,-5.206858E-4,-2.3145584E-2,-4.09422E-3,-3.622588E-2,-1.856094E-2,3.2134654E-3],"categories":[],"categories_nodes":[],"categories_segments":[],"categories_sizes":[],"default_left":[0,0,0,0,0,0,0,0,0,0,0,0,0,0,0],"id":51,"left_children":[1,3,5,7,9,11,13,-1,-1,-1,-1,-1,-1,-1,-1],"loss_changes":[8.0005394E1,7.309917E1,8.690226E1,4.70541E1,1.407356E2,8.43392E1,3.567842E1,0E0,0E0,0E0,0E0,0E0,0E0,0E0,0E0],"parents":[2147483647,0,0,1,1,2,2,3,3,4,4,5,5,6,6],"right_children":[2,4,6,8,10,12,14,-1,-1,-1,-1,-1,-1,-1,-1],"split_conditions":[1.451E3,-4.65E2,3E0,1.188E3,6.84E2,1E0,-1.237E3,3.1028911E-3,1.6394647E-2,-5.206858E-4,-2.3145584E-2,-4.09422E-3,-3.622588E-2,-1.856094E-2,3.2134654E-3],"split_indices":[4,5,1,4,4,8,5,0,0,0,0,0,0,0,0],"split_type":[0,0,0,0,0,0,0,0,0,0,0,0,0,0,0],"sum_hessian":[9.187642E3,8.490732E3,6.969096E2,1.3533419E3,7.13739E3,3.011143E2,3.9579532E2,1.0460366E3,3.0730536E2,6.8905396E3,2.4685062E2,1.3510521E2,1.6600906E2,7.496579E1,3.2082953E2],"tree_param":{"num_deleted":"0","num_feature":"14","num_nodes":"15","size_leaf_vector":"1"}},{"base_weights":[-1.7847262E-2,-3.1435687E-2,2.1243773E-2,-1.4139536E-1,3.5755828E-2,-4.445159E-2,-3.4180896E-3,1.1845755E-2,-6.2463555E-4],"categories":[],"categories_nodes":[],"categories_segments":[],"categories_sizes":[],"default_left":[0,0,0,0,0,0,0,0,0],"id":52,"left_children":[1,3,-1,5,7,-1,-1,-1,-1],"loss_changes":[9.206525E1,6.825697E1,0E0,1.2566596E2,1.1674284E2,0E0,0E0,0E0,0E0],"parents":[2147483647,0,0,1,1,3,3,4,4],"right_children":[2,4,-1,6,8,-1,-1,-1,-1],"split_conditions":[1E0,3E0,2.1243773E-2,-1.487E3,4E0,-4.445159E-2,-3.4180896E-3,1.1845755E-2,-6.2463555E-4],"split_indices":[13,0,0,5,0,0,0,0,0],"split_type":[0,0,0,0,0,0,0,0,0],"sum_hessian":[9.368704E3,9.207311E3,1.6139372E2,3.493689E3,5.713622E3,5.8774456E1,3.4349143E3,7.719329E2,4.941689E3],"tree_param":{"num_deleted":"0","num_feature":"14","num_nodes":"9","size_leaf_vector":"1"}},{"base_weights":[1.5500636E-3,-1.7697848E-1,6.155399E-2,-8.830007E-1,-1.3478093E-1,7.575275E-2,-5.77239E-1,-3.799194E-2,-1.2474001E-2,1.0524221E-2,-5.9349895E-3,1.2591259E-3,1.2193639E-2,-5.040283E-2,1.6714493E-2],"categories":[],"categories_nodes":[],"categories_segments":[],"categories_sizes":[],"default_left":[0,0,0,0,0,0,0,0,0,0,0,0,0,0,0],"id":53,"left_children":[1,3,5,7,9,11,13,-1,-1,-1,-1,-1,-1,-1,-1],"loss_changes":[1.0144062E2,6.87166E1,6.4328094E1,1.6539291E1,6.972092E1,7.7085175E1,2.0314766E2,0E0,0E0,0E0,0E0,0E0,0E0,0E0,0E0],"parents":[2147483647,0,0,1,1,2,2,3,3,4,4,5,5,6,6],"right_children":[2,4,6,8,10,12,14,-1,-1,-1,-1,-1,-1,-1,-1],"split_conditions":[1E0,-1.261E3,2.232E3,4E0,-7.67E2,1.261E3,3.233E3,-3.799194E-2,-1.2474001E-2,1.0524221E-2,-5.9349895E-3,1.2591259E-3,1.2193639E-2,-5.040283E-2,1.6714493E-2],"split_indices":[10,5,4,0,5,4,4,0,0,0,0,0,0,0,0],"split_type":[0,0,0,0,0,0,0,0,0,0,0,0,0,0,0],"sum_hessian":[9.460051E3,2.3706223E3,7.089428E3,1.21122795E2,2.2494995E3,6.945428E3,1.4399983E2,5.595671E1,6.5166084E1,2.5145442E2,1.998045E3,6.314665E3,6.307633E2,7.102253E1,7.297731E1],"tree_param":{"num_deleted":"0","num_feature":"14","num_nodes":"15","size_leaf_vector":"1"}},{"base_weights":[7.730363E-4,-1.9060126E-1,6.464169E-2,-4.0259784E-1,2.0570487E-2,1.0103565E-1,-1.2125434E-1,-2.462533E-2,-2.709764E-3,8.200355E-3,-1.1698731E-2,-7.181022E-4,6.34526E-3,2.6984018E-5,-1.1893024E-2],"categories":[],"categories_nodes":[],"categories_segments":[],"categories_sizes":[],"default_left":[0,0,0,0,0,0,0,0,0,0,0,0,0,0,0],"id":54,"left_children":[1,3,5,7,9,11,13,-1,-1,-1,-1,-1,-1,-1,-1],"loss_changes":[1.1501509E2,1.05815414E2,4.791278E1,1.5209674E2,1.2403025E2,8.196704E1,3.9292355E1,0E0,0E0,0E0,0E0,0E0,0E0,0E0,0E0],"parents":[2147483647,0,0,1,1,2,2,3,3,4,4,5,5,6,6],"right_children":[2,4,6,8,10,12,14,-1,-1,-1,-1,-1,-1,-1,-1],"split_conditions":[1E0,3E0,5E0,-3E0,4E0,3E0,3E0,-2.462533E-2,-2.709764E-3,8.200355E-3,-1.1698731E-2,-7.181022E-4,6.34526E-3,2.6984018E-5,-1.1893024E-2],"split_indices":[10,1,0,5,1,0,1,0,0,0,0,0,0,0,0],"split_type":[0,0,0,0,0,0,0,0,0,0,0,0,0,0,0],"sum_hessian":[9.400091E3,2.3432727E3,7.056818E3,1.1671921E3,1.1760807E3,5.909772E3,1.1470463E3,4.906049E2,6.765872E2,7.3147E2,4.4461072E2,2.7723445E3,3.1374275E3,7.987916E2,3.482546E2],"tree_param":{"num_deleted":"0","num_feature":"14","num_nodes":"15","size_leaf_vector":"1"}},{"base_weights":[-3.5445713E-3,4.9202484E-1,-2.3889521E-2,5.984543E-1,-2.8787388E-3,-1.5473616E-1,5.1559255E-2,1.2017754E-2,2.7693827E-2,-1.020655E-2,-9.3497394E-4,3.961293E-3,-4.4897567E-3],"categories":[],"categories_nodes":[],"categories_segments":[],"categories_sizes":[],"default_left":[0,0,0,0,0,0,0,0,0,0,0,0,0],"id":55,"left_children":[1,3,5,7,-1,9,11,-1,-1,-1,-1,-1,-1],"loss_changes":[9.372663E1,2.4010994E1,8.8780304E1,1.5094536E1,0E0,7.491993E1,9.240668E1,0E0,0E0,0E0,0E0,0E0,0E0],"parents":[2147483647,0,0,1,1,2,2,3,3,5,5,6,6],"right_children":[2,4,6,8,-1,10,12,-1,-1,-1,-1,-1,-1],"split_conditions":[2E0,6E0,3E0,0E0,-2.8787388E-3,-1.81E2,5E0,1.2017754E-2,2.7693827E-2,-1.020655E-2,-9.3497394E-4,3.961293E-3,-4.4897567E-3],"split_indices":[0,5,0,5,0,5,0,0,0,0,0,0,0],"split_type":[0,0,0,0,0,0,0,0,0,0,0,0,0],"sum_hessian":[9.320896E3,3.5648624E2,8.96441E3,3.0313846E2,5.3347786E1,3.279573E3,5.6848374E3,2.0414606E2,9.899241E1,1.3010459E3,1.9785271E3,4.0666506E3,1.6181868E3],"tree_param":{"num_deleted":"0","num_feature":"14","num_nodes":"13","size_leaf_vector":"1"}},{"base_weights":[-1.7289693E-2,5.351176E-1,-4.083938E-2,6.981455E-1,-4.130651E-3,-1.7363112E-1,3.5297733E-2,5.637602E-3,2.6478142E-2,-3.2678994E-3,-3.087848E-2,7.8765815E-3,-6.613424E-4],"categories":[],"categories_nodes":[],"categories_segments":[],"categories_sizes":[],"default_left":[0,0,0,0,0,0,0,0,0,0,0,0,0],"id":56,"left_children":[1,3,5,7,-1,9,11,-1,-1,-1,-1,-1,-1],"loss_changes":[1.2076125E2,4.3136375E1,9.0532684E1,2.6281189E1,0E0,1.783536E2,7.434602E1,0E0,0E0,0E0,0E0,0E0,0E0],"parents":[2147483647,0,0,1,1,2,2,3,3,5,5,6,6],"right_children":[2,4,6,8,-1,10,12,-1,-1,-1,-1,-1,-1],"split_conditions":[2E0,5.44E2,3E0,3E0,-4.130651E-3,1.491E3,-3.43E2,5.637602E-3,2.6478142E-2,-3.2678994E-3,-3.087848E-2,7.8765815E-3,-6.613424E-4],"split_indices":[0,4,0,1,0,4,5,0,0,0,0,0,0],"split_type":[0,0,0,0,0,0,0,0,0,0,0,0,0],"sum_hessian":[9.294083E3,3.693975E2,8.924686E3,2.9824042E2,7.115709E1,3.2524224E3,5.672263E3,8.599151E1,2.122489E2,3.035343E3,2.1707938E2,1.1391863E3,4.5330767E3],"tree_param":{"num_deleted":"0","num_feature":"14","num_nodes":"13","size_leaf_vector":"1"}},{"base_weights":[-7.6134945E-3,-2.2396566E-1,6.364536E-2,4.3752617E-1,-2.6384926E-1,8.1102535E-2,-3.129414E-2,2.5179475E-3,2.0902362E-2,-1.3644902E-2,-4.917702E-3,-1.5366242E-3,4.985131E-3],"categories":[],"categories_nodes":[],"categories_segments":[],"categories_sizes":[],"default_left":[0,0,0,0,0,0,0,0,0,0,0,0,0],"id":57,"left_children":[1,3,5,7,9,11,-1,-1,-1,-1,-1,-1,-1],"loss_changes":[1.4379205E2,6.196833E1,1.3524026E2,1.0897339E1,4.0388702E1,7.794829E1,0E0,0E0,0E0,0E0,0E0,0E0,0E0],"parents":[2147483647,0,0,1,1,2,2,3,3,4,4,5,5],"right_children":[2,4,6,8,10,12,-1,-1,-1,-1,-1,-1,-1],"split_conditions":[1E0,2E0,2.241E3,1E0,3E0,1E0,-3.129414E-2,2.5179475E-3,2.0902362E-2,-1.3644902E-2,-4.917702E-3,-1.5366242E-3,4.985131E-3],"split_indices":[10,0,4,9,0,4,0,0,0,0,0,0,0],"split_type":[0,0,0,0,0,0,0,0,0,0,0,0,0],"sum_hessian":[9.2972E3,2.301653E3,6.995547E3,1.23787895E2,2.177865E3,6.896933E3,9.861379E1,5.9593483E1,6.419441E1,7.3245483E2,1.4454103E3,2.6958242E3,4.2011084E3],"tree_param":{"num_deleted":"0","num_feature":"14","num_nodes":"13","size_leaf_vector":"1"}},{"base_weights":[-6.3342066E-3,6.1965655E-3,-6.597945E-1,-1.0467512E-1,7.6736756E-2,-3.6713984E-2,3.620072E-3,1.2795476E-2,-4.8600524E-3,4.184092E-3,-6.621482E-3],"categories":[],"categories_nodes":[],"categories_segments":[],"categories_sizes":[],"default_left":[0,0,0,0,0,0,0,0,0,0,0],"id":58,"left_children":[1,3,5,7,9,-1,-1,-1,-1,-1,-1],"loss_changes":[7.700047E1,7.162861E1,8.046212E1,1.0875249E2,1.0480823E2,0E0,0E0,0E0,0E0,0E0,0E0],"parents":[2147483647,0,0,1,1,2,2,3,3,4,4],"right_children":[2,4,6,8,10,-1,-1,-1,-1,-1,-1],"split_conditions":[2.241E3,3E0,3.233E3,2E0,4E0,-3.6713984E-2,3.620072E-3,1.2795476E-2,-4.8600524E-3,4.184092E-3,-6.621482E-3],"split_indices":[4,0,4,0,1,0,0,0,0,0,0],"split_type":[0,0,0,0,0,0,0,0,0,0,0],"sum_hessian":[9.308835E3,9.141904E3,1.6693054E2,3.547344E3,5.5945605E3,9.4349434E1,7.25811E1,3.3756906E2,3.2097751E3,4.6273276E3,9.6723285E2],"tree_param":{"num_deleted":"0","num_feature":"14","num_nodes":"11","size_leaf_vector":"1"}},{"base_weights":[3.055884E-2,-9.047064E-2,1.054758E-1,-4.6191506E-2,-6.8130225E-1,1.729169E-1,-6.2717885E-2,-3.0339535E-3,1.5558371E-2,-7.6696775E-3,-4.1362815E-2,1.1013406E-2,3.8729832E-3,1.2567694E-2,-5.949395E-3],"categories":[],"categories_nodes":[],"categories_segments":[],"categories_sizes":[],"default_left":[0,0,0,0,0,0,0,0,0,0,0,0,0,0,0],"id":59,"left_children":[1,3,5,7,9,11,13,-1,-1,-1,-1,-1,-1,-1,-1],"loss_changes":[8.666553E1,9.44483E1,6.7210945E1,1.0585465E2,6.970384E1,3.496012E1,1.1120586E2,0E0,0E0,0E0,0E0,0E0,0E0,0E0,0E0],"parents":[2147483647,0,0,1,1,2,2,3,3,4,4,5,5,6,6],"right_children":[2,4,6,8,10,12,14,-1,-1,-1,-1,-1,-1,-1,-1],"split_conditions":[3E0,1.491E3,5E0,1.174E3,1E0,4E0,1E0,-3.0339535E-3,1.5558371E-2,-7.6696775E-3,-4.1362815E-2,1.1013406E-2,3.8729832E-3,1.2567694E-2,-5.949395E-3],"split_indices":[0,4,0,4,9,0,1,0,0,0,0,0,0,0,0],"split_type":[0,0,0,0,0,0,0,0,0,0,0,0,0,0,0],"sum_hessian":[9.535998E3,3.6400378E3,5.8959604E3,3.3978635E3,2.4217432E2,4.2125195E3,1.6834413E3,3.1057383E3,2.9212512E2,1.597693E2,8.2405014E1,7.5772363E2,3.4547957E3,3.636102E2,1.319831E3],"tree_param":{"num_deleted":"0","num_feature":"14","num_nodes":"15","size_leaf_vector":"1"}},{"base_weights":[2.539939E-2,-9.686942E-2,1.0258769E-1,-5.1180494E-1,-6.091924E-2,-5.2930243E-2,2.2463591E-1,3.892115E-3,-3.9791975E-2,1.5680407E-3,-5.608331E-3,-5.43135E-3,1.1766193E-2,7.271023E-3,-7.471868E-3],"categories":[],"categories_nodes":[],"categories_segments":[],"categories_sizes":[],"default_left":[0,0,0,0,0,0,0,0,0,0,0,0,0,0,0],"id":60,"left_children":[1,3,5,7,9,11,13,-1,-1,-1,-1,-1,-1,-1,-1],"loss_changes":[9.0170425E1,5.4207596E1,1.1151517E2,1.549418E2,4.8907505E1,1.476971E2,2.8220459E1,0E0,0E0,0E0,0E0,0E0,0E0,0E0,0E0],"parents":[2147483647,0,0,1,1,2,2,3,3,4,4,5,5,6,6],"right_children":[2,4,6,8,10,12,14,-1,-1,-1,-1,-1,-1,-1,-1],"split_conditions":[1E0,-2E0,3E0,-7.19E2,5E0,4E0,8.9E1,3.892115E-3,-3.9791975E-2,1.5680407E-3,-5.608331E-3,-5.43135E-3,1.1766193E-2,7.271023E-3,-7.471868E-3],"split_indices":[4,5,0,5,0,1,5,0,0,0,0,0,0,0,0],"split_type":[0,0,0,0,0,0,0,0,0,0,0,0,0,0,0],"sum_hessian":[9.533123E3,3.6832417E3,5.8498813E3,2.809019E2,3.4023398E3,2.5711304E3,3.278751E3,1.611591E2,1.19742775E2,1.79137E3,1.6109698E3,2.0028654E3,5.6826514E2,3.167191E3,1.1156007E2],"tree_param":{"num_deleted":"0","num_feature":"14","num_nodes":"15","size_leaf_vector":"1"}},{"base_weights":[-2.549428E-2,-1.907538E-1,3.0407099E-2,-4.8937374E-1,-3.354016E-2,1.7072003E-2,7.489698E-1,-2.5616867E-2,-6.20257E-3,3.5059254E-3,-1.184593E-2,1.4299628E-3,-3.9928555E-3,2.7567819E-2,1.2239514E-2],"categories":[],"categories_nodes":[],"categories_segments":[],"categories_sizes":[],"default_left":[0,0,0,0,0,0,0,0,0,0,0,0,0,0,0],"id":61,"left_children":[1,3,5,7,9,11,13,-1,-1,-1,-1,-1,-1,-1,-1],"loss_changes":[8.558392E1,1.0924186E2,6.530802E1,8.007057E1,8.4805E1,3.1193438E1,2.126442E0,0E0,0E0,0E0,0E0,0E0,0E0,0E0,0E0],"parents":[2147483647,0,0,1,1,2,2,3,3,4,4,5,5,6,6],"right_children":[2,4,6,8,10,12,14,-1,-1,-1,-1,-1,-1,-1,-1],"split_conditions":[1E0,3E0,1E0,-9.8E1,5E0,5E0,-7.7E1,-2.5616867E-2,-6.20257E-3,3.5059254E-3,-1.184593E-2,1.4299628E-3,-3.9928555E-3,2.7567819E-2,1.2239514E-2],"split_indices":[10,0,13,5,0,0,5,0,0,0,0,0,0,0,0],"split_type":[0,0,0,0,0,0,0,0,0,0,0,0,0,0,0],"sum_hessian":[9.230462E3,2.3315469E3,6.898915E3,7.946527E2,1.5368943E3,6.7846353E3,1.1428008E2,3.3666907E2,4.5798367E2,1.088002E3,4.4889227E2,5.64755E3,1.1370851E3,6.2998154E1,5.128193E1],"tree_param":{"num_deleted":"0","num_feature":"14","num_nodes":"15","size_leaf_vector":"1"}},{"base_weights":[1.5280052E-2,-1.7817207E-1,7.805911E-2,-3.8132542E-1,-3.710046E-2,1.2192486E-1,-1.2299476E-1,-4.1545955E-3,-2.7404692E-2,2.117385E-3,-1.71022E-2,2.5219744E-4,6.618804E-3,-3.715715E-4,-1.9193111E-2],"categories":[],"categories_nodes":[],"categories_segments":[],"categories_sizes":[],"default_left":[0,0,0,0,0,0,0,0,0,0,0,0,0,0,0],"id":62,"left_children":[1,3,5,7,9,11,13,-1,-1,-1,-1,-1,-1,-1,-1],"loss_changes":[1.1456163E2,6.562953E1,6.303351E1,1.1948509E2,7.992952E1,6.543676E1,7.231612E1,0E0,0E0,0E0,0E0,0E0,0E0,0E0,0E0],"parents":[2147483647,0,0,1,1,2,2,3,3,4,4,5,5,6,6],"right_children":[2,4,6,8,10,12,14,-1,-1,-1,-1,-1,-1,-1,-1],"split_conditions":[1E0,2E0,1E0,1.01E2,4E0,1E0,1.511E3,-4.1545955E-3,-2.7404692E-2,2.117385E-3,-1.71022E-2,2.5219744E-4,6.618804E-3,-3.715715E-4,-1.9193111E-2],"split_indices":[10,1,8,4,6,4,4,0,0,0,0,0,0,0,0],"split_type":[0,0,0,0,0,0,0,0,0,0,0,0,0,0,0],"sum_hessian":[9.419814E3,2.2995374E3,7.1202773E3,9.325206E2,1.3670167E3,5.8523306E3,1.2679468E3,6.5026917E2,2.8225146E2,1.1429072E3,2.2410945E2,2.7316316E3,3.120699E3,1.0544338E3,2.1351297E2],"tree_param":{"num_deleted":"0","num_feature":"14","num_nodes":"15","size_leaf_vector":"1"}},{"base_weights":[-3.5968926E-4,-1.1737526E-2,6.129144E-1,-2.3530057E-1,1.0969285E-2,2.2410482E-2,8.133666E-3,-3.8203467E-3,-4.5395095E-2,2.9161945E-2,1.3193838E-5],"categories":[],"categories_nodes":[],"categories_segments":[],"categories_sizes":[],"default_left":[0,0,0,0,0,0,0,0,0,0,0],"id":63,"left_children":[1,3,5,7,9,-1,-1,-1,-1,-1,-1],"loss_changes":[6.44291E1,4.6705437E1,4.6638756E0,1.1345494E2,8.314895E1,0E0,0E0,0E0,0E0,0E0,0E0],"parents":[2147483647,0,0,1,1,2,2,3,3,4,4],"right_children":[2,4,6,8,10,-1,-1,-1,-1,-1,-1],"split_conditions":[1E0,-1.098E3,-1.3E1,-1.148E3,-1.07E3,2.2410482E-2,8.133666E-3,-3.8203467E-3,-4.5395095E-2,2.9161945E-2,1.3193838E-5],"split_indices":[13,5,5,5,5,0,0,0,0,0,0],"split_type":[0,0,0,0,0,0,0,0,0,0,0],"sum_hessian":[9.299376E3,9.141222E3,1.5815434E2,8.3827576E2,8.302946E3,1.02971886E2,5.518246E1,7.8383563E2,5.4440132E1,7.905358E1,8.223893E3],"tree_param":{"num_deleted":"0","num_feature":"14","num_nodes":"11","size_leaf_vector":"1"}},{"base_weights":[-2.2559866E-2,4.8969597E-2,-1.9041827E-1,-3.6834207E-4,3.1943637E-1,-0E0,-6.8722945E-1,1.9749602E-2,-4.2241957E-4,1.8381815E-2,5.0257547E-3,-1.2594043E-2,4.008028E-3,-2.8468093E-2,-1.0861577E-2],"categories":[],"categories_nodes":[],"categories_segments":[],"categories_sizes":[],"default_left":[0,0,0,0,0,0,0,0,0,0,0,0,0,0,0],"id":64,"left_children":[1,3,5,7,9,11,13,-1,-1,-1,-1,-1,-1,-1,-1],"loss_changes":[1.1152141E2,8.7097E1,2.628863E2,4.9184326E1,4.303163E1,1.13503716E2,6.0758057E1,0E0,0E0,0E0,0E0,0E0,0E0,0E0,0E0],"parents":[2147483647,0,0,1,1,2,2,3,3,4,4,5,5,6,6],"right_children":[2,4,6,8,10,12,14,-1,-1,-1,-1,-1,-1,-1,-1],"split_conditions":[2.15E2,1E0,1E0,1E0,1E1,1E0,1.188E3,1.9749602E-2,-4.2241957E-4,1.8381815E-2,5.0257547E-3,-1.2594043E-2,4.008028E-3,-2.8468093E-2,-1.0861577E-2],"split_indices":[4,9,9,0,4,10,4,0,0,0,0,0,0,0,0],"split_type":[0,0,0,0,0,0,0,0,0,0,0,0,0,0,0],"sum_hessian":[9.258623E3,6.4929214E3,2.765702E3,5.4965435E3,9.9637805E2,2.0059731E3,7.5972864E2,1.0101749E2,5.395526E3,3.2738577E2,6.6899225E2,4.783175E2,1.5276556E3,4.0861337E2,3.5111526E2],"tree_param":{"num_deleted":"0","num_feature":"14","num_nodes":"15","size_leaf_vector":"1"}},{"base_weights":[-2.092851E-2,-1.8777137E-1,3.4801874E-2,-8.18962E-1,-1.4958763E-1,5.2275494E-2,-5.380829E-1,-3.8602848E-2,-9.336976E-3,-1.5769099E-3,-1.7771972E-2,1.9402867E-3,-2.1340314E-2,-2.8873963E-2,9.8146405E-3],"categories":[],"categories_nodes":[],"categories_segments":[],"categories_sizes":[],"default_left":[0,0,0,0,0,0,0,0,0,0,0,0,0,0,0],"id":65,"left_children":[1,3,5,7,9,11,13,-1,-1,-1,-1,-1,-1,-1,-1],"loss_changes":[8.6181885E1,5.374446E1,6.920941E1,2.4957916E1,9.366165E1,6.3635246E1,7.884993E1,0E0,0E0,0E0,0E0,0E0,0E0,0E0,0E0],"parents":[2147483647,0,0,1,1,2,2,3,3,4,4,5,5,6,6],"right_children":[2,4,6,8,10,12,14,-1,-1,-1,-1,-1,-1,-1,-1],"split_conditions":[1E0,-1.261E3,2.094E3,3E0,4E0,2E0,3.233E3,-3.8602848E-2,-9.336976E-3,-1.5769099E-3,-1.7771972E-2,1.9402867E-3,-2.1340314E-2,-2.8873963E-2,9.8146405E-3],"split_indices":[10,5,4,1,1,5,4,0,0,0,0,0,0,0,0],"split_type":[0,0,0,0,0,0,0,0,0,0,0,0,0,0,0],"sum_hessian":[9.235168E3,2.3109656E3,6.9242026E3,1.1866827E2,2.192297E3,6.72977E3,1.9443236E2,5.2751926E1,6.5916336E1,1.8093071E3,3.829901E2,6.6325244E3,9.724575E1,1.304709E2,6.396145E1],"tree_param":{"num_deleted":"0","num_feature":"14","num_nodes":"15","size_leaf_vector":"1"}},{"base_weights":[8.4808925E-3,-1.2394442E-1,8.9751676E-2,-3.3444542E-1,2.5467603E-3,1.5684003E-1,-7.4732676E-2,-3.458457E-3,-3.2121375E-2,1.1302784E-2,-2.1600504E-3,5.9172017E-3,-1.2470543E-3,1.068794E-2,-5.803426E-3],"categories":[],"categories_nodes":[],"categories_segments":[],"categories_sizes":[],"default_left":[0,0,0,0,0,0,0,0,0,0,0,0,0,0,0],"id":66,"left_children":[1,3,5,7,9,11,13,-1,-1,-1,-1,-1,-1,-1,-1],"loss_changes":[1.0097168E2,9.526012E1,6.442244E1,2.1398734E2,6.2890404E1,3.3434067E1,8.6921814E1,0E0,0E0,0E0,0E0,0E0,0E0,0E0,0E0],"parents":[2147483647,0,0,1,1,2,2,3,3,4,4,5,5,6,6],"right_children":[2,4,6,8,10,12,14,-1,-1,-1,-1,-1,-1,-1,-1],"split_conditions":[3E0,-1.81E2,5E0,-4.5E2,-7.7E1,1E0,1E0,-3.458457E-3,-3.2121375E-2,1.1302784E-2,-2.1600504E-3,5.9172017E-3,-1.2470543E-3,1.068794E-2,-5.803426E-3],"split_indices":[0,5,0,5,5,8,1,0,0,0,0,0,0,0,0],"split_type":[0,0,0,0,0,0,0,0,0,0,0,0,0,0,0],"sum_hessian":[9.3648125E3,3.5548562E3,5.809956E3,1.3311241E3,2.2237322E3,4.1314165E3,1.6785393E3,1.0357407E3,2.953834E2,3.649016E2,1.8588306E3,3.4367273E3,6.9468933E2,3.5635382E2,1.3221854E3],"tree_param":{"num_deleted":"0","num_feature":"14","num_nodes":"15","size_leaf_vector":"1"}},{"base_weights":[-9.246996E-3,-1.9281706E-1,5.1730935E-2,-1.0200908E-1,-5.8785063E-1,-8.3199376E-1,6.659166E-2,-1.289379E-2,4.0477756E-3,-1.0519094E-2,-3.1589344E-2,-1.3034662E-2,-3.2872647E-2,4.892419E-4,7.8058755E-3],"categories":[],"categories_nodes":[],"categories_segments":[],"categories_sizes":[],"default_left":[0,0,0,0,0,0,0,0,0,0,0,0,0,0,0],"id":67,"left_children":[1,3,5,7,9,11,13,-1,-1,-1,-1,-1,-1,-1,-1],"loss_changes":[1.0428617E2,8.2073944E1,9.1469574E1,1.487229E2,4.2370224E1,5.7746124E0,6.661963E1,0E0,0E0,0E0,0E0,0E0,0E0,0E0,0E0],"parents":[2147483647,0,0,1,1,2,2,3,3,4,4,5,5,6,6],"right_children":[2,4,6,8,10,12,14,-1,-1,-1,-1,-1,-1,-1,-1],"split_conditions":[1E0,5E0,1E0,3E0,4E0,2E0,4E0,-1.289379E-2,4.0477756E-3,-1.0519094E-2,-3.1589344E-2,-1.3034662E-2,-3.2872647E-2,4.892419E-4,7.8058755E-3],"split_indices":[10,0,11,0,1,1,1,0,0,0,0,0,0,0,0],"split_type":[0,0,0,0,0,0,0,0,0,0,0,0,0,0,0],"sum_hessian":[9.284973E3,2.3139016E3,6.971071E3,1.8937024E3,4.2019934E2,1.0508054E2,6.86599E3,7.928824E2,1.10082E3,2.9131677E2,1.2888257E2,5.3985313E1,5.1095226E1,5.4631006E3,1.4028893E3],"tree_param":{"num_deleted":"0","num_feature":"14","num_nodes":"15","size_leaf_vector":"1"}},{"base_weights":[-1.1918209E-2,-1.4565413E-1,3.3235334E-2,-8.227878E-1,-1.06020845E-1,-5.7699274E-2,9.134856E-2,-3.6072258E-2,-1.1579854E-2,1.1456141E-2,-6.064815E-3,-3.9286683E-3,6.5366062E-3,4.646658E-3,-2.3069927E-3],"categories":[],"categories_nodes":[],"categories_segments":[],"categories_sizes":[],"default_left":[0,0,0,0,0,0,0,0,0,0,0,0,0,0,0],"id":68,"left_children":[1,3,5,7,9,11,13,-1,-1,-1,-1,-1,-1,-1,-1],"loss_changes":[5.6237415E1,6.130346E1,3.6786583E1,1.485302E1,1.05391785E2,5.4852596E1,4.56069E1,0E0,0E0,0E0,0E0,0E0,0E0,0E0,0E0],"parents":[2147483647,0,0,1,1,2,2,3,3,4,4,5,5,6,6],"right_children":[2,4,6,8,10,12,14,-1,-1,-1,-1,-1,-1,-1,-1],"split_conditions":[1E0,-1.261E3,3E0,4E0,-4.95E2,4E0,5E0,-3.6072258E-2,-1.1579854E-2,1.1456141E-2,-6.064815E-3,-3.9286683E-3,6.5366062E-3,4.646658E-3,-2.3069927E-3],"split_indices":[10,5,0,0,5,1,0,0,0,0,0,0,0,0,0],"split_type":[0,0,0,0,0,0,0,0,0,0,0,0,0,0,0],"sum_hessian":[9.276278E3,2.3414004E3,6.934878E3,1.171452E2,2.2242551E3,2.697203E3,4.2376753E3,5.2071663E1,6.507354E1,3.595383E2,1.8647168E3,2.1378074E3,5.593955E2,3.0808936E3,1.1567815E3],"tree_param":{"num_deleted":"0","num_feature":"14","num_nodes":"15","size_leaf_vector":"1"}},{"base_weights":[-4.5685977E-4,-1.8900105E-1,6.0875505E-2,-8.192306E-1,-1.185721E-1,1.895696E-2,2.2351666E-1,-3.7546642E-2,6.751016E-3,2.7502798E-2,-5.8330954E-3,2.5064433E-3,-3.881207E-3,-1.4650277E-3,1.2193065E-2],"categories":[],"categories_nodes":[],"categories_segments":[],"categories_sizes":[],"default_left":[0,0,0,0,0,0,0,0,0,0,0,0,0,0,0],"id":69,"left_children":[1,3,5,7,9,11,13,-1,-1,-1,-1,-1,-1,-1,-1],"loss_changes":[1.0778976E2,9.969954E1,4.7582397E1,1.0631793E2,1.6382089E2,5.3696774E1,7.194261E1,0E0,0E0,0E0,0E0,0E0,0E0,0E0,0E0],"parents":[2147483647,0,0,1,1,2,2,3,3,4,4,5,5,6,6],"right_children":[2,4,6,8,10,12,14,-1,-1,-1,-1,-1,-1,-1,-1],"split_conditions":[1E0,-9.6E2,4E0,4E0,-7.67E2,3E0,2E0,-3.7546642E-2,6.751016E-3,2.7502798E-2,-5.8330954E-3,2.5064433E-3,-3.881207E-3,-1.4650277E-3,1.2193065E-2],"split_indices":[10,5,1,1,5,1,4,0,0,0,0,0,0,0,0],"split_type":[0,0,0,0,0,0,0,0,0,0,0,0,0,0,0],"sum_hessian":[9.29023E3,2.2791858E3,7.0110444E3,2.1698537E2,2.0622004E3,5.588101E3,1.4229431E3,1.5272853E2,6.4256836E1,1.3232465E2,1.9298757E3,3.900654E3,1.687447E3,5.724605E2,8.5048254E2],"tree_param":{"num_deleted":"0","num_feature":"14","num_nodes":"15","size_leaf_vector":"1"}},{"base_weights":[-2.8807783E-2,4.5061174E-1,-4.7744166E-2,6.289979E-1,-9.138116E-3,-2.0578057E-1,3.813153E-3,7.1772365E-3,2.3130259E-2,-1.6132966E-2,-1.6826433E-3,5.3855183E-4,-1.9732025E-2],"categories":[],"categories_nodes":[],"categories_segments":[],"categories_sizes":[],"default_left":[0,0,0,0,0,0,0,0,0,0,0,0,0],"id":70,"left_children":[1,3,5,7,-1,9,11,-1,-1,-1,-1,-1,-1],"loss_changes":[8.305434E1,4.9036552E1,7.217083E1,1.293763E1,0E0,1.07314995E2,6.181219E1,0E0,0E0,0E0,0E0,0E0,0E0],"parents":[2147483647,0,0,1,1,2,2,3,3,5,5,6,6],"right_children":[2,4,6,8,-1,10,12,-1,-1,-1,-1,-1,-1],"split_conditions":[2E0,5.44E2,1E0,3E0,-9.138116E-3,3E0,2.232E3,7.1772365E-3,2.3130259E-2,-1.6132966E-2,-1.6826433E-3,5.3855183E-4,-1.9732025E-2],"split_indices":[0,4,10,1,0,0,4,0,0,0,0,0,0],"split_type":[0,0,0,0,0,0,0,0,0,0,0,0,0],"sum_hessian":[9.159171E3,3.3735895E2,8.8218125E3,2.753218E2,6.2037155E1,2.1674636E3,6.654348E3,8.2575874E1,1.9274593E2,6.6345685E2,1.5040068E3,6.526113E3,1.282357E2],"tree_param":{"num_deleted":"0","num_feature":"14","num_nodes":"13","size_leaf_vector":"1"}},{"base_weights":[4.9499314E-2,5.96928E-2,-5.6697106E-1,5.1899254E-1,4.3348245E-2,-1.0578985E-3,-3.55759E-2,1.9843709E-3,2.0423632E-2,-2.1229615E-3,3.3097854E-3],"categories":[],"categories_nodes":[],"categories_segments":[],"categories_sizes":[],"default_left":[0,0,0,0,0,0,0,0,0,0,0],"id":71,"left_children":[1,3,5,7,9,-1,-1,-1,-1,-1,-1],"loss_changes":[5.9533714E1,6.9455055E1,4.9004105E1,2.2139893E1,6.927495E1,0E0,0E0,0E0,0E0,0E0,0E0],"parents":[2147483647,0,0,1,1,2,2,3,3,4,4],"right_children":[2,4,6,8,10,-1,-1,-1,-1,-1,-1],"split_conditions":[8.9E1,2E0,3E0,3E0,3E0,-1.0578985E-3,-3.55759E-2,1.9843709E-3,2.0423632E-2,-2.1229615E-3,3.3097854E-3],"split_indices":[5,0,1,1,0,0,0,0,0,0,0],"split_type":[0,0,0,0,0,0,0,0,0,0,0],"sum_hessian":[9.490754E3,9.346855E3,1.4389864E2,3.085156E2,9.03834E3,8.39556E1,5.994304E1,8.654755E1,2.2196806E2,3.3371597E3,5.70118E3],"tree_param":{"num_deleted":"0","num_feature":"14","num_nodes":"11","size_leaf_vector":"1"}},{"base_weights":[-5.0534904E-3,-1.8729544E-1,5.361623E-2,-4.404347E-1,-5.657503E-2,4.318838E-2,2.0448525E-2,1.7261416E-2,-1.5976088E-2,1.4628785E-2,-4.794587E-3,2.2821687E-3,-3.0512563E-3],"categories":[],"categories_nodes":[],"categories_segments":[],"categories_sizes":[],"default_left":[0,0,0,0,0,0,0,0,0,0,0,0,0],"id":72,"left_children":[1,3,5,7,9,11,-1,-1,-1,-1,-1,-1,-1],"loss_changes":[9.9573654E1,7.433672E1,4.5030807E1,7.493175E1,8.5314644E1,3.3068363E1,0E0,0E0,0E0,0E0,0E0,0E0,0E0],"parents":[2147483647,0,0,1,1,2,2,3,3,4,4,5,5],"right_children":[2,4,6,8,10,12,-1,-1,-1,-1,-1,-1,-1],"split_conditions":[1E0,3E0,1E0,1E0,4E0,1E0,2.0448525E-2,1.7261416E-2,-1.5976088E-2,1.4628785E-2,-4.794587E-3,2.2821687E-3,-3.0512563E-3],"split_indices":[10,0,13,3,0,8,0,0,0,0,0,0,0],"split_type":[0,0,0,0,0,0,0,0,0,0,0,0,0],"sum_hessian":[9.280944E3,2.2590195E3,7.021925E3,7.5861786E2,1.5004016E3,6.9193105E3,1.02613884E2,5.7799557E1,7.008183E2,2.3177922E2,1.2686224E3,5.64895E3,1.2703606E3],"tree_param":{"num_deleted":"0","num_feature":"14","num_nodes":"13","size_leaf_vector":"1"}},{"base_weights":[-4.2247926E-3,4.1222203E-1,-2.0804912E-2,6.199959E-1,-3.7913579E-3,-1.5873146E-1,5.5667073E-2,2.5463728E-3,2.3013242E-2,-3.5413275E-3,-1.9858629E-2,3.9108777E-3,-4.102543E-3],"categories":[],"categories_nodes":[],"categories_segments":[],"categories_sizes":[],"default_left":[0,0,0,0,0,0,0,0,0,0,0,0,0],"id":73,"left_children":[1,3,5,7,-1,9,11,-1,-1,-1,-1,-1,-1],"loss_changes":[6.375226E1,4.0824215E1,9.442286E1,1.881105E1,0E0,6.3831825E1,8.281754E1,0E0,0E0,0E0,0E0,0E0,0E0],"parents":[2147483647,0,0,1,1,2,2,3,3,5,5,6,6],"right_children":[2,4,6,8,-1,10,12,-1,-1,-1,-1,-1,-1],"split_conditions":[2E0,3E2,3E0,7E0,-3.7913579E-3,1.491E3,5E0,2.5463728E-3,2.3013242E-2,-3.5413275E-3,-1.9858629E-2,3.9108777E-3,-4.102543E-3],"split_indices":[0,4,0,4,0,4,0,0,0,0,0,0,0],"split_type":[0,0,0,0,0,0,0,0,0,0,0,0,0],"sum_hessian":[9.267385E3,3.4339185E2,8.923993E3,2.4804857E2,9.5343285E1,3.1838506E3,5.7401426E3,5.835415E1,1.8969443E2,2.9589434E3,2.2490721E2,4.141041E3,1.5991013E3],"tree_param":{"num_deleted":"0","num_feature":"14","num_nodes":"13","size_leaf_vector":"1"}},{"base_weights":[3.211964E-3,4.1221663E-2,-2.1809776E-1,-7.626422E-2,1.399927E-1,-8.8339716E-1,-1.6125454E-2,-1.684844E-2,-1.062506E-3,2.1710473E-3,1.145551E-2,-1.3606445E-2,-3.6447145E-2,1.03416275E-2,-5.87798E-3],"categories":[],"categories_nodes":[],"categories_segments":[],"categories_sizes":[],"default_left":[0,0,0,0,0,0,0,0,0,0,0,0,0,0,0],"id":74,"left_children":[1,3,5,7,9,11,13,-1,-1,-1,-1,-1,-1,-1,-1],"loss_changes":[7.868642E1,9.305247E1,1.8309253E2,7.171686E1,7.0523346E1,3.810553E1,6.946757E1,0E0,0E0,0E0,0E0,0E0,0E0,0E0,0E0],"parents":[2147483647,0,0,1,1,2,2,3,3,4,4,5,5,6,6],"right_children":[2,4,6,8,10,12,14,-1,-1,-1,-1,-1,-1,-1,-1],"split_conditions":[7.34E2,1E0,1.174E3,-2E0,-3E0,8.59E2,1.451E3,-1.684844E-2,-1.062506E-3,2.1710473E-3,1.145551E-2,-1.3606445E-2,-3.6447145E-2,1.03416275E-2,-5.87798E-3],"split_indices":[4,4,4,5,5,4,4,0,0,0,0,0,0,0,0],"split_type":[0,0,0,0,0,0,0,0,0,0,0,0,0,0,0],"sum_hessian":[9.3545E3,7.9941665E3,1.3603334E3,3.647593E3,4.3465737E3,3.077875E2,1.0525459E3,2.7135587E2,3.376237E3,3.410195E3,9.363788E2,1.4564066E2,1.6214687E2,3.4514926E2,7.0739655E2],"tree_param":{"num_deleted":"0","num_feature":"14","num_nodes":"15","size_leaf_vector":"1"}},{"base_weights":[9.33023E-3,5.0436847E-2,-1.9073132E-1,1.6141787E-2,1.996589E-1,-2.9889372E-1,8.254591E-3,1.6441058E-3,-3.5143415E-3,3.5400225E-3,1.2356942E-2,-4.1029416E-3,-1.2962874E-2],"categories":[],"categories_nodes":[],"categories_segments":[],"categories_sizes":[],"default_left":[0,0,0,0,0,0,0,0,0,0,0,0,0],"id":75,"left_children":[1,3,5,7,9,11,-1,-1,-1,-1,-1,-1,-1],"loss_changes":[7.67837E1,3.9473526E1,8.098228E1,3.260864E1,2.4013012E1,2.6853851E1,0E0,0E0,0E0,0E0,0E0,0E0,0E0],"parents":[2147483647,0,0,1,1,2,2,3,3,4,4,5,5],"right_children":[2,4,6,8,10,12,-1,-1,-1,-1,-1,-1,-1],"split_conditions":[4E0,4E0,1E0,1E0,1E0,2E0,8.254591E-3,1.6441058E-3,-3.5143415E-3,3.5400225E-3,1.2356942E-2,-4.1029416E-3,-1.2962874E-2],"split_indices":[6,1,2,9,9,1,0,0,0,0,0,0,0],"split_type":[0,0,0,0,0,0,0,0,0,0,0,0,0],"sum_hessian":[9.332067E3,7.7517866E3,1.580281E3,6.3176187E3,1.4341678E3,1.2871741E3,2.9310693E2,4.9075127E3,1.4101063E3,1.0503293E3,3.8383847E2,5.9307666E2,6.940975E2],"tree_param":{"num_deleted":"0","num_feature":"14","num_nodes":"13","size_leaf_vector":"1"}},{"base_weights":[3.8826615E-2,4.7275808E-1,2.1240242E-2,6.602644E-1,-1.1409049E-2,5.4826777E-2,-1.3490923E-1,6.227039E-3,2.2555668E-2,3.5389976E-3,-2.3671247E-3,-6.485362E-3,7.1973335E-3],"categories":[],"categories_nodes":[],"categories_segments":[],"categories_sizes":[],"default_left":[0,0,0,0,0,0,0,0,0,0,0,0,0],"id":76,"left_children":[1,3,5,7,-1,9,11,-1,-1,-1,-1,-1,-1],"loss_changes":[7.155841E1,6.1266502E1,4.7715343E1,1.009787E1,0E0,6.3468246E1,4.948766E1,0E0,0E0,0E0,0E0,0E0,0E0],"parents":[2147483647,0,0,1,1,2,2,3,3,5,5,6,6],"right_children":[2,4,6,8,-1,10,12,-1,-1,-1,-1,-1,-1],"split_conditions":[2E0,5.44E2,5E0,4E0,-1.1409049E-2,3.36E2,1E0,6.227039E-3,2.2555668E-2,3.5389976E-3,-2.3671247E-3,-6.485362E-3,7.1973335E-3],"split_indices":[0,4,0,4,0,4,2,0,0,0,0,0,0],"split_type":[0,0,0,0,0,0,0,0,0,0,0,0,0],"sum_hessian":[9.444877E3,3.5557715E2,9.0893E3,2.9431723E2,6.1259926E1,7.4909478E3,1.5983517E3,5.6860504E1,2.3745671E2,5.094353E3,2.3965947E3,1.3192162E3,2.7913544E2],"tree_param":{"num_deleted":"0","num_feature":"14","num_nodes":"13","size_leaf_vector":"1"}},{"base_weights":[1.8751148E-2,4.4598706E-2,-3.3637574E-1,2.2357285E-2,5.954997E-1,-1.2555169E0,-5.374053E-2,1.4257763E-3,-1.8526327E-2,2.2064496E-2,3.8544585E-3,-2.3055216E-2,-4.6521455E-2,6.0936827E-3,-2.0472156E-2],"categories":[],"categories_nodes":[],"categories_segments":[],"categories_sizes":[],"default_left":[0,0,0,0,0,0,0,0,0,0,0,0,0,0,0],"id":77,"left_children":[1,3,5,7,9,11,13,-1,-1,-1,-1,-1,-1,-1,-1],"loss_changes":[8.555162E1,1.0601654E2,1.621801E2,1.3481093E2,2.0157654E1,6.945511E0,8.1732544E1,0E0,0E0,0E0,0E0,0E0,0E0,0E0,0E0],"parents":[2147483647,0,0,1,1,2,2,3,3,4,4,5,5,6,6],"right_children":[2,4,6,8,10,12,14,-1,-1,-1,-1,-1,-1,-1,-1],"split_conditions":[1.491E3,1.261E3,-1.198E3,8.36E2,4E0,1E0,2.307E3,1.4257763E-3,-1.8526327E-2,2.2064496E-2,3.8544585E-3,-2.3055216E-2,-4.6521455E-2,6.0936827E-3,-2.0472156E-2],"split_indices":[4,4,5,4,0,10,4,0,0,0,0,0,0,0,0],"split_type":[0,0,0,0,0,0,0,0,0,0,0,0,0,0,0],"sum_hessian":[9.325642E3,8.703711E3,6.219309E2,8.377701E3,3.2601025E2,1.3733899E2,4.8459192E2,8.0710693E3,3.0663113E2,2.4475719E2,8.1253075E1,6.67077E1,7.0631294E1,3.4770358E2,1.3688834E2],"tree_param":{"num_deleted":"0","num_feature":"14","num_nodes":"15","size_leaf_vector":"1"}},{"base_weights":[2.8539393E-2,4.4309035E-2,-8.0425036E-1,-1.14960164E-1,9.588626E-2,-4.478803E-2,-3.039497E-1,1.2801192E-3,-1.6385108E-2,1.2632154E-3,8.831816E-3,-3.7412946E-3,-1.2278947E-2],"categories":[],"categories_nodes":[],"categories_segments":[],"categories_sizes":[],"default_left":[0,0,0,0,0,0,0,0,0,0,0,0,0],"id":78,"left_children":[1,3,5,7,9,-1,11,-1,-1,-1,-1,-1,-1],"loss_changes":[1.2320796E2,7.606174E1,5.3708015E1,1.5449536E2,7.422655E1,0E0,1.1145058E0,0E0,0E0,0E0,0E0,0E0,0E0],"parents":[2147483647,0,0,1,1,2,2,3,3,4,4,6,6],"right_children":[2,4,6,8,10,-1,12,-1,-1,-1,-1,-1,-1],"split_conditions":[2.232E3,1E0,3E0,2.15E2,4E0,-4.478803E-2,-1.12E2,1.2801192E-3,-1.6385108E-2,1.2632154E-3,8.831816E-3,-3.7412946E-3,-1.2278947E-2],"split_indices":[4,10,1,4,1,0,5,0,0,0,0,0,0],"split_type":[0,0,0,0,0,0,0,0,0,0,0,0,0],"sum_hessian":[9.402433E3,9.238168E3,1.6426448E2,2.2520903E3,6.986077E3,5.9929527E1,1.0433495E2,1.6541133E3,5.979772E2,5.5103804E3,1.4756967E3,5.0220303E1,5.411465E1],"tree_param":{"num_deleted":"0","num_feature":"14","num_nodes":"13","size_leaf_vector":"1"}},{"base_weights":[1.7471772E-2,4.1734953E-3,6.763684E-1,4.3520406E-2,-8.4067956E-2,5.488875E-3,2.5363807E-2,-1.5968228E-3,5.2677034E-3,-2.539789E-2,-8.170342E-4],"categories":[],"categories_nodes":[],"categories_segments":[],"categories_sizes":[],"default_left":[0,0,0,0,0,0,0,0,0,0,0],"id":79,"left_children":[1,3,5,7,9,-1,-1,-1,-1,-1,-1],"loss_changes":[8.102792E1,3.1783659E1,1.2692238E1,8.130617E1,1.2106239E2,0E0,0E0,0E0,0E0,0E0,0E0],"parents":[2147483647,0,0,1,1,2,2,3,3,4,4],"right_children":[2,4,6,8,10,-1,-1,-1,-1,-1,-1],"split_conditions":[1E0,2.07E2,3E0,1E0,2.87E2,5.488875E-3,2.5363807E-2,-1.5968228E-3,5.2677034E-3,-2.539789E-2,-8.170342E-4],"split_indices":[13,4,1,4,4,0,0,0,0,0,0],"split_type":[0,0,0,0,0,0,0,0,0,0,0],"sum_hessian":[9.318342E3,9.145346E3,1.7299622E2,6.33636E3,2.8089856E3,5.0977966E1,1.2201824E2,3.6563176E3,2.680042E3,1.8398073E2,2.625005E3],"tree_param":{"num_deleted":"0","num_feature":"14","num_nodes":"11","size_leaf_vector":"1"}},{"base_weights":[2.5637137E-2,-1.2428339E-1,7.455286E-2,1.8772325E-2,-1.5387906E-1,8.577536E-2,-5.1639074E-1,-3.7839701E-3,-2.2835113E-2,1.1530117E-2,1.9712301E-3,-3.0203303E-2,5.020626E-3],"categories":[],"categories_nodes":[],"categories_segments":[],"categories_sizes":[],"default_left":[0,0,0,0,0,0,0,0,0,0,0,0,0],"id":80,"left_children":[1,3,5,-1,7,9,11,-1,-1,-1,-1,-1,-1],"loss_changes":[6.907672E1,5.1868237E1,4.715813E1,0E0,3.5829773E1,4.1158016E1,4.6868618E1,0E0,0E0,0E0,0E0,0E0,0E0],"parents":[2147483647,0,0,1,1,2,2,4,4,5,5,6,6],"right_children":[2,4,6,-1,8,10,12,-1,-1,-1,-1,-1,-1],"split_conditions":[1E0,1E0,2.241E3,1.8772325E-2,1E0,2E0,3.233E3,-3.7839701E-3,-2.2835113E-2,1.1530117E-2,1.9712301E-3,-3.0203303E-2,5.020626E-3],"split_indices":[10,0,4,0,5,3,4,0,0,0,0,0,0],"split_type":[0,0,0,0,0,0,0,0,0,0,0,0,0],"sum_hessian":[9.403523E3,2.3045417E3,7.0989814E3,7.855461E1,2.2259873E3,6.9767285E3,1.2225305E2,2.141851E3,8.413608E1,4.248321E2,6.551896E3,6.929345E1,5.29596E1],"tree_param":{"num_deleted":"0","num_feature":"14","num_nodes":"13","size_leaf_vector":"1"}},{"base_weights":[2.239697E-2,1.2320951E-2,6.100767E-1,2.849496E-2,-2.1762201E-1,9.922076E-3,2.2753913E-2,7.2094335E-5,1.69954E-2,-3.5162415E-2,5.5020833E-3],"categories":[],"categories_nodes":[],"categories_segments":[],"categories_sizes":[],"default_left":[0,0,0,0,0,0,0,0,0,0,0],"id":81,"left_children":[1,3,5,7,9,-1,-1,-1,-1,-1,-1],"loss_changes":[5.4891068E1,3.42421E1,2.8836174E0,1.20801186E2,2.3447981E2,0E0,0E0,0E0,0E0,0E0,0E0],"parents":[2147483647,0,0,1,1,2,2,3,3,4,4],"right_children":[2,4,6,8,10,-1,-1,-1,-1,-1,-1],"split_conditions":[1E0,1.539E3,1.27E2,1.261E3,2E0,9.922076E-3,2.2753913E-2,7.2094335E-5,1.69954E-2,-3.5162415E-2,5.5020833E-3],"split_indices":[13,4,4,4,1,0,0,0,0,0,0],"split_type":[0,0,0,0,0,0,0,0,0,0,0],"sum_hessian":[9.377637E3,9.231273E3,1.4636285E2,8.636872E3,5.944012E2,6.431561E1,8.204725E1,8.248743E3,3.8812888E2,1.7090514E2,4.2349606E2],"tree_param":{"num_deleted":"0","num_feature":"14","num_nodes":"11","size_leaf_vector":"1"}},{"base_weights":[1.7485913E-2,-1.1398654E-1,6.0697187E-2,-5.833959E-1,-5.590725E-2,1.277759E-2,2.4155524E-1,-3.1517338E-2,-4.343964E-3,2.9796507E-2,-3.4003775E-3,2.1271722E-3,-3.6664146E-3,1.611077E-2,5.0644022E-3],"categories":[],"categories_nodes":[],"categories_segments":[],"categories_sizes":[],"default_left":[0,0,0,0,0,0,0,0,0,0,0,0,0,0,0],"id":82,"left_children":[1,3,5,7,9,11,13,-1,-1,-1,-1,-1,-1,-1,-1],"loss_changes":[5.295603E1,6.1818214E1,6.0604584E1,4.863356E1,1.2451998E2,4.3734814E1,2.9911057E1,0E0,0E0,0E0,0E0,0E0,0E0,0E0,0E0],"parents":[2147483647,0,0,1,1,2,2,3,3,4,4,5,5,6,6],"right_children":[2,4,6,8,10,12,14,-1,-1,-1,-1,-1,-1,-1,-1],"split_conditions":[1E0,-9.17E2,4E0,3E0,-7.67E2,3E0,-7.67E2,-3.1517338E-2,-4.343964E-3,2.9796507E-2,-3.4003775E-3,2.1271722E-3,-3.6664146E-3,1.611077E-2,5.0644022E-3],"split_indices":[10,5,1,1,5,1,5,0,0,0,0,0,0,0,0],"split_type":[0,0,0,0,0,0,0,0,0,0,0,0,0,0,0],"sum_hessian":[9.308653E3,2.2928926E3,7.0157607E3,2.4060501E2,2.0522876E3,5.55908E3,1.456681E3,1.08645515E2,1.3195949E2,9.716835E1,1.9551193E3,3.8943176E3,1.6647623E3,2.7244833E2,1.1842327E3],"tree_param":{"num_deleted":"0","num_feature":"14","num_nodes":"15","size_leaf_vector":"1"}},{"base_weights":[-2.211251E-2,2.2744851E-2,-2.4496163E-1,-9.647936E-2,1.2548432E-1,-8.025522E-2,-2.8126046E-1,-1.756103E-3,-1.7770773E-2,4.53272E-3,-5.8311573E-3,6.2274043E-3,-7.5537274E-3,-1.2649008E-2,-6.6753416E-3],"categories":[],"categories_nodes":[],"categories_segments":[],"categories_sizes":[],"default_left":[0,0,0,0,0,0,0,0,0,0,0,0,0,0,0],"id":83,"left_children":[1,3,5,7,9,11,13,-1,-1,-1,-1,-1,-1,-1,-1],"loss_changes":[9.2412E1,9.419509E1,8.673393E0,6.588802E1,3.409974E1,1.5314282E1,8.810814E0,0E0,0E0,0E0,0E0,0E0,0E0,0E0,0E0],"parents":[2147483647,0,0,1,1,2,2,3,3,4,4,5,5,6,6],"right_children":[2,4,6,8,10,12,14,-1,-1,-1,-1,-1,-1,-1,-1],"split_conditions":[5E0,3E0,1E0,1.491E3,1.665E3,1E0,1E0,-1.756103E-3,-1.7770773E-2,4.53272E-3,-5.8311573E-3,6.2274043E-3,-7.5537274E-3,-1.2649008E-2,-6.6753416E-3],"split_indices":[0,0,1,4,4,10,10,0,0,0,0,0,0,0,0],"split_type":[0,0,0,0,0,0,0,0,0,0,0,0,0,0,0],"sum_hessian":[9.206704E3,7.667752E3,1.5389518E3,3.5449194E3,4.1228325E3,2.8868744E2,1.2502644E3,3.3052156E3,2.3970378E2,3.82502E3,2.9781235E2,1.0483847E2,1.8384897E2,3.4563205E2,9.046324E2],"tree_param":{"num_deleted":"0","num_feature":"14","num_nodes":"15","size_leaf_vector":"1"}},{"base_weights":[2.4834724E-2,4.73034E-1,6.965979E-3,1.7841422E-3,6.229013E-1,-2.1339845E-2,1.2347488E-2,2.2372654E-2,3.6161672E-3,7.514957E-4,-8.945111E-3],"categories":[],"categories_nodes":[],"categories_segments":[],"categories_sizes":[],"default_left":[0,0,0,0,0,0,0,0,0,0,0],"id":84,"left_children":[1,3,5,-1,7,-1,9,-1,-1,-1,-1],"loss_changes":[7.465956E1,2.1109138E1,3.4328075E1,0E0,1.4258301E1,0E0,3.52322E1,0E0,0E0,0E0,0E0],"parents":[2147483647,0,0,1,1,2,2,4,4,6,6],"right_children":[2,4,6,-1,8,-1,10,-1,-1,-1,-1],"split_conditions":[2E0,3E0,-3.029E3,1.7841422E-3,2E0,-2.1339845E-2,1E0,2.2372654E-2,3.6161672E-3,7.514957E-4,-8.945111E-3],"split_indices":[0,1,5,0,5,0,5,0,0,0,0],"split_type":[0,0,0,0,0,0,0,0,0,0,0],"sum_hessian":[9.376287E3,3.475691E2,9.028718E3,9.794055E1,2.4962854E2,5.6003902E1,8.972714E3,1.9508463E2,5.4543922E1,8.632018E3,3.4069662E2],"tree_param":{"num_deleted":"0","num_feature":"14","num_nodes":"11","size_leaf_vector":"1"}},{"base_weights":[-3.8312848E-3,-1.0686893E-1,6.0528863E-2,-1.2813671E-1,1.6828876E-2,-6.7356676E-2,1.6145466E-1,-1.806826E-2,-2.5489377E-3,5.033173E-3,-6.301749E-3,2.2978194E-2,4.1767955E-3],"categories":[],"categories_nodes":[],"categories_segments":[],"categories_sizes":[],"default_left":[0,0,0,0,0,0,0,0,0,0,0,0,0],"id":85,"left_children":[1,3,5,7,-1,9,11,-1,-1,-1,-1,-1,-1],"loss_changes":[6.1471436E1,5.0950123E1,7.371792E1,6.9760254E1,0E0,8.4781944E1,4.0901245E1,0E0,0E0,0E0,0E0,0E0,0E0],"parents":[2147483647,0,0,1,1,2,2,3,3,5,5,6,6],"right_children":[2,4,6,8,-1,10,12,-1,-1,-1,-1,-1,-1],"split_conditions":[1E0,1E0,3E0,-1E0,1.6828876E-2,1.37E2,-2.777E3,-1.806826E-2,-2.5489377E-3,5.033173E-3,-6.301749E-3,2.2978194E-2,4.1767955E-3],"split_indices":[4,9,0,5,0,4,5,0,0,0,0,0,0],"split_type":[0,0,0,0,0,0,0,0,0,0,0,0,0],"sum_hessian":[9.242845E3,3.5570706E3,5.685774E3,3.456571E3,1.0049937E2,2.50502E3,3.180754E3,2.7572693E2,3.1808442E3,9.4280237E2,1.5622177E3,9.9351814E1,3.081402E3],"tree_param":{"num_deleted":"0","num_feature":"14","num_nodes":"13","size_leaf_vector":"1"}},{"base_weights":[2.772567E-2,5.010913E-2,-2.9459068E-1,2.5501234E-2,5.898868E-1,-8.765122E-1,-1.3565512E-1,1.45908E-3,-2.196062E-2,1.3096458E-3,2.2992704E-2,-4.882951E-3,-4.05516E-2,-1.7506076E-2,2.087976E-3],"categories":[],"categories_nodes":[],"categories_segments":[],"categories_sizes":[],"default_left":[0,0,0,0,0,0,0,0,0,0,0,0,0,0,0],"id":86,"left_children":[1,3,5,7,9,11,13,-1,-1,-1,-1,-1,-1,-1,-1],"loss_changes":[6.755672E1,1.1585565E2,5.398368E1,1.4704642E2,3.5555664E1,3.940918E1,4.599684E1,0E0,0E0,0E0,0E0,0E0,0E0,0E0,0E0],"parents":[2147483647,0,0,1,1,2,2,3,3,4,4,5,5,6,6],"right_children":[2,4,6,8,10,12,14,-1,-1,-1,-1,-1,-1,-1,-1],"split_conditions":[1.511E3,1.261E3,-1.237E3,8.74E2,1E0,-1.459E3,2E0,1.45908E-3,-2.196062E-2,1.3096458E-3,2.2992704E-2,-4.882951E-3,-4.05516E-2,-1.7506076E-2,2.087976E-3],"split_indices":[4,4,5,4,1,5,1,0,0,0,0,0,0,0,0],"split_type":[0,0,0,0,0,0,0,0,0,0,0,0,0,0,0],"sum_hessian":[9.367375E3,8.769893E3,5.974828E2,8.399302E3,3.705903E2,1.17142006E2,4.803408E2,8.16075E3,2.3855176E2,9.494699E1,2.756433E2,5.3026836E1,6.411517E1,1.4669125E2,3.3364954E2],"tree_param":{"num_deleted":"0","num_feature":"14","num_nodes":"15","size_leaf_vector":"1"}},{"base_weights":[5.552146E-4,-1.3263583E-1,5.3540852E-2,-3.6540333E-2,-6.52094E-1,4.196856E-1,4.0738783E-3,-2.1987923E-3,1.689469E-2,-3.9127216E-2,-8.2011325E-3,1.4558548E-2,-5.9332396E-3,2.0834643E-3,-5.234473E-3],"categories":[],"categories_nodes":[],"categories_segments":[],"categories_sizes":[],"default_left":[0,0,0,0,0,0,0,0,0,0,0,0,0,0,0],"id":87,"left_children":[1,3,5,7,9,11,13,-1,-1,-1,-1,-1,-1,-1,-1],"loss_changes":[6.569514E1,1.3121202E2,1.2041991E2,4.9428238E1,9.637509E1,3.3316025E1,6.878495E1,0E0,0E0,0E0,0E0,0E0,0E0,0E0,0E0],"parents":[2147483647,0,0,1,1,2,2,3,3,4,4,5,5,6,6],"right_children":[2,4,6,8,10,12,14,-1,-1,-1,-1,-1,-1,-1,-1],"split_conditions":[-1.76E2,-3.43E2,-7.7E1,-3.56E2,-2.53E2,1E0,4E0,-2.1987923E-3,1.689469E-2,-3.9127216E-2,-8.2011325E-3,1.4558548E-2,-5.9332396E-3,2.0834643E-3,-5.234473E-3],"split_indices":[5,5,5,5,5,8,6,0,0,0,0,0,0,0,0],"split_type":[0,0,0,0,0,0,0,0,0,0,0,0,0,0,0],"sum_hessian":[9.300081E3,2.6371414E3,6.6629395E3,2.2361082E3,4.010331E2,7.81723E2,5.881217E3,2.1168228E3,1.1928533E2,1.3738426E2,2.6364886E2,7.1004736E2,7.167568E1,4.3135903E3,1.5676265E3],"tree_param":{"num_deleted":"0","num_feature":"14","num_nodes":"15","size_leaf_vector":"1"}},{"base_weights":[-1.9260265E-2,1.3020472E-2,-1.7433457E-1,-5.7837322E-2,7.665524E-2,-6.451433E-2,-5.000734E-1,-2.346071E-3,1.3426183E-2,