{"learner": {"attributes": {"best_iteration": "30", "best_score": "0.635229946030721", "scikit_learn": "{\"_estimator_type\": \"classifier\"}"}, "feature_names": ["tenure_months", "mobility_3yr", "firm_rep_count_at_contact", "firm_net_change_12mo", "is_wirehouse", "is_broker_protocol", "has_email", "has_linkedin", "has_firm_data", "mobility_x_heavy_bleeding", "short_tenure_x_high_mobility", "experience_years", "tenure_bucket_encoded", "mobility_tier_encoded", "firm_stability_tier_encoded", "is_recent_mover", "days_since_last_move", "firm_departures_corrected", "bleeding_velocity_encoded", "is_independent_ria", "is_ia_rep_type", "is_dual_registered", "age_bucket_encoded"], "feature_types": ["int", "int", "int", "int", "int", "int", "int", "int", "int", "int", "int", "float", "int", "int", "int", "int", "int", "int", "int", "int", "int", "int", "int"], "gradient_booster": {"model": {"cats": {"enc": [], "feature_segments": [], "sorted_idx": []}, "gbtree_model_param": {"num_parallel_tree": "1", "num_trees": "181"}, "iteration_indptr": [0, 1, 2, 3, 4, 5, 6, 7, 8, 9, 10, 11, 12, 13, 14, 15, 16, 17, 18, 19, 20, 21, 22, 23, 24, 25, 26, 27, 28, 29, 30, 31, 32, 33, 34, 35, 36, 37, 38, 39, 40, 41, 42, 43, 44, 45, 46, 47, 48, 49, 50, 51, 52, 53, 54, 55, 56, 57, 58, 59, 60, 61, 62, 63, 64, 65, 66, 67, 68, 69, 70, 71, 72, 73, 74, 75, 76, 77, 78, 79, 80, 81, 82, 83, 84, 85, 86, 87, 88, 89, 90, 91, 92, 93, 94, 95, 96, 97, 98, 99, 100, 101, 102, 103, 104, 105, 106, 107, 108, 109, 110, 111, 112, 113, 114, 115, 116, 117, 118, 119, 120, 121, 122, 123, 124, 125, 126, 127, 128, 129, 130, 131, 132, 133, 134, 135, 136, 137, 138, 139, 140, 141, 142, 143, 144, 145, 146, 147, 148, 149, 150, 151, 152, 153, 154, 155, 156, 157, 158, 159, 160, 161, 162, 163, 164, 165, 166, 167, 168, 169, 170, 171, 172, 173, 174, 175, 176, 177, 178, 179, 180, 181], "tree_info": [0, 0, 0, 0, 0, 0, 0, 0, 0, 0, 0, 0, 0, 0, 0, 0, 0, 0, 0, 0, 0, 0, 0, 0, 0, 0, 0, 0, 0, 0, 0, 0, 0, 0, 0, 0, 0, 0, 0, 0, 0, 0, 0, 0, 0, 0, 0, 0, 0, 0, 0, 0, 0, 0, 0, 0, 0, 0, 0, 0, 0, 0, 0, 0, 0, 0, 0, 0, 0, 0, 0, 0, 0, 0, 0, 0, 0, 0, 0, 0, 0, 0, 0, 0, 0, 0, 0, 0, 0, 0, 0, 0, 0, 0, 0, 0, 0, 0, 0, 0, 0, 0, 0, 0, 0, 0, 0, 0, 0, 0, 0, 0, 0, 0, 0, 0, 0, 0, 0, 0, 0, 0, 0, 0, 0, 0, 0, 0, 0, 0, 0, 0, 0, 0, 0, 0, 0, 0, 0, 0, 0, 0, 0, 0, 0, 0, 0, 0, 0, 0, 0, 0, 0, 0, 0, 0, 0, 0, 0, 0, 0, 0, 0, 0, 0, 0, 0, 0, 0, 0, 0, 0, 0, 0, 0, 0, 0, 0, 0, 0, 0], "trees": [{"base_weights": [-0.09438913, 0.10716699, -0.5455814, -0.003993908, 0.002972587, -0.005890476, 0.011454545], "categories": [], "categories_nodes": [], "categories_segments": [], "categories_sizes": [], "default_left": [0, 0, 0, 0, 0, 0, 0], "id": 0, "left_children": [1, 3, 5, -1, -1, -1, -1], "loss_changes": [633.24506, 463.68225, 160.84857, 0.0, 0.0, 0.0, 0.0], "parents": [2147483647, 0, 0, 1, 1, 2, 2], "right_children": [2, 4, 6, -1, -1, -1, -1], "split_conditions": [129.0, 1.0, 1663.0, -0.003993908, 0.002972587, -0.005890476, 0.011454545], "split_indices": [0, 8, 17, 0, 0, 0, 0], "split_type": [0, 0, 0, 0, 0, 0, 0], "sum_hessian": [6950.25, 4805.25, 2145.0, 1308.25, 3497.0, 2095.0, 50.0], "tree_param": {"num_deleted": "0", "num_feature": "23", "num_nodes": "7", "size_leaf_vector": "1"}}, {"base_weights": [0.015609084, 0.45286095, -0.3926358, 0.0026062066, 0.0095897885, -0.009575171, -0.0020087743], "categories": [], "categories_nodes": [], "categories_segments": [], "categories_sizes": [], "default_left": [0, 0, 0, 0, 0, 0, 0], "id": 1, "left_children": [1, 3, 5, -1, -1, -1, -1], "loss_changes": [1309.4802, 342.25055, 408.6833, 0.0, 0.0, 0.0, 0.0], "parents": [2147483647, 0, 0, 1, 1, 2, 2], "right_children": [2, 4, 6, -1, -1, -1, -1], "split_conditions": [4.0, 5139.0, 1.0, 0.0026062066, 0.0095897885, -0.009575171, -0.0020087743], "split_indices": [12, 16, 6, 0, 0, 0, 0], "split_type": [0, 0, 0, 0, 0, 0, 0], "sum_hessian": [7325.466, 3537.9922, 3787.4736, 2570.9944, 966.99786, 953.4934, 2833.9802], "tree_param": {"num_deleted": "0", "num_feature": "23", "num_nodes": "7", "size_leaf_vector": "1"}}, {"base_weights": [-0.01755399, -0.15823816, 0.6288296, 0.0026508612, -0.0038571276, -0.00022577864, 0.008554168], "categories": [], "categories_nodes": [], "categories_segments": [], "categories_sizes": [], "default_left": [0, 0, 0, 0, 0, 0, 0], "id": 2, "left_children": [1, 3, 5, -1, -1, -1, -1], "loss_changes": [659.095, 574.303, 192.10254, 0.0, 0.0, 0.0, 0.0], "parents": [2147483647, 0, 0, 1, 1, 2, 2], "right_children": [2, 4, 6, -1, -1, -1, -1], "split_conditions": [9999.0, 1581.0, 1.4166666, 0.0026508612, -0.0038571276, -0.00022577864, 0.008554168], "split_indices": [16, 16, 11, 0, 0, 0, 0], "split_type": [0, 0, 0, 0, 0, 0, 0], "sum_hessian": [7242.608, 5952.402, 1290.2059, 2078.7256, 3873.6763, 332.99088, 957.2151], "tree_param": {"num_deleted": "0", "num_feature": "23", "num_nodes": "7", "size_leaf_vector": "1"}}, {"base_weights": [-0.05153522, 0.36262983, -0.42412904, 0.0017789113, 0.0087100705, -0.005326431, -0.00093279546], "categories": [], "categories_nodes": [], "categories_segments": [], "categories_sizes": [], "default_left": [0, 0, 0, 0, 0, 0, 0], "id": 3, "left_children": [1, 3, 5, -1, -1, -1, -1], "loss_changes": [1099.9033, 315.08838, 133.86035, 0.0, 0.0, 0.0, 0.0], "parents": [2147483647, 0, 0, 1, 1, 2, 2], "right_children": [2, 4, 6, -1, -1, -1, -1], "split_conditions": [4.0, 5139.0, 1.0, 0.0017789113, 0.0087100705, -0.005326431, -0.00093279546], "split_indices": [12, 16, 19, 0, 0, 0, 0], "split_type": [0, 0, 0, 0, 0, 0, 0], "sum_hessian": [7117.2524, 3369.3855, 3747.8667, 2477.7244, 891.66125, 2817.6458, 930.221], "tree_param": {"num_deleted": "0", "num_feature": "23", "num_nodes": "7", "size_leaf_vector": "1"}}, {"base_weights": [0.013654733, 0.43003416, -0.37105593, 0.002441563, 0.009508552, -0.010419114, -0.0015437106], "categories": [], "categories_nodes": [], "categories_segments": [], "categories_sizes": [], "default_left": [0, 0, 0, 0, 0, 0, 0], "id": 4, "left_children": [1, 3, 5, -1, -1, -1, -1], "loss_changes": [1176.4634, 339.1881, 552.71124, 0.0, 0.0, 0.0, 0.0], "parents": [2147483647, 0, 0, 1, 1, 2, 2], "right_children": [2, 4, 6, -1, -1, -1, -1], "split_conditions": [4.0, 9971.0, 1.0, 0.002441563, 0.009508552, -0.010419114, -0.0015437106], "split_indices": [12, 16, 6, 0, 0, 0, 0], "split_type": [0, 0, 0, 0, 0, 0, 0], "sum_hessian": [7334.0283, 3523.0146, 3811.0134, 2603.2092, 919.80554, 924.64844, 2886.365], "tree_param": {"num_deleted": "0", "num_feature": "23", "num_nodes": "7", "size_leaf_vector": "1"}}, {"base_weights": [0.020826591, -0.44591853, 0.1761816, -0.0016478829, -0.012521252, 0.0010009881, 0.010860669], "categories": [], "categories_nodes": [], "categories_segments": [], "categories_sizes": [], "default_left": [0, 0, 0, 0, 0, 0, 0], "id": 5, "left_children": [1, 3, 5, -1, -1, -1, -1], "loss_changes": [533.4043, 413.77332, 380.6125, 0.0, 0.0, 0.0, 0.0], "parents": [2147483647, 0, 0, 1, 1, 2, 2], "right_children": [2, 4, 6, -1, -1, -1, -1], "split_conditions": [1.0, 136.0, 1.0, -0.0016478829, -0.012521252, 0.0010009881, 0.010860669], "split_indices": [6, 0, 13, 0, 0, 0, 0], "split_type": [0, 0, 0, 0, 0, 0, 0], "sum_hessian": [7349.4683, 1831.4155, 5518.0527, 1363.289, 468.12656, 5098.3853, 419.66754], "tree_param": {"num_deleted": "0", "num_feature": "23", "num_nodes": "7", "size_leaf_vector": "1"}}, {"base_weights": [0.010148482, 0.41740388, -0.3617172, 0.0025982584, 0.008806002, -0.0047730417, 0.0010859274], "categories": [], "categories_nodes": [], "categories_segments": [], "categories_sizes": [], "default_left": [0, 0, 0, 0, 0, 0, 0], "id": 6, "left_children": [1, 3, 5, -1, -1, -1, -1], "loss_changes": [1095.7217, 249.84369, 206.1417, 0.0, 0.0, 0.0, 0.0], "parents": [2147483647, 0, 0, 1, 1, 2, 2], "right_children": [2, 4, 6, -1, -1, -1, -1], "split_conditions": [4.0, 9255.0, 1.0, 0.0025982584, 0.008806002, -0.0047730417, 0.0010859274], "split_indices": [12, 16, 20, 0, 0, 0, 0], "split_type": [0, 0, 0, 0, 0, 0, 0], "sum_hessian": [7224.7935, 3449.3035, 3775.49, 2581.163, 868.1404, 3032.3005, 743.18933], "tree_param": {"num_deleted": "0", "num_feature": "23", "num_nodes": "7", "size_leaf_vector": "1"}}, {"base_weights": [-0.035596754, 0.17623083, -0.49683645, -0.0036965094, 0.0037459387, -0.0005094253, -0.0077732443], "categories": [], "categories_nodes": [], "categories_segments": [], "categories_sizes": [], "default_left": [0, 0, 0, 0, 0, 0, 0], "id": 7, "left_children": [1, 3, 5, -1, -1, -1, -1], "loss_changes": [699.2587, 531.4354, 280.72534, 0.0, 0.0, 0.0, 0.0], "parents": [2147483647, 0, 0, 1, 1, 2, 2], "right_children": [2, 4, 6, -1, -1, -1, -1], "split_conditions": [126.0, 1.0, 1.0, -0.0036965094, 0.0037459387, -0.0005094253, -0.0077732443], "split_indices": [0, 8, 21, 0, 0, 0, 0], "split_type": [0, 0, 0, 0, 0, 0, 0], "sum_hessian": [7144.199, 4896.4097, 2247.7893, 1302.5421, 3593.8677, 871.62836, 1376.161], "tree_param": {"num_deleted": "0", "num_feature": "23", "num_nodes": "7", "size_leaf_vector": "1"}}, {"base_weights": [-0.03955854, 0.39804, -0.45607704, 0.0023238808, 0.008903354, -0.008722469, -0.0030608044], "categories": [], "categories_nodes": [], "categories_segments": [], "categories_sizes": [], "default_left": [0, 0, 0, 0, 0, 0, 0], "id": 8, "left_children": [1, 3, 5, -1, -1, -1, -1], "loss_changes": [1291.0631, 279.4477, 224.0774, 0.0, 0.0, 0.0, 0.0], "parents": [2147483647, 0, 0, 1, 1, 2, 2], "right_children": [2, 4, 6, -1, -1, -1, -1], "split_conditions": [4.0, 9971.0, 1.0, 0.0023238808, 0.008903354, -0.008722469, -0.0030608044], "split_indices": [12, 16, 6, 0, 0, 0, 0], "split_type": [0, 0, 0, 0, 0, 0, 0], "sum_hessian": [7073.0293, 3448.169, 3624.86, 2587.0479, 861.121, 952.203, 2672.6572], "tree_param": {"num_deleted": "0", "num_feature": "23", "num_nodes": "7", "size_leaf_vector": "1"}}, {"base_weights": [0.025157997, 0.43035978, -0.35351643, 0.0084860725, 0.0023034797, -0.0029163125, -0.016587945], "categories": [], "categories_nodes": [], "categories_segments": [], "categories_sizes": [], "default_left": [0, 0, 0, 0, 0, 0, 0], "id": 9, "left_children": [1, 3, 5, -1, -1, -1, -1], "loss_changes": [1133.0404, 296.43, 303.85583, 0.0, 0.0, 0.0, 0.0], "parents": [2147483647, 0, 0, 1, 1, 2, 2], "right_children": [2, 4, 6, -1, -1, -1, -1], "split_conditions": [4.0, 52.0, 1482.0, 0.0084860725, 0.0023034797, -0.0029163125, -0.016587945], "split_indices": [12, 0, 2, 0, 0, 0, 0], "split_type": [0, 0, 0, 0, 0, 0, 0], "sum_hessian": [7373.821, 3563.087, 3810.734, 1145.8241, 2417.2627, 3644.8113, 165.92274], "tree_param": {"num_deleted": "0", "num_feature": "23", "num_nodes": "7", "size_leaf_vector": "1"}}, {"base_weights": [0.026826283, 0.43232036, -0.3503543, 0.001573055, 0.0052828197, -0.0075736707, -0.0020128584], "categories": [], "categories_nodes": [], "categories_segments": [], "categories_sizes": [], "default_left": [0, 0, 0, 0, 0, 0, 0], "id": 10, "left_children": [1, 3, 5, -1, -1, -1, -1], "loss_changes": [1119.464, 92.010864, 228.27371, 0.0, 0.0, 0.0, 0.0], "parents": [2147483647, 0, 0, 1, 1, 2, 2], "right_children": [2, 4, 6, -1, -1, -1, -1], "split_conditions": [4.0, 1.0, 1.0, 0.001573055, 0.0052828197, -0.0075736707, -0.0020128584], "split_indices": [12, 6, 6, 0, 0, 0, 0], "split_type": [0, 0, 0, 0, 0, 0, 0], "sum_hessian": [7308.926, 3523.187, 3785.7388, 917.463, 2605.724, 1007.57367, 2778.165], "tree_param": {"num_deleted": "0", "num_feature": "23", "num_nodes": "7", "size_leaf_vector": "1"}}, {"base_weights": [0.0173741, 0.43173137, -0.3730819, 0.0025501964, 0.008974245, -0.00764254, -0.002419037], "categories": [], "categories_nodes": [], "categories_segments": [], "categories_sizes": [], "default_left": [0, 0, 0, 0, 0, 0, 0], "id": 11, "left_children": [1, 3, 5, -1, -1, -1, -1], "loss_changes": [1179.0328, 288.73474, 190.52777, 0.0, 0.0, 0.0, 0.0], "parents": [2147483647, 0, 0, 1, 1, 2, 2], "right_children": [2, 4, 6, -1, -1, -1, -1], "split_conditions": [4.0, 5139.0, -176.0, 0.0025501964, 0.008974245, -0.00764254, -0.002419037], "split_indices": [12, 16, 3, 0, 0, 0, 0], "split_type": [0, 0, 0, 0, 0, 0, 0], "sum_hessian": [7277.1646, 3531.51, 3745.6545, 2567.234, 964.27625, 932.67444, 2812.9802], "tree_param": {"num_deleted": "0", "num_feature": "23", "num_nodes": "7", "size_leaf_vector": "1"}}, {"base_weights": [-0.0, 0.3848713, -0.34870157, 0.0022263296, 0.008415832, -0.0022239909, -0.007398802], "categories": [], "categories_nodes": [], "categories_segments": [], "categories_sizes": [], "default_left": [0, 0, 0, 0, 0, 0, 0], "id": 12, "left_children": [1, 3, 5, -1, -1, -1, -1], "loss_changes": [972.91345, 253.38379, 186.09106, 0.0, 0.0, 0.0, 0.0], "parents": [2147483647, 0, 0, 1, 1, 2, 2], "right_children": [2, 4, 6, -1, -1, -1, -1], "split_conditions": [4.0, 9255.0, 220.0, 0.0022263296, 0.008415832, -0.0022239909, -0.007398802], "split_indices": [12, 16, 17, 0, 0, 0, 0], "split_type": [0, 0, 0, 0, 0, 0, 0], "sum_hessian": [7239.3003, 3441.6663, 3797.6343, 2546.6453, 895.021, 2878.6003, 919.0339], "tree_param": {"num_deleted": "0", "num_feature": "23", "num_nodes": "7", "size_leaf_vector": "1"}}, {"base_weights": [-0.015530913, 0.38754582, -0.38795212, 0.0021844518, 0.008575122, -0.003443627, -0.015561764], "categories": [], "categories_nodes": [], "categories_segments": [], "categories_sizes": [], "default_left": [0, 0, 0, 0, 0, 0, 0], "id": 13, "left_children": [1, 3, 5, -1, -1, -1, -1], "loss_changes": [1074.7272, 271.13098, 184.9721, 0.0, 0.0, 0.0, 0.0], "parents": [2147483647, 0, 0, 1, 1, 2, 2], "right_children": [2, 4, 6, -1, -1, -1, -1], "split_conditions": [4.0, 9255.0, 288.0, 0.0021844518, 0.008575122, -0.003443627, -0.015561764], "split_indices": [12, 16, 0, 0, 0, 0, 0], "split_type": [0, 0, 0, 0, 0, 0, 0], "sum_hessian": [7149.38, 3431.995, 3717.385, 2530.821, 901.17395, 3590.7354, 126.649605], "tree_param": {"num_deleted": "0", "num_feature": "23", "num_nodes": "7", "size_leaf_vector": "1"}}, {"base_weights": [-0.029777046, 0.32582083, -0.34594557, 0.010653755, 0.0024533682, -1.6143902e-05, -0.0060666166], "categories": [], "categories_nodes": [], "categories_segments": [], "categories_sizes": [], "default_left": [0, 0, 0, 0, 0, 0, 0], "id": 14, "left_children": [1, 3, 5, -1, -1, -1, -1], "loss_changes": [804.17395, 197.6807, 339.3962, 0.0, 0.0, 0.0, 0.0], "parents": [2147483647, 0, 0, 1, 1, 2, 2], "right_children": [2, 4, 6, -1, -1, -1, -1], "split_conditions": [4.0, 2.0, 1.0, 0.010653755, 0.0024533682, -1.6143902e-05, -0.0060666166], "split_indices": [12, 12, 21, 0, 0, 0, 0], "split_type": [0, 0, 0, 0, 0, 0, 0], "sum_hessian": [7142.544, 3360.0955, 3782.4482, 322.55737, 3037.538, 1633.6852, 2148.7632], "tree_param": {"num_deleted": "0", "num_feature": "23", "num_nodes": "7", "size_leaf_vector": "1"}}, {"base_weights": [0.06580001, 0.43201944, -0.27891916, 0.002883343, 0.008504475, -0.006737527, -0.001366964], "categories": [], "categories_nodes": [], "categories_segments": [], "categories_sizes": [], "default_left": [0, 0, 0, 0, 0, 0, 0], "id": 15, "left_children": [1, 3, 5, -1, -1, -1, -1], "loss_changes": [953.66815, 217.88293, 217.1633, 0.0, 0.0, 0.0, 0.0], "parents": [2147483647, 0, 0, 1, 1, 2, 2], "right_children": [2, 4, 6, -1, -1, -1, -1], "split_conditions": [4.0, 5139.0, 1.0, 0.002883343, 0.008504475, -0.006737527, -0.001366964], "split_indices": [12, 16, 6, 0, 0, 0, 0], "split_type": [0, 0, 0, 0, 0, 0, 0], "sum_hessian": [7543.249, 3658.3552, 3884.8936, 2731.2869, 927.0685, 1021.9834, 2862.9102], "tree_param": {"num_deleted": "0", "num_feature": "23", "num_nodes": "7", "size_leaf_vector": "1"}}, {"base_weights": [0.029995488, 0.40844792, -0.32270873, 0.0076215127, 0.0019491352, -0.0026243033, -0.014381802], "categories": [], "categories_nodes": [], "categories_segments": [], "categories_sizes": [], "default_left": [0, 0, 0, 0, 0, 0, 0], "id": 16, "left_children": [1, 3, 5, -1, -1, -1, -1], "loss_changes": [979.23413, 265.65015, 251.63434, 0.0, 0.0, 0.0, 0.0], "parents": [2147483647, 0, 0, 1, 1, 2, 2], "right_children": [2, 4, 6, -1, -1, -1, -1], "split_conditions": [4.0, 58.0, 1451.0, 0.0076215127, 0.0019491352, -0.0026243033, -0.014381802], "split_indices": [12, 0, 2, 0, 0, 0, 0], "split_type": [0, 0, 0, 0, 0, 0, 0], "sum_hessian": [7325.509, 3534.7544, 3790.7546, 1324.0454, 2210.709, 3603.1204, 187.63434], "tree_param": {"num_deleted": "0", "num_feature": "23", "num_nodes": "7", "size_leaf_vector": "1"}}, {"base_weights": [0.03732023, 0.44035733, -0.35432118, -0.0025064733, 0.0053488784, -0.009182344, -0.0016919961], "categories": [], "categories_nodes": [], "categories_segments": [], "categories_sizes": [], "default_left": [0, 0, 0, 0, 0, 0, 0], "id": 17, "left_children": [1, 3, 5, -1, -1, -1, -1], "loss_changes": [1160.1294, 237.61035, 387.134, 0.0, 0.0, 0.0, 0.0], "parents": [2147483647, 0, 0, 1, 1, 2, 2], "right_children": [2, 4, 6, -1, -1, -1, -1], "split_conditions": [4.0, 2.0, 1.0, -0.0025064733, 0.0053488784, -0.009182344, -0.0016919961], "split_indices": [12, 11, 6, 0, 0, 0, 0], "split_type": [0, 0, 0, 0, 0, 0, 0], "sum_hessian": [7339.267, 3617.963, 3721.3042, 433.1154, 3184.8474, 913.4797, 2807.8245], "tree_param": {"num_deleted": "0", "num_feature": "23", "num_nodes": "7", "size_leaf_vector": "1"}}, {"base_weights": [-0.014538883, 0.33207753, -0.32554594, 0.0018504424, 0.0075777844, -0.00022708978, -0.005446171], "categories": [], "categories_nodes": [], "categories_segments": [], "categories_sizes": [], "default_left": [0, 0, 0, 0, 0, 0, 0], "id": 18, "left_children": [1, 3, 5, -1, -1, -1, -1], "loss_changes": [775.861, 211.31729, 251.13547, 0.0, 0.0, 0.0, 0.0], "parents": [2147483647, 0, 0, 1, 1, 2, 2], "right_children": [2, 4, 6, -1, -1, -1, -1], "split_conditions": [4.0, 9971.0, 1.0, 0.0018504424, 0.0075777844, -0.00022708978, -0.005446171], "split_indices": [12, 16, 21, 0, 0, 0, 0], "split_type": [0, 0, 0, 0, 0, 0, 0], "sum_hessian": [7187.263, 3397.3608, 3789.9023, 2532.2627, 865.0982, 1595.0457, 2194.8567], "tree_param": {"num_deleted": "0", "num_feature": "23", "num_nodes": "7", "size_leaf_vector": "1"}}, {"base_weights": [0.006590475, 0.18274693, -0.37827504, -0.0034494651, 0.003720983, -0.009442353, -0.0020522606], "categories": [], "categories_nodes": [], "categories_segments": [], "categories_sizes": [], "default_left": [0, 0, 0, 0, 0, 0, 0], "id": 19, "left_children": [1, 3, 5, -1, -1, -1, -1], "loss_changes": [491.8452, 498.31116, 220.89594, 0.0, 0.0, 0.0, 0.0], "parents": [2147483647, 0, 0, 1, 1, 2, 2], "right_children": [2, 4, 6, -1, -1, -1, -1], "split_conditions": [126.0, 1.0, 1.0, -0.0034494651, 0.003720983, -0.009442353, -0.0020522606], "split_indices": [0, 8, 6, 0, 0, 0, 0], "split_type": [0, 0, 0, 0, 0, 0, 0], "sum_hessian": [7247.5093, 4975.4326, 2272.077, 1311.3921, 3664.0405, 525.4665, 1746.6104], "tree_param": {"num_deleted": "0", "num_feature": "23", "num_nodes": "7", "size_leaf_vector": "1"}}, {"base_weights": [0.008227973, -0.109413214, 0.5692626, -0.0023355545, 0.0024478429, -0.0018824193, 0.008050582], "categories": [], "categories_nodes": [], "categories_segments": [], "categories_sizes": [], "default_left": [0, 0, 0, 0, 0, 0, 0], "id": 20, "left_children": [1, 3, 5, -1, -1, -1, -1], "loss_changes": [477.71844, 263.0661, 225.5195, 0.0, 0.0, 0.0, 0.0], "parents": [2147483647, 0, 0, 1, 1, 2, 2], "right_children": [2, 4, 6, -1, -1, -1, -1], "split_conditions": [9999.0, 1.0, 1.4166666, -0.0023355545, 0.0024478429, -0.0018824193, 0.008050582], "split_indices": [16, 20, 11, 0, 0, 0, 0], "split_type": [0, 0, 0, 0, 0, 0, 0], "sum_hessian": [7221.3867, 5971.4907, 1249.8964, 4425.077, 1546.4135, 295.94067, 953.9557], "tree_param": {"num_deleted": "0", "num_feature": "23", "num_nodes": "7", "size_leaf_vector": "1"}}, {"base_weights": [-0.0017188655, 0.31711784, -0.2759676, -0.0012280693, 0.0046084714, -0.007040154, -0.0012593365], "categories": [], "categories_nodes": [], "categories_segments": [], "categories_sizes": [], "default_left": [0, 0, 0, 0, 0, 0, 0], "id": 21, "left_children": [1, 3, 5, -1, -1, -1, -1], "loss_changes": [633.0023, 212.1912, 248.78415, 0.0, 0.0, 0.0, 0.0], "parents": [2147483647, 0, 0, 1, 1, 2, 2], "right_children": [2, 4, 6, -1, -1, -1, -1], "split_conditions": [4.0, 1.0, 1.0, -0.0012280693, 0.0046084714, -0.007040154, -0.0012593365], "split_indices": [12, 6, 6, 0, 0, 0, 0], "split_type": [0, 0, 0, 0, 0, 0, 0], "sum_hessian": [7229.696, 3341.0374, 3888.6584, 821.222, 2519.8154, 1002.7317, 2885.9268], "tree_param": {"num_deleted": "0", "num_feature": "23", "num_nodes": "7", "size_leaf_vector": "1"}}, {"base_weights": [0.037596256, 0.3749468, -0.26772848, 0.0024471448, 0.0076185223, -0.0038561863, 0.0019433477], "categories": [], "categories_nodes": [], "categories_segments": [], "categories_sizes": [], "default_left": [0, 0, 0, 0, 0, 0, 0], "id": 22, "left_children": [1, 3, 5, -1, -1, -1, -1], "loss_changes": [757.05237, 174.04791, 210.63165, 0.0, 0.0, 0.0, 0.0], "parents": [2147483647, 0, 0, 1, 1, 2, 2], "right_children": [2, 4, 6, -1, -1, -1, -1], "split_conditions": [4.0, 9971.0, 1.0, 0.0024471448, 0.0076185223, -0.0038561863, 0.0019433477], "split_indices": [12, 16, 20, 0, 0, 0, 0], "split_type": [0, 0, 0, 0, 0, 0, 0], "sum_hessian": [7339.0044, 3487.6577, 3851.347, 2617.391, 870.2666, 3070.8467, 780.50006], "tree_param": {"num_deleted": "0", "num_feature": "23", "num_nodes": "7", "size_leaf_vector": "1"}}, {"base_weights": [-0.014265815, -0.13105202, 0.5493512, -0.0027591102, 0.0026945006, 0.00065145135, 0.0077860216], "categories": [], "categories_nodes": [], "categories_segments": [], "categories_sizes": [], "default_left": [0, 0, 0, 0, 0, 0, 0], "id": 23, "left_children": [1, 3, 5, -1, -1, -1, -1], "loss_changes": [473.3185, 346.31802, 135.87082, 0.0, 0.0, 0.0, 0.0], "parents": [2147483647, 0, 0, 1, 1, 2, 2], "right_children": [2, 4, 6, -1, -1, -1, -1], "split_conditions": [9999.0, 1.0, 4.0833335, -0.0027591102, 0.0026945006, 0.00065145135, 0.0077860216], "split_indices": [16, 20, 11, 0, 0, 0, 0], "split_type": [0, 0, 0, 0, 0, 0, 0], "sum_hessian": [7186.6963, 5957.8013, 1228.895, 4378.264, 1579.5372, 398.33838, 830.55664], "tree_param": {"num_deleted": "0", "num_feature": "23", "num_nodes": "7", "size_leaf_vector": "1"}}, {"base_weights": [0.041343153, -0.10183619, 0.6713136, -0.0023593882, 0.0027419587, 0.0073354137, -0.017272709], "categories": [], "categories_nodes": [], "categories_segments": [], "categories_sizes": [], "default_left": [0, 0, 0, 0, 0, 0, 0], "id": 24, "left_children": [1, 3, 5, -1, -1, -1, -1], "loss_changes": [665.7561, 303.29648, 209.37256, 0.0, 0.0, 0.0, 0.0], "parents": [2147483647, 0, 0, 1, 1, 2, 2], "right_children": [2, 4, 6, -1, -1, -1, -1], "split_conditions": [9999.0, 1.0, 3.0, -0.0023593882, 0.0027419587, 0.0073354137, -0.017272709], "split_indices": [16, 20, 22, 0, 0, 0, 0], "split_type": [0, 0, 0, 0, 0, 0, 0], "sum_hessian": [7365.8867, 6003.923, 1361.964, 4428.9634, 1574.9592, 1331.3127, 30.651176], "tree_param": {"num_deleted": "0", "num_feature": "23", "num_nodes": "7", "size_leaf_vector": "1"}}, {"base_weights": [-0.03835326, 0.31137967, -0.36416614, -0.0019208164, 0.003952851, -0.0077363, -0.0021563], "categories": [], "categories_nodes": [], "categories_segments": [], "categories_sizes": [], "default_left": [0, 0, 0, 0, 0, 0, 0], "id": 25, "left_children": [1, 3, 5, -1, -1, -1, -1], "loss_changes": [804.9879, 144.45444, 220.67624, 0.0, 0.0, 0.0, 0.0], "parents": [2147483647, 0, 0, 1, 1, 2, 2], "right_children": [2, 4, 6, -1, -1, -1, -1], "split_conditions": [4.0, 2.25, 1.0, -0.0019208164, 0.003952851, -0.0077363, -0.0021563], "split_indices": [12, 11, 6, 0, 0, 0, 0], "split_type": [0, 0, 0, 0, 0, 0, 0], "sum_hessian": [7054.113, 3400.7954, 3653.3176, 483.18094, 2917.6143, 965.09717, 2688.2205], "tree_param": {"num_deleted": "0", "num_feature": "23", "num_nodes": "7", "size_leaf_vector": "1"}}, {"base_weights": [0.051096026, -0.09011976, 0.66491354, -0.0029942424, 0.0029105803, 2.8898843e-05, 0.008123734], "categories": [], "categories_nodes": [], "categories_segments": [], "categories_sizes": [], "default_left": [0, 0, 0, 0, 0, 0, 0], "id": 26, "left_children": [1, 3, 5, -1, -1, -1, -1], "loss_changes": [638.4092, 477.7362, 133.6513, 0.0, 0.0, 0.0, 0.0], "parents": [2147483647, 0, 0, 1, 1, 2, 2], "right_children": [2, 4, 6, -1, -1, -1, -1], "split_conditions": [9999.0, 1.0, 1.0, -0.0029942424, 0.0029105803, 2.8898843e-05, 0.008123734], "split_indices": [16, 19, 2, 0, 0, 0, 0], "split_type": [0, 0, 0, 0, 0, 0, 0], "sum_hessian": [7349.978, 5977.4365, 1372.5414, 3861.0386, 2116.398, 252.19363, 1120.3478], "tree_param": {"num_deleted": "0", "num_feature": "23", "num_nodes": "7", "size_leaf_vector": "1"}}, {"base_weights": [-0.024289558, 0.24262157, -0.27077913, -0.004498371, 0.0040293154, -0.0031390297, 0.007629601], "categories": [], "categories_nodes": [], "categories_segments": [], "categories_sizes": [], "default_left": [0, 0, 0, 0, 0, 0, 0], "id": 27, "left_children": [1, 3, 5, -1, -1, -1, -1], "loss_changes": [470.4879, 381.78278, 166.55289, 0.0, 0.0, 0.0, 0.0], "parents": [2147483647, 0, 0, 1, 1, 2, 2], "right_children": [2, 4, 6, -1, -1, -1, -1], "split_conditions": [1.0, 1.0, 1617.0, -0.004498371, 0.0040293154, -0.0031390297, 0.007629601], "split_indices": [21, 6, 17, 0, 0, 0, 0], "split_type": [0, 0, 0, 0, 0, 0, 0], "sum_hessian": [7140.85, 3426.494, 3714.356, 641.2684, 2785.2256, 3569.8826, 144.4735], "tree_param": {"num_deleted": "0", "num_feature": "23", "num_nodes": "7", "size_leaf_vector": "1"}}, {"base_weights": [-0.032084677, 0.2914396, -0.32009086, -0.004307011, 0.0039067683, -0.0042589447, 0.0010265493], "categories": [], "categories_nodes": [], "categories_segments": [], "categories_sizes": [], "default_left": [0, 0, 0, 0, 0, 0, 0], "id": 28, "left_children": [1, 3, 5, -1, -1, -1, -1], "loss_changes": [664.2423, 241.29376, 169.28473, 0.0, 0.0, 0.0, 0.0], "parents": [2147483647, 0, 0, 1, 1, 2, 2], "right_children": [2, 4, 6, -1, -1, -1, -1], "split_conditions": [4.0, 2.0, 1.0, -0.004307011, 0.0039067683, -0.0042589447, 0.0010265493], "split_indices": [12, 11, 20, 0, 0, 0, 0], "split_type": [0, 0, 0, 0, 0, 0, 0], "sum_hessian": [7118.5107, 3350.8682, 3767.6426, 401.60995, 2949.258, 3015.308, 752.3345], "tree_param": {"num_deleted": "0", "num_feature": "23", "num_nodes": "7", "size_leaf_vector": "1"}}, {"base_weights": [-0.009822319, 0.27704683, -0.2581912, 0.0012988199, 0.006803001, 0.00018201178, -0.004692896], "categories": [], "categories_nodes": [], "categories_segments": [], "categories_sizes": [], "default_left": [0, 0, 0, 0, 0, 0, 0], "id": 29, "left_children": [1, 3, 5, -1, -1, -1, -1], "loss_changes": [512.6137, 196.77527, 225.59192, 0.0, 0.0, 0.0, 0.0], "parents": [2147483647, 0, 0, 1, 1, 2, 2], "right_children": [2, 4, 6, -1, -1, -1, -1], "split_conditions": [4.0, 5139.0, 1.0, 0.0012988199, 0.006803001, 0.00018201178, -0.004692896], "split_indices": [12, 16, 21, 0, 0, 0, 0], "split_type": [0, 0, 0, 0, 0, 0, 0], "sum_hessian": [7184.8867, 3331.8987, 3852.9883, 2447.7114, 884.1872, 1668.3888, 2184.5994], "tree_param": {"num_deleted": "0", "num_feature": "23", "num_nodes": "7", "size_leaf_vector": "1"}}, {"base_weights": [0.0002466779, -0.118139386, 0.5571582, 0.00068008795, -0.0047730687, 0.006474977, -0.0047101546], "categories": [], "categories_nodes": [], "categories_segments": [], "categories_sizes": [], "default_left": [0, 0, 0, 0, 0, 0, 0], "id": 30, "left_children": [1, 3, 5, -1, -1, -1, -1], "loss_changes": [475.02527, 397.36783, 119.05255, 0.0, 0.0, 0.0, 0.0], "parents": [2147483647, 0, 0, 1, 1, 2, 2], "right_children": [2, 4, 6, -1, -1, -1, -1], "split_conditions": [9999.0, 3014.0, 1539.0, 0.00068008795, -0.0047730687, 0.006474977, -0.0047101546], "split_indices": [16, 16, 2, 0, 0, 0, 0], "split_type": [0, 0, 0, 0, 0, 0, 0], "sum_hessian": [7188.2827, 5929.8765, 1258.4061, 3906.4983, 2023.3782, 1159.3635, 99.04262], "tree_param": {"num_deleted": "0", "num_feature": "23", "num_nodes": "7", "size_leaf_vector": "1"}}, {"base_weights": [0.044252295, 0.38259083, -0.27224925, -0.0010048791, 0.0045873695, 0.00054700003, -0.005209911], "categories": [], "categories_nodes": [], "categories_segments": [], "categories_sizes": [], "default_left": [0, 0, 0, 0, 0, 0, 0], "id": 31, "left_children": [1, 3, 5, -1, -1, -1, -1], "loss_changes": [787.88354, 131.42657, 309.6324, 0.0, 0.0, 0.0, 0.0], "parents": [2147483647, 0, 0, 1, 1, 2, 2], "right_children": [2, 4, 6, -1, -1, -1, -1], "split_conditions": [4.0, 2.0, 6.9166665, -0.0010048791, 0.0045873695, 0.00054700003, -0.005209911], "split_indices": [12, 11, 11, 0, 0, 0, 0], "split_type": [0, 0, 0, 0, 0, 0, 0], "sum_hessian": [7346.682, 3551.8684, 3794.8137, 481.62967, 3070.2388, 1639.5934, 2155.2202], "tree_param": {"num_deleted": "0", "num_feature": "23", "num_nodes": "7", "size_leaf_vector": "1"}}, {"base_weights": [-0.06404344, 0.27494347, -0.37094674, 0.0015189394, 0.0064935223, -0.008067923, -0.0022028387], "categories": [], "categories_nodes": [], "categories_segments": [], "categories_sizes": [], "default_left": [0, 0, 0, 0, 0, 0, 0], "id": 32, "left_children": [1, 3, 5, -1, -1, -1, -1], "loss_changes": [729.61005, 152.16266, 239.82095, 0.0, 0.0, 0.0, 0.0], "parents": [2147483647, 0, 0, 1, 1, 2, 2], "right_children": [2, 4, 6, -1, -1, -1, -1], "split_conditions": [4.0, 9971.0, 1.0, 0.0015189394, 0.0064935223, -0.008067923, -0.0022028387], "split_indices": [12, 16, 6, 0, 0, 0, 0], "split_type": [0, 0, 0, 0, 0, 0, 0], "sum_hessian": [7002.216, 3325.8948, 3676.3208, 2510.5134, 815.3814, 937.0785, 2739.2424], "tree_param": {"num_deleted": "0", "num_feature": "23", "num_nodes": "7", "size_leaf_vector": "1"}}, {"base_weights": [-0.000892408, -0.16890669, 0.44370952, 0.0014553656, -0.0039919363, -0.018501528, 0.005067655], "categories": [], "categories_nodes": [], "categories_segments": [], "categories_sizes": [], "default_left": [0, 0, 0, 0, 0, 0, 0], "id": 33, "left_children": [1, 3, 5, -1, -1, -1, -1], "loss_changes": [537.24677, 378.81854, 288.5584, 0.0, 0.0, 0.0, 0.0], "parents": [2147483647, 0, 0, 1, 1, 2, 2], "right_children": [2, 4, 6, -1, -1, -1, -1], "split_conditions": [1.0, 4.0, 311.0, 0.0014553656, -0.0039919363, -0.018501528, 0.005067655], "split_indices": [20, 12, 16, 0, 0, 0, 0], "split_type": [0, 0, 0, 0, 0, 0, 0], "sum_hessian": [7185.7715, 5218.906, 1966.8656, 2205.256, 3013.6497, 48.40519, 1918.4604], "tree_param": {"num_deleted": "0", "num_feature": "23", "num_nodes": "7", "size_leaf_vector": "1"}}, {"base_weights": [0.028512321, -0.36001194, 0.16265814, -0.0047074384, 0.0073141656, 0.0035575856, -0.00029370675], "categories": [], "categories_nodes": [], "categories_segments": [], "categories_sizes": [], "default_left": [0, 0, 0, 0, 0, 0, 0], "id": 34, "left_children": [1, 3, 5, -1, -1, -1, -1], "loss_changes": [379.23068, 227.05786, 201.08865, 0.0, 0.0, 0.0, 0.0], "parents": [2147483647, 0, 0, 1, 1, 2, 2], "right_children": [2, 4, 6, -1, -1, -1, -1], "split_conditions": [1.0, 1.0, 1.0, -0.0047074384, 0.0073141656, 0.0035575856, -0.00029370675], "split_indices": [6, 1, 21, 0, 0, 0, 0], "split_type": [0, 0, 0, 0, 0, 0, 0], "sum_hessian": [7269.4287, 1861.6603, 5407.7686, 1693.5947, 168.06554, 2696.8315, 2710.9368], "tree_param": {"num_deleted": "0", "num_feature": "23", "num_nodes": "7", "size_leaf_vector": "1"}}, {"base_weights": [-0.012861118, 0.28539556, -0.28325984, 0.0009368698, 0.007919903, -0.008573287, -0.0009814033], "categories": [], "categories_nodes": [], "categories_segments": [], "categories_sizes": [], "default_left": [0, 0, 0, 0, 0, 0, 0], "id": 35, "left_children": [1, 3, 5, -1, -1, -1, -1], "loss_changes": [582.88904, 332.35538, 401.65414, 0.0, 0.0, 0.0, 0.0], "parents": [2147483647, 0, 0, 1, 1, 2, 2], "right_children": [2, 4, 6, -1, -1, -1, -1], "split_conditions": [4.0, 9971.0, 1.0, 0.0009368698, 0.007919903, -0.008573287, -0.0009814033], "split_indices": [12, 16, 6, 0, 0, 0, 0], "split_type": [0, 0, 0, 0, 0, 0, 0], "sum_hessian": [7217.5645, 3430.1006, 3787.464, 2494.1487, 935.95184, 917.7859, 2869.6782], "tree_param": {"num_deleted": "0", "num_feature": "23", "num_nodes": "7", "size_leaf_vector": "1"}}, {"base_weights": [-0.035346925, 0.18954848, -0.23708296, 0.0029881801, -0.0068765664, -0.00032546808, -0.0054078014], "categories": [], "categories_nodes": [], "categories_segments": [], "categories_sizes": [], "default_left": [0, 0, 0, 0, 0, 0, 0], "id": 36, "left_children": [1, 3, 5, -1, -1, -1, -1], "loss_changes": [321.17105, 321.25922, 231.22444, 0.0, 0.0, 0.0, 0.0], "parents": [2147483647, 0, 0, 1, 1, 2, 2], "right_children": [2, 4, 6, -1, -1, -1, -1], "split_conditions": [1.0, 167.0, -8.0, 0.0029881801, -0.0068765664, -0.00032546808, -0.0054078014], "split_indices": [21, 0, 3, 0, 0, 0, 0], "split_type": [0, 0, 0, 0, 0, 0, 0], "sum_hessian": [7068.0073, 3339.9617, 3728.0457, 2973.947, 366.01465, 2232.9863, 1495.0592], "tree_param": {"num_deleted": "0", "num_feature": "23", "num_nodes": "7", "size_leaf_vector": "1"}}, {"base_weights": [-0.017136926, -0.3720868, 0.1080089, -0.004477787, 0.012134637, -0.0031670395, 0.0019385996], "categories": [], "categories_nodes": [], "categories_segments": [], "categories_sizes": [], "default_left": [0, 0, 0, 0, 0, 0, 0], "id": 37, "left_children": [1, 3, 5, -1, -1, -1, -1], "loss_changes": [321.29105, 228.28192, 194.94974, 0.0, 0.0, 0.0, 0.0], "parents": [2147483647, 0, 0, 1, 1, 2, 2], "right_children": [2, 4, 6, -1, -1, -1, -1], "split_conditions": [1.0, 2.0, 1.0, -0.004477787, 0.012134637, -0.0031670395, 0.0019385996], "split_indices": [6, 13, 14, 0, 0, 0, 0], "split_type": [0, 0, 0, 0, 0, 0, 0], "sum_hessian": [7217.478, 1880.8804, 5336.5977, 1799.2074, 81.672935, 893.12683, 4443.471], "tree_param": {"num_deleted": "0", "num_feature": "23", "num_nodes": "7", "size_leaf_vector": "1"}}, {"base_weights": [-0.025215887, 0.25920838, -0.27190855, 0.003931401, -0.003076049, -0.0075824317, -0.001088787], "categories": [], "categories_nodes": [], "categories_segments": [], "categories_sizes": [], "default_left": [0, 0, 0, 0, 0, 0, 0], "id": 38, "left_children": [1, 3, 5, -1, -1, -1, -1], "loss_changes": [501.5912, 252.62541, 302.37482, 0.0, 0.0, 0.0, 0.0], "parents": [2147483647, 0, 0, 1, 1, 2, 2], "right_children": [2, 4, 6, -1, -1, -1, -1], "split_conditions": [4.0, 27.166666, 1.0, 0.003931401, -0.003076049, -0.0075824317, -0.001088787], "split_indices": [12, 11, 6, 0, 0, 0, 0], "split_type": [0, 0, 0, 0, 0, 0, 0], "sum_hessian": [7138.495, 3313.6804, 3824.8147, 2683.011, 630.6695, 954.13727, 2870.6775], "tree_param": {"num_deleted": "0", "num_feature": "23", "num_nodes": "7", "size_leaf_vector": "1"}}, {"base_weights": [0.016487619, 0.33722645, -0.27707833, -0.0036248905, 0.004128325, -0.0074231084, -0.0012060077], "categories": [], "categories_nodes": [], "categories_segments": [], "categories_sizes": [], "default_left": [0, 0, 0, 0, 0, 0, 0], "id": 39, "left_children": [1, 3, 5, -1, -1, -1, -1], "loss_changes": [684.85815, 184.74606, 275.0185, 0.0, 0.0, 0.0, 0.0], "parents": [2147483647, 0, 0, 1, 1, 2, 2], "right_children": [2, 4, 6, -1, -1, -1, -1], "split_conditions": [4.0, 476.0, 1.0, -0.0036248905, 0.004128325, -0.0074231084, -0.0012060077], "split_indices": [12, 16, 6, 0, 0, 0, 0], "split_type": [0, 0, 0, 0, 0, 0, 0], "sum_hessian": [7262.8984, 3472.0898, 3790.8086, 335.44348, 3136.6465, 947.78467, 2843.024], "tree_param": {"num_deleted": "0", "num_feature": "23", "num_nodes": "7", "size_leaf_vector": "1"}}, {"base_weights": [-0.018785868, 0.22401513, -0.2483872, 0.0028163749, -0.0065974407, -0.0031782805, 0.007442985], "categories": [], "categories_nodes": [], "categories_segments": [], "categories_sizes": [], "default_left": [0, 0, 0, 0, 0, 0, 0], "id": 40, "left_children": [1, 3, 5, -1, -1, -1, -1], "loss_changes": [400.73935, 178.36252, 255.55786, 0.0, 0.0, 0.0, 0.0], "parents": [2147483647, 0, 0, 1, 1, 2, 2], "right_children": [2, 4, 6, -1, -1, -1, -1], "split_conditions": [1.0, 824.0, 1.0, 0.0028163749, -0.0065974407, -0.0031782805, 0.007442985], "split_indices": [21, 2, 13, 0, 0, 0, 0], "split_type": [0, 0, 0, 0, 0, 0, 0], "sum_hessian": [7178.053, 3486.6855, 3691.3674, 3277.5247, 209.16106, 3454.1475, 237.21982], "tree_param": {"num_deleted": "0", "num_feature": "23", "num_nodes": "7", "size_leaf_vector": "1"}}, {"base_weights": [0.04480281, 0.12132709, -0.6922642, -0.0031981925, 0.002261765, -0.003231316, -0.009904546], "categories": [], "categories_nodes": [], "categories_segments": [], "categories_sizes": [], "default_left": [0, 0, 0, 0, 0, 0, 0], "id": 41, "left_children": [1, 3, 5, -1, -1, -1, -1], "loss_changes": [418.45505, 311.51328, 73.8696, 0.0, 0.0, 0.0, 0.0], "parents": [2147483647, 0, 0, 1, 1, 2, 2], "right_children": [2, 4, 6, -1, -1, -1, -1], "split_conditions": [203.0, 4.0, 4.1666665, -0.0031981925, 0.002261765, -0.003231316, -0.009904546], "split_indices": [0, 0, 11, 0, 0, 0, 0], "split_type": [0, 0, 0, 0, 0, 0, 0], "sum_hessian": [7416.6294, 6724.0537, 692.5757, 1287.4427, 5436.6113, 315.62833, 376.94736], "tree_param": {"num_deleted": "0", "num_feature": "23", "num_nodes": "7", "size_leaf_vector": "1"}}, {"base_weights": [0.018731933, -0.42026976, 0.16473538, -0.006031373, 0.002184414, -0.0006290243, 0.003153769], "categories": [], "categories_nodes": [], "categories_segments": [], "categories_sizes": [], "default_left": [0, 0, 0, 0, 0, 0, 0], "id": 42, "left_children": [1, 3, 5, -1, -1, -1, -1], "loss_changes": [464.66772, 212.29535, 187.05293, 0.0, 0.0, 0.0, 0.0], "parents": [2147483647, 0, 0, 1, 1, 2, 2], "right_children": [2, 4, 6, -1, -1, -1, -1], "split_conditions": [1.0, 6717.0, 2.0, -0.006031373, 0.002184414, -0.0006290243, 0.003153769], "split_indices": [6, 16, 2, 0, 0, 0, 0], "split_type": [0, 0, 0, 0, 0, 0, 0], "sum_hessian": [7243.173, 1803.671, 5439.502, 1403.6425, 400.02866, 2164.6797, 3274.822], "tree_param": {"num_deleted": "0", "num_feature": "23", "num_nodes": "7", "size_leaf_vector": "1"}}, {"base_weights": [-0.0021402831, 0.295435, -0.2791674, 0.0016536593, 0.0067312587, -0.0039670607, 0.0017381613], "categories": [], "categories_nodes": [], "categories_segments": [], "categories_sizes": [], "default_left": [0, 0, 0, 0, 0, 0, 0], "id": 43, "left_children": [1, 3, 5, -1, -1, -1, -1], "loss_changes": [594.50726, 169.33105, 199.51697, 0.0, 0.0, 0.0, 0.0], "parents": [2147483647, 0, 0, 1, 1, 2, 2], "right_children": [2, 4, 6, -1, -1, -1, -1], "split_conditions": [4.0, 5825.0, 1.0, 0.0016536593, 0.0067312587, -0.0039670607, 0.0017381613], "split_indices": [12, 16, 20, 0, 0, 0, 0], "split_type": [0, 0, 0, 0, 0, 0, 0], "sum_hessian": [7201.9004, 3470.2773, 3731.623, 2588.6392, 881.63806, 2965.0823, 766.5408], "tree_param": {"num_deleted": "0", "num_feature": "23", "num_nodes": "7", "size_leaf_vector": "1"}}, {"base_weights": [-0.12307105, 0.13469218, -0.3575837, 0.0021470163, -0.006512546, 0.002474838, -0.004651707], "categories": [], "categories_nodes": [], "categories_segments": [], "categories_sizes": [], "default_left": [0, 0, 0, 0, 0, 0, 0], "id": 44, "left_children": [1, 3, 5, -1, -1, -1, -1], "loss_changes": [413.2716, 204.93842, 233.79001, 0.0, 0.0, 0.0, 0.0], "parents": [2147483647, 0, 0, 1, 1, 2, 2], "right_children": [2, 4, 6, -1, -1, -1, -1], "split_conditions": [1.0, 182.0, 1103.0, 0.0021470163, -0.006512546, 0.002474838, -0.004651707], "split_indices": [21, 0, 16, 0, 0, 0, 0], "split_type": [0, 0, 0, 0, 0, 0, 0], "sum_hessian": [6824.0576, 3249.8584, 3574.1992, 2954.043, 295.81543, 537.2001, 3036.999], "tree_param": {"num_deleted": "0", "num_feature": "23", "num_nodes": "7", "size_leaf_vector": "1"}}, {"base_weights": [-0.0165452, -0.13972019, 0.5466593, -0.0005748718, -0.009445456, 0.0067403466, -0.0], "categories": [], "categories_nodes": [], "categories_segments": [], "categories_sizes": [], "default_left": [0, 0, 0, 0, 0, 0, 0], "id": 45, "left_children": [1, 3, 5, -1, -1, -1, -1], "loss_changes": [494.52167, 386.22668, 88.904785, 0.0, 0.0, 0.0, 0.0], "parents": [2147483647, 0, 0, 1, 1, 2, 2], "right_children": [2, 4, 6, -1, -1, -1, -1], "split_conditions": [9999.0, 5194.0, 90.0, -0.0005748718, -0.009445456, 0.0067403466, -0.0], "split_indices": [16, 16, 0, 0, 0, 0, 0], "split_type": [0, 0, 0, 0, 0, 0, 0], "sum_hessian": [7123.837, 5849.963, 1273.8741, 5313.641, 536.3215, 1031.8816, 241.99251], "tree_param": {"num_deleted": "0", "num_feature": "23", "num_nodes": "7", "size_leaf_vector": "1"}}, {"base_weights": [-0.006493643, 0.25218192, -0.22618724, 0.0063621877, 0.0012178412, -0.0024663208, 0.011548704], "categories": [], "categories_nodes": [], "categories_segments": [], "categories_sizes": [], "default_left": [0, 0, 0, 0, 0, 0, 0], "id": 46, "left_children": [1, 3, 5, -1, -1, -1, -1], "loss_changes": [407.47256, 163.66428, 110.054276, 0.0, 0.0, 0.0, 0.0], "parents": [2147483647, 0, 0, 1, 1, 2, 2], "right_children": [2, 4, 6, -1, -1, -1, -1], "split_conditions": [4.0, 47.0, 65.5, 0.0063621877, 0.0012178412, -0.0024663208, 0.011548704], "split_indices": [12, 0, 11, 0, 0, 0, 0], "split_type": [0, 0, 0, 0, 0, 0, 0], "sum_hessian": [7160.5454, 3286.0889, 3874.4565, 826.0906, 2459.9983, 3822.6973, 51.759094], "tree_param": {"num_deleted": "0", "num_feature": "23", "num_nodes": "7", "size_leaf_vector": "1"}}, {"base_weights": [0.025251856, 0.05018403, -1.4870203, -0.0025292316, 0.0015895442, -0.006198091, -0.01825311], "categories": [], "categories_nodes": [], "categories_segments": [], "categories_sizes": [], "default_left": [0, 0, 0, 0, 0, 0, 0], "id": 47, "left_children": [1, 3, 5, -1, -1, -1, -1], "loss_changes": [272.7888, 235.86444, 26.31491, 0.0, 0.0, 0.0, 0.0], "parents": [2147483647, 0, 0, 1, 1, 2, 2], "right_children": [2, 4, 6, -1, -1, -1, -1], "split_conditions": [4.0, 1.0, 1.0, -0.0025292316, 0.0015895442, -0.006198091, -0.01825311], "split_indices": [22, 6, 6, 0, 0, 0, 0], "split_type": [0, 0, 0, 0, 0, 0, 0], "sum_hessian": [7258.177, 7145.8613, 112.31537, 1882.9319, 5262.9297, 36.321598, 75.993774], "tree_param": {"num_deleted": "0", "num_feature": "23", "num_nodes": "7", "size_leaf_vector": "1"}}, {"base_weights": [0.051831976, 0.3430929, -0.22103086, 0.004063393, -0.0037922477, -0.002482183, 0.013095274], "categories": [], "categories_nodes": [], "categories_segments": [], "categories_sizes": [], "default_left": [0, 0, 0, 0, 0, 0, 0], "id": 48, "left_children": [1, 3, 5, -1, -1, -1, -1], "loss_changes": [585.36957, 163.58487, 158.7261, 0.0, 0.0, 0.0, 0.0], "parents": [2147483647, 0, 0, 1, 1, 2, 2], "right_children": [2, 4, 6, -1, -1, -1, -1], "split_conditions": [4.0, 1539.0, 1663.0, 0.004063393, -0.0037922477, -0.002482183, 0.013095274], "split_indices": [12, 2, 17, 0, 0, 0, 0], "split_type": [0, 0, 0, 0, 0, 0, 0], "sum_hessian": [7354.215, 3558.334, 3795.8809, 3275.1338, 283.20013, 3734.389, 61.49182], "tree_param": {"num_deleted": "0", "num_feature": "23", "num_nodes": "7", "size_leaf_vector": "1"}}, {"base_weights": [0.021499755, 0.32297245, -0.2545822, 0.0057284986, 0.0018500256, -0.0064152232, -0.0011713954], "categories": [], "categories_nodes": [], "categories_segments": [], "categories_sizes": [], "default_left": [0, 0, 0, 0, 0, 0, 0], "id": 49, "left_children": [1, 3, 5, -1, -1, -1, -1], "loss_changes": [606.4334, 118.828186, 201.02576, 0.0, 0.0, 0.0, 0.0], "parents": [2147483647, 0, 0, 1, 1, 2, 2], "right_children": [2, 4, 6, -1, -1, -1, -1], "split_conditions": [4.0, 59.0, 1.0, 0.0057284986, 0.0018500256, -0.0064152232, -0.0011713954], "split_indices": [12, 0, 6, 0, 0, 0, 0], "split_type": [0, 0, 0, 0, 0, 0, 0], "sum_hessian": [7275.3726, 3479.09, 3796.2825, 1229.4407, 2249.6494, 988.3061, 2807.9763], "tree_param": {"num_deleted": "0", "num_feature": "23", "num_nodes": "7", "size_leaf_vector": "1"}}, {"base_weights": [-0.03369017, 0.26276645, -0.30339825, -0.004572203, 0.0036089115, -0.004338033, 0.0020291568], "categories": [], "categories_nodes": [], "categories_segments": [], "categories_sizes": [], "default_left": [0, 0, 0, 0, 0, 0, 0], "id": 50, "left_children": [1, 3, 5, -1, -1, -1, -1], "loss_changes": [567.4035, 239.4395, 246.09164, 0.0, 0.0, 0.0, 0.0], "parents": [2147483647, 0, 0, 1, 1, 2, 2], "right_children": [2, 4, 6, -1, -1, -1, -1], "split_conditions": [4.0, 2.0, 1.0, -0.004572203, 0.0036089115, -0.004338033, 0.0020291568], "split_indices": [12, 11, 20, 0, 0, 0, 0], "split_type": [0, 0, 0, 0, 0, 0, 0], "sum_hessian": [7085.887, 3373.8518, 3712.0356, 401.24454, 2972.6072, 2953.9214, 758.1141], "tree_param": {"num_deleted": "0", "num_feature": "23", "num_nodes": "7", "size_leaf_vector": "1"}}, {"base_weights": [0.032816276, 0.33583915, -0.25266588, 0.004268731, -0.0029041609, 0.0007344754, -0.0050559896], "categories": [], "categories_nodes": [], "categories_segments": [], "categories_sizes": [], "default_left": [0, 0, 0, 0, 0, 0, 0], "id": 51, "left_children": [1, 3, 5, -1, -1, -1, -1], "loss_changes": [630.8527, 202.49069, 310.1867, 0.0, 0.0, 0.0, 0.0], "parents": [2147483647, 0, 0, 1, 1, 2, 2], "right_children": [2, 4, 6, -1, -1, -1, -1], "split_conditions": [4.0, 859.0, 1.0, 0.004268731, -0.0029041609, 0.0007344754, -0.0050559896], "split_indices": [12, 2, 21, 0, 0, 0, 0], "split_type": [0, 0, 0, 0, 0, 0, 0], "sum_hessian": [7281.5874, 3533.549, 3748.038, 3087.8767, 445.67233, 1637.0021, 2111.0361], "tree_param": {"num_deleted": "0", "num_feature": "23", "num_nodes": "7", "size_leaf_vector": "1"}}, {"base_weights": [0.008909611, 0.25823686, -0.22439052, 0.0027857353, -0.0102222245, -0.0028527337, 0.0071530878], "categories": [], "categories_nodes": [], "categories_segments": [], "categories_sizes": [], "default_left": [0, 0, 0, 0, 0, 0, 0], "id": 52, "left_children": [1, 3, 5, -1, -1, -1, -1], "loss_changes": [421.4408, 91.925964, 214.59833, 0.0, 0.0, 0.0, 0.0], "parents": [2147483647, 0, 0, 1, 1, 2, 2], "right_children": [2, 4, 6, -1, -1, -1, -1], "split_conditions": [1.0, 4.0, 1.0, 0.0027857353, -0.0102222245, -0.0028527337, 0.0071530878], "split_indices": [21, 22, 1, 0, 0, 0, 0], "split_type": [0, 0, 0, 0, 0, 0, 0], "sum_hessian": [7234.6626, 3499.0205, 3735.642, 3448.9365, 50.084015, 3512.6074, 223.03462], "tree_param": {"num_deleted": "0", "num_feature": "23", "num_nodes": "7", "size_leaf_vector": "1"}}, {"base_weights": [-0.027956085, 0.2569767, -0.28896248, 0.0062837754, 0.0013892007, -0.0023164987, -0.015143303], "categories": [], "categories_nodes": [], "categories_segments": [], "categories_sizes": [], "default_left": [0, 0, 0, 0, 0, 0, 0], "id": 53, "left_children": [1, 3, 5, -1, -1, -1, -1], "loss_changes": [533.65704, 149.13945, 259.61206, 0.0, 0.0, 0.0, 0.0], "parents": [2147483647, 0, 0, 1, 1, 2, 2], "right_children": [2, 4, 6, -1, -1, -1, -1], "split_conditions": [4.0, 46.0, 1482.0, 0.0062837754, 0.0013892007, -0.0023164987, -0.015143303], "split_indices": [12, 0, 2, 0, 0, 0, 0], "split_type": [0, 0, 0, 0, 0, 0, 0], "sum_hessian": [7165.3506, 3423.8657, 3741.4846, 818.57654, 2605.289, 3580.767, 160.7175], "tree_param": {"num_deleted": "0", "num_feature": "23", "num_nodes": "7", "size_leaf_vector": "1"}}, {"base_weights": [0.030811736, 0.17463253, -0.2824005, -0.0033690324, 0.0035089084, -0.0022903178, -0.017129557], "categories": [], "categories_nodes": [], "categories_segments": [], "categories_sizes": [], "default_left": [0, 0, 0, 0, 0, 0, 0], "id": 54, "left_children": [1, 3, 5, -1, -1, -1, -1], "loss_changes": [329.60724, 453.00977, 171.79419, 0.0, 0.0, 0.0, 0.0], "parents": [2147483647, 0, 0, 1, 1, 2, 2], "right_children": [2, 4, 6, -1, -1, -1, -1], "split_conditions": [126.0, 1.0, 308.0, -0.0033690324, 0.0035089084, -0.0022903178, -0.017129557], "split_indices": [0, 8, 0, 0, 0, 0, 0], "split_type": [0, 0, 0, 0, 0, 0, 0], "sum_hessian": [7308.973, 5012.663, 2296.31, 1281.9539, 3730.7092, 2219.99, 76.32004], "tree_param": {"num_deleted": "0", "num_feature": "23", "num_nodes": "7", "size_leaf_vector": "1"}}, {"base_weights": [-0.029420448, 0.279247, -0.3205305, 0.0033023949, -0.006860568, -0.0075743585, -0.0017188066], "categories": [], "categories_nodes": [], "categories_segments": [], "categories_sizes": [], "default_left": [0, 0, 0, 0, 0, 0, 0], "id": 55, "left_children": [1, 3, 5, -1, -1, -1, -1], "loss_changes": [636.9076, 170.03897, 235.40604, 0.0, 0.0, 0.0, 0.0], "parents": [2147483647, 0, 0, 1, 1, 2, 2], "right_children": [2, 4, 6, -1, -1, -1, -1], "split_conditions": [4.0, 2.0, 1.0, 0.0033023949, -0.006860568, -0.0075743585, -0.0017188066], "split_indices": [12, 3, 6, 0, 0, 0, 0], "split_type": [0, 0, 0, 0, 0, 0, 0], "sum_hessian": [7077.6377, 3433.658, 3643.9797, 3265.4832, 168.17488, 918.1594, 2725.8203], "tree_param": {"num_deleted": "0", "num_feature": "23", "num_nodes": "7", "size_leaf_vector": "1"}}, {"base_weights": [0.004500986, 0.2504349, -0.23056379, -0.0027326334, 0.003778889, -0.00030851335, -0.004601653], "categories": [], "categories_nodes": [], "categories_segments": [], "categories_sizes": [], "default_left": [0, 0, 0, 0, 0, 0, 0], "id": 56, "left_children": [1, 3, 5, -1, -1, -1, -1], "loss_changes": [413.36765, 233.98866, 166.97975, 0.0, 0.0, 0.0, 0.0], "parents": [2147483647, 0, 0, 1, 1, 2, 2], "right_children": [2, 4, 6, -1, -1, -1, -1], "split_conditions": [1.0, 1.0, -30.0, -0.0027326334, 0.003778889, -0.00030851335, -0.004601653], "split_indices": [21, 6, 3, 0, 0, 0, 0], "split_type": [0, 0, 0, 0, 0, 0, 0], "sum_hessian": [7140.0654, 3491.2798, 3648.7854, 680.71423, 2810.5654, 1956.7708, 1692.0146], "tree_param": {"num_deleted": "0", "num_feature": "23", "num_nodes": "7", "size_leaf_vector": "1"}}, {"base_weights": [0.012629668, -0.10956503, 0.56381494, 0.0011998625, -0.0027864843, 0.0103771025, 0.004827351], "categories": [], "categories_nodes": [], "categories_segments": [], "categories_sizes": [], "default_left": [0, 0, 0, 0, 0, 0, 0], "id": 57, "left_children": [1, 3, 5, -1, -1, -1, -1], "loss_changes": [485.57294, 229.1167, 46.252197, 0.0, 0.0, 0.0, 0.0], "parents": [2147483647, 0, 0, 1, 1, 2, 2], "right_children": [2, 4, 6, -1, -1, -1, -1], "split_conditions": [9999.0, 4.0, 2.0, 0.0011998625, -0.0027864843, 0.0103771025, 0.004827351], "split_indices": [16, 12, 12, 0, 0, 0, 0], "split_type": [0, 0, 0, 0, 0, 0, 0], "sum_hessian": [7193.159, 5889.649, 1303.5104, 2496.239, 3393.41, 180.01747, 1123.4929], "tree_param": {"num_deleted": "0", "num_feature": "23", "num_nodes": "7", "size_leaf_vector": "1"}}, {"base_weights": [-0.03671919, -0.34419483, 0.07174718, -0.0053782123, 0.0009559713, 0.002435484, -0.0009527011], "categories": [], "categories_nodes": [], "categories_segments": [], "categories_sizes": [], "default_left": [0, 0, 0, 0, 0, 0, 0], "id": 58, "left_children": [1, 3, 5, -1, -1, -1, -1], "loss_changes": [236.52736, 158.20268, 150.49457, 0.0, 0.0, 0.0, 0.0], "parents": [2147483647, 0, 0, 1, 1, 2, 2], "right_children": [2, 4, 6, -1, -1, -1, -1], "split_conditions": [1.0, 20.333334, 1.0, -0.0053782123, 0.0009559713, 0.002435484, -0.0009527011], "split_indices": [6, 11, 21, 0, 0, 0, 0], "split_type": [0, 0, 0, 0, 0, 0, 0], "sum_hessian": [7075.2407, 1844.601, 5230.6396, 1281.5393, 563.0616, 2580.215, 2650.4248], "tree_param": {"num_deleted": "0", "num_feature": "23", "num_nodes": "7", "size_leaf_vector": "1"}}, {"base_weights": [-0.002193969, -0.43190637, 0.13800396, -0.0021682414, -0.009555767, 0.0025740843, -0.0019750388], "categories": [], "categories_nodes": [], "categories_segments": [], "categories_sizes": [], "default_left": [0, 0, 0, 0, 0, 0, 0], "id": 59, "left_children": [1, 3, 5, -1, -1, -1, -1], "loss_changes": [438.65976, 199.59988, 220.03816, 0.0, 0.0, 0.0, 0.0], "parents": [2147483647, 0, 0, 1, 1, 2, 2], "right_children": [2, 4, 6, -1, -1, -1, -1], "split_conditions": [1.0, 123.0, 142.0, -0.0021682414, -0.009555767, 0.0025740843, -0.0019750388], "split_indices": [6, 0, 0, 0, 0, 0, 0], "split_type": [0, 0, 0, 0, 0, 0, 0], "sum_hessian": [7266.4644, 1786.7455, 5479.7188, 1272.9135, 513.832, 4044.47, 1435.249], "tree_param": {"num_deleted": "0", "num_feature": "23", "num_nodes": "7", "size_leaf_vector": "1"}}, {"base_weights": [0.027448824, -0.085731074, 0.543695, -0.0051831547, 0.00058550265, 0.0059998254, -0.010579467], "categories": [], "categories_nodes": [], "categories_segments": [], "categories_sizes": [], "default_left": [0, 0, 0, 0, 0, 0, 0], "id": 60, "left_children": [1, 3, 5, -1, -1, -1, -1], "loss_changes": [428.6158, 375.69833, 121.64584, 0.0, 0.0, 0.0, 0.0], "parents": [2147483647, 0, 0, 1, 1, 2, 2], "right_children": [2, 4, 6, -1, -1, -1, -1], "split_conditions": [9999.0, 1.0, 89.0, -0.0051831547, 0.00058550265, 0.0059998254, -0.010579467], "split_indices": [16, 6, 3, 0, 0, 0, 0], "split_type": [0, 0, 0, 0, 0, 0, 0], "sum_hessian": [7318.882, 6004.6724, 1314.2096, 1500.3353, 4504.337, 1273.2155, 40.99413], "tree_param": {"num_deleted": "0", "num_feature": "23", "num_nodes": "7", "size_leaf_vector": "1"}}, {"base_weights": [0.02164621, 0.18166459, -0.2965662, -0.0029939713, 0.0035352262, -0.009678363, -0.0010547474], "categories": [], "categories_nodes": [], "categories_segments": [], "categories_sizes": [], "default_left": [0, 0, 0, 0, 0, 0, 0], "id": 61, "left_children": [1, 3, 5, -1, -1, -1, -1], "loss_changes": [366.6294, 396.9326, 307.29892, 0.0, 0.0, 0.0, 0.0], "parents": [2147483647, 0, 0, 1, 1, 2, 2], "right_children": [2, 4, 6, -1, -1, -1, -1], "split_conditions": [120.0, 1.0, 1.0, -0.0029939713, 0.0035352262, -0.009678363, -0.0010547474], "split_indices": [0, 8, 6, 0, 0, 0, 0], "split_type": [0, 0, 0, 0, 0, 0, 0], "sum_hessian": [7192.0957, 4789.1035, 2402.992, 1258.0538, 3531.0498, 526.81793, 1876.1741], "tree_param": {"num_deleted": "0", "num_feature": "23", "num_nodes": "7", "size_leaf_vector": "1"}}, {"base_weights": [-0.039707843, 0.59758365, -0.1311673, -0.0069870926, 0.006919032, -0.0057584257, 0.00013464979], "categories": [], "categories_nodes": [], "categories_segments": [], "categories_sizes": [], "default_left": [0, 0, 0, 0, 0, 0, 0], "id": 62, "left_children": [1, 3, 5, -1, -1, -1, -1], "loss_changes": [409.62393, 110.21057, 396.28772, 0.0, 0.0, 0.0, 0.0], "parents": [2147483647, 0, 0, 1, 1, 2, 2], "right_children": [2, 4, 6, -1, -1, -1, -1], "split_conditions": [3.0, 2.0, 1.0, -0.0069870926, 0.006919032, -0.0057584257, 0.00013464979], "split_indices": [12, 11, 6, 0, 0, 0, 0], "split_type": [0, 0, 0, 0, 0, 0, 0], "sum_hessian": [7024.0664, 876.6872, 6147.3794, 56.569897, 820.1173, 1506.774, 4640.605], "tree_param": {"num_deleted": "0", "num_feature": "23", "num_nodes": "7", "size_leaf_vector": "1"}}, {"base_weights": [0.0005758086, -0.11291193, 0.5342687, -2.6923162e-06, -0.005694443, 0.0011454223, 0.006427001], "categories": [], "categories_nodes": [], "categories_segments": [], "categories_sizes": [], "default_left": [0, 0, 0, 0, 0, 0, 0], "id": 63, "left_children": [1, 3, 5, -1, -1, -1, -1], "loss_changes": [432.31265, 301.74615, 55.85373, 0.0, 0.0, 0.0, 0.0], "parents": [2147483647, 0, 0, 1, 1, 2, 2], "right_children": [2, 4, 6, -1, -1, -1, -1], "split_conditions": [9999.0, 3975.0, 1.0, -2.6923162e-06, -0.005694443, 0.0011454223, 0.006427001], "split_indices": [16, 16, 2, 0, 0, 0, 0], "split_type": [0, 0, 0, 0, 0, 0, 0], "sum_hessian": [7120.752, 5873.7827, 1246.969, 4717.1006, 1156.6824, 260.0085, 986.9605], "tree_param": {"num_deleted": "0", "num_feature": "23", "num_nodes": "7", "size_leaf_vector": "1"}}, {"base_weights": [0.052135404, -0.058120273, 0.55385906, 5.384775e-05, -0.0059445915, -3.6798432e-05, 0.0072382987], "categories": [], "categories_nodes": [], "categories_segments": [], "categories_sizes": [], "default_left": [0, 0, 0, 0, 0, 0, 0], "id": 64, "left_children": [1, 3, 5, -1, -1, -1, -1], "loss_changes": [406.92252, 205.78204, 126.32205, 0.0, 0.0, 0.0, 0.0], "parents": [2147483647, 0, 0, 1, 1, 2, 2], "right_children": [2, 4, 6, -1, -1, -1, -1], "split_conditions": [9999.0, 206.0, 0.41666666, 5.384775e-05, -0.0059445915, -3.6798432e-05, 0.0072382987], "split_indices": [16, 0, 11, 0, 0, 0, 0], "split_type": [0, 0, 0, 0, 0, 0, 0], "sum_hessian": [7339.2046, 6018.946, 1320.2585, 5384.483, 634.46277, 308.22528, 1012.03326], "tree_param": {"num_deleted": "0", "num_feature": "23", "num_nodes": "7", "size_leaf_vector": "1"}}, {"base_weights": [0.026604854, 0.32460478, -0.2538478, 0.0061488524, 0.0019849665, -0.002074636, -0.017134223], "categories": [], "categories_nodes": [], "categories_segments": [], "categories_sizes": [], "default_left": [0, 0, 0, 0, 0, 0, 0], "id": 65, "left_children": [1, 3, 5, -1, -1, -1, -1], "loss_changes": [606.09174, 127.32837, 249.1073, 0.0, 0.0, 0.0, 0.0], "parents": [2147483647, 0, 0, 1, 1, 2, 2], "right_children": [2, 4, 6, -1, -1, -1, -1], "split_conditions": [4.0, 52.0, 288.0, 0.0061488524, 0.0019849665, -0.002074636, -0.017134223], "split_indices": [12, 0, 0, 0, 0, 0, 0], "split_type": [0, 0, 0, 0, 0, 0, 0], "sum_hessian": [7241.305, 3512.168, 3729.1375, 1055.4299, 2456.738, 3620.477, 108.66025], "tree_param": {"num_deleted": "0", "num_feature": "23", "num_nodes": "7", "size_leaf_vector": "1"}}, {"base_weights": [-0.037378863, 0.26846823, -0.32736024, 0.009335863, 0.0016605484, -0.0027815958, -0.009800906], "categories": [], "categories_nodes": [], "categories_segments": [], "categories_sizes": [], "default_left": [0, 0, 0, 0, 0, 0, 0], "id": 66, "left_children": [1, 3, 5, -1, -1, -1, -1], "loss_changes": [625.82025, 231.93831, 113.73462, 0.0, 0.0, 0.0, 0.0], "parents": [2147483647, 0, 0, 1, 1, 2, 2], "right_children": [2, 4, 6, -1, -1, -1, -1], "split_conditions": [4.0, 30.0, 3.0, 0.009335863, 0.0016605484, -0.0027815958, -0.009800906], "split_indices": [12, 0, 22, 0, 0, 0, 0], "split_type": [0, 0, 0, 0, 0, 0, 0], "sum_hessian": [7045.6504, 3427.5215, 3618.1287, 450.62418, 2976.8975, 3372.5776, 245.55107], "tree_param": {"num_deleted": "0", "num_feature": "23", "num_nodes": "7", "size_leaf_vector": "1"}}, {"base_weights": [0.024168858, -0.09116689, 0.3387973, -0.0012543097, 0.007433913, 0.0039507905, -0.009412308], "categories": [], "categories_nodes": [], "categories_segments": [], "categories_sizes": [], "default_left": [0, 0, 0, 0, 0, 0, 0], "id": 67, "left_children": [1, 3, 5, -1, -1, -1, -1], "loss_changes": [263.1811, 151.4215, 141.49893, 0.0, 0.0, 0.0, 0.0], "parents": [2147483647, 0, 0, 1, 1, 2, 2], "right_children": [2, 4, 6, -1, -1, -1, -1], "split_conditions": [1.0, 1574.0, 1.0, -0.0012543097, 0.007433913, 0.0039507905, -0.009412308], "split_indices": [20, 17, 15, 0, 0, 0, 0], "split_type": [0, 0, 0, 0, 0, 0, 0], "sum_hessian": [7236.504, 5295.6206, 1940.8833, 5092.0073, 203.6135, 1863.198, 77.685234], "tree_param": {"num_deleted": "0", "num_feature": "23", "num_nodes": "7", "size_leaf_vector": "1"}}, {"base_weights": [-0.00466912, 0.10999151, -0.47121635, 0.003163194, -0.0011738706, -0.005235585, 0.013223137], "categories": [], "categories_nodes": [], "categories_segments": [], "categories_sizes": [], "default_left": [0, 0, 0, 0, 0, 0, 0], "id": 68, "left_children": [1, 3, 5, -1, -1, -1, -1], "loss_changes": [385.28036, 271.28787, 136.08441, 0.0, 0.0, 0.0, 0.0], "parents": [2147483647, 0, 0, 1, 1, 2, 2], "right_children": [2, 4, 6, -1, -1, -1, -1], "split_conditions": [162.0, 1.0, 1663.0, 0.003163194, -0.0011738706, -0.005235585, 0.013223137], "split_indices": [0, 21, 17, 0, 0, 0, 0], "split_type": [0, 0, 0, 0, 0, 0, 0], "sum_hessian": [7185.633, 5769.3984, 1416.2343, 3025.9934, 2743.405, 1380.0568, 36.17744], "tree_param": {"num_deleted": "0", "num_feature": "23", "num_nodes": "7", "size_leaf_vector": "1"}}, {"base_weights": [-0.031844754, 0.24666171, -0.3138452, 0.0034116076, -0.003242151, 0.00026439416, -0.0056964816], "categories": [], "categories_nodes": [], "categories_segments": [], "categories_sizes": [], "default_left": [0, 0, 0, 0, 0, 0, 0], "id": 69, "left_children": [1, 3, 5, -1, -1, -1, -1], "loss_changes": [552.11066, 191.26839, 304.76395, 0.0, 0.0, 0.0, 0.0], "parents": [2147483647, 0, 0, 1, 1, 2, 2], "right_children": [2, 4, 6, -1, -1, -1, -1], "split_conditions": [1.0, 156.0, 4.0, 0.0034116076, -0.003242151, 0.00026439416, -0.0056964816], "split_indices": [21, 0, 12, 0, 0, 0, 0], "split_type": [0, 0, 0, 0, 0, 0, 0], "sum_hessian": [7018.9854, 3529.9004, 3489.0847, 3031.8005, 498.09988, 1497.54, 1991.5446], "tree_param": {"num_deleted": "0", "num_feature": "23", "num_nodes": "7", "size_leaf_vector": "1"}}, {"base_weights": [0.056604754, 0.32420897, -0.19706923, 0.0020075643, 0.006798344, -0.00690303, -0.0003458228], "categories": [], "categories_nodes": [], "categories_segments": [], "categories_sizes": [], "default_left": [0, 0, 0, 0, 0, 0, 0], "id": 70, "left_children": [1, 3, 5, -1, -1, -1, -1], "loss_changes": [501.36942, 156.2568, 302.84766, 0.0, 0.0, 0.0, 0.0], "parents": [2147483647, 0, 0, 1, 1, 2, 2], "right_children": [2, 4, 6, -1, -1, -1, -1], "split_conditions": [4.0, 5139.0, 1.0, 0.0020075643, 0.006798344, -0.00690303, -0.0003458228], "split_indices": [12, 16, 6, 0, 0, 0, 0], "split_type": [0, 0, 0, 0, 0, 0, 0], "sum_hessian": [7374.075, 3589.7498, 3784.3254, 2672.6094, 917.14044, 932.2023, 2852.123], "tree_param": {"num_deleted": "0", "num_feature": "23", "num_nodes": "7", "size_leaf_vector": "1"}}, {"base_weights": [-0.0038809457, 0.2405566, -0.22430517, 0.0027612783, -0.008773673, -0.0031342988, 0.001318773], "categories": [], "categories_nodes": [], "categories_segments": [], "categories_sizes": [], "default_left": [0, 0, 0, 0, 0, 0, 0], "id": 71, "left_children": [1, 3, 5, -1, -1, -1, -1], "loss_changes": [385.08517, 135.29654, 119.76117, 0.0, 0.0, 0.0, 0.0], "parents": [2147483647, 0, 0, 1, 1, 2, 2], "right_children": [2, 4, 6, -1, -1, -1, -1], "split_conditions": [4.0, 2232.0, 1.0, 0.0027612783, -0.008773673, -0.0031342988, 0.001318773], "split_indices": [12, 2, 20, 0, 0, 0, 0], "split_type": [0, 0, 0, 0, 0, 0, 0], "sum_hessian": [7137.3896, 3381.9795, 3755.4104, 3282.2024, 99.77695, 3006.5203, 748.89014], "tree_param": {"num_deleted": "0", "num_feature": "23", "num_nodes": "7", "size_leaf_vector": "1"}}, {"base_weights": [-0.049842235, -0.15552416, 0.45244175, 6.0173345e-05, -0.004643542, 0.006269477, 0.00094947603], "categories": [], "categories_nodes": [], "categories_segments": [], "categories_sizes": [], "default_left": [0, 0, 0, 0, 0, 0, 0], "id": 72, "left_children": [1, 3, 5, -1, -1, -1, -1], "loss_changes": [371.09933, 288.84418, 74.75894, 0.0, 0.0, 0.0, 0.0], "parents": [2147483647, 0, 0, 1, 1, 2, 2], "right_children": [2, 4, 6, -1, -1, -1, -1], "split_conditions": [9999.0, 3014.0, 66.0, 6.0173345e-05, -0.004643542, 0.006269477, 0.00094947603], "split_indices": [16, 16, 0, 0, 0, 0, 0], "split_type": [0, 0, 0, 0, 0, 0, 0], "sum_hessian": [6984.978, 5775.285, 1209.6931, 3792.9497, 1982.3352, 808.479, 401.21405], "tree_param": {"num_deleted": "0", "num_feature": "23", "num_nodes": "7", "size_leaf_vector": "1"}}, {"base_weights": [-0.043944333, -0.15247922, 0.45515302, -0.006025932, -3.9821738e-05, 0.00043765167, 0.005461369], "categories": [], "categories_nodes": [], "categories_segments": [], "categories_sizes": [], "default_left": [0, 0, 0, 0, 0, 0, 0], "id": 73, "left_children": [1, 3, 5, -1, -1, -1, -1], "loss_changes": [378.90378, 383.7215, 46.03528, 0.0, 0.0, 0.0, 0.0], "parents": [2147483647, 0, 0, 1, 1, 2, 2], "right_children": [2, 4, 6, -1, -1, -1, -1], "split_conditions": [9999.0, 1.0, 1.0, -0.006025932, -3.9821738e-05, 0.00043765167, 0.005461369], "split_indices": [16, 6, 14, 0, 0, 0, 0], "split_type": [0, 0, 0, 0, 0, 0, 0], "sum_hessian": [6988.9663, 5745.0996, 1243.8668, 1419.7196, 4325.38, 228.6068, 1015.25995], "tree_param": {"num_deleted": "0", "num_feature": "23", "num_nodes": "7", "size_leaf_vector": "1"}}, {"base_weights": [0.019594276, 0.2568472, -0.18986255, -0.0028301755, 0.0033507287, -0.005999998, -0.0005461421], "categories": [], "categories_nodes": [], "categories_segments": [], "categories_sizes": [], "default_left": [0, 0, 0, 0, 0, 0, 0], "id": 74, "left_children": [1, 3, 5, -1, -1, -1, -1], "loss_changes": [357.18646, 142.91528, 210.78882, 0.0, 0.0, 0.0, 0.0], "parents": [2147483647, 0, 0, 1, 1, 2, 2], "right_children": [2, 4, 6, -1, -1, -1, -1], "split_conditions": [4.0, 2.0, 1.0, -0.0028301755, 0.0033507287, -0.005999998, -0.0005461421], "split_indices": [12, 11, 6, 0, 0, 0, 0], "split_type": [0, 0, 0, 0, 0, 0, 0], "sum_hessian": [7176.4287, 3366.6492, 3809.7795, 422.8094, 2943.8396, 938.67993, 2871.0994], "tree_param": {"num_deleted": "0", "num_feature": "23", "num_nodes": "7", "size_leaf_vector": "1"}}, {"base_weights": [-0.022124559, -0.09086393, 0.3275833, -0.00034666242, -0.0062463316, 0.004231578, -0.007983169], "categories": [], "categories_nodes": [], "categories_segments": [], "categories_sizes": [], "default_left": [0, 0, 0, 0, 0, 0, 0], "id": 75, "left_children": [1, 3, 5, -1, -1, -1, -1], "loss_changes": [170.9465, 177.78638, 126.94428, 0.0, 0.0, 0.0, 0.0], "parents": [2147483647, 0, 0, 1, 1, 2, 2], "right_children": [2, 4, 6, -1, -1, -1, -1], "split_conditions": [9999.0, 5265.0, 3.0, -0.00034666242, -0.0062463316, 0.004231578, -0.007983169], "split_indices": [16, 16, 18, 0, 0, 0, 0], "split_type": [0, 0, 0, 0, 0, 0, 0], "sum_hessian": [7109.9614, 5947.473, 1162.4884, 5387.455, 560.0178, 1075.2245, 87.26382], "tree_param": {"num_deleted": "0", "num_feature": "23", "num_nodes": "7", "size_leaf_vector": "1"}}, {"base_weights": [-0.009059546, 0.23387834, -0.22993262, 0.008295438, 0.0016834679, 0.00031409465, -0.004285013], "categories": [], "categories_nodes": [], "categories_segments": [], "categories_sizes": [], "default_left": [0, 0, 0, 0, 0, 0, 0], "id": 76, "left_children": [1, 3, 5, -1, -1, -1, -1], "loss_changes": [384.7911, 131.52818, 195.49515, 0.0, 0.0, 0.0, 0.0], "parents": [2147483647, 0, 0, 1, 1, 2, 2], "right_children": [2, 4, 6, -1, -1, -1, -1], "split_conditions": [4.0, 25.0, 1.0, 0.008295438, 0.0016834679, 0.00031409465, -0.004285013], "split_indices": [12, 0, 21, 0, 0, 0, 0], "split_type": [0, 0, 0, 0, 0, 0, 0], "sum_hessian": [7161.1826, 3407.9558, 3753.2266, 330.47418, 3077.4817, 1620.1166, 2133.1099], "tree_param": {"num_deleted": "0", "num_feature": "23", "num_nodes": "7", "size_leaf_vector": "1"}}, {"base_weights": [0.028222684, 0.2927936, -0.21973045, -0.0008918691, 0.004150599, -0.0062647928, -0.000822861], "categories": [], "categories_nodes": [], "categories_segments": [], "categories_sizes": [], "default_left": [0, 0, 0, 0, 0, 0, 0], "id": 77, "left_children": [1, 3, 5, -1, -1, -1, -1], "loss_changes": [472.44037, 163.28534, 206.74428, 0.0, 0.0, 0.0, 0.0], "parents": [2147483647, 0, 0, 1, 1, 2, 2], "right_children": [2, 4, 6, -1, -1, -1, -1], "split_conditions": [4.0, 1.0, 1.0, -0.0008918691, 0.004150599, -0.0062647928, -0.000822861], "split_indices": [12, 6, 6, 0, 0, 0, 0], "split_type": [0, 0, 0, 0, 0, 0, 0], "sum_hessian": [7190.6865, 3480.2834, 3710.403, 842.22, 2638.0635, 930.7885, 2779.6145], "tree_param": {"num_deleted": "0", "num_feature": "23", "num_nodes": "7", "size_leaf_vector": "1"}}, {"base_weights": [0.08741224, -0.0076812697, 0.523723, 0.00094219623, -0.004490404, 0.008771778, 0.0031141778], "categories": [], "categories_nodes": [], "categories_segments": [], "categories_sizes": [], "default_left": [0, 0, 0, 0, 0, 0, 0], "id": 78, "left_children": [1, 3, 5, -1, -1, -1, -1], "loss_changes": [309.57498, 275.75052, 97.61212, 0.0, 0.0, 0.0, 0.0], "parents": [2147483647, 0, 0, 1, 1, 2, 2], "right_children": [2, 4, 6, -1, -1, -1, -1], "split_conditions": [9999.0, 4075.0, 3.0, 0.00094219623, -0.004490404, 0.008771778, 0.0031141778], "split_indices": [16, 16, 12, 0, 0, 0, 0], "split_type": [0, 0, 0, 0, 0, 0, 0], "sum_hessian": [7443.455, 6113.618, 1329.837, 4968.2227, 1145.3953, 491.38678, 838.45026], "tree_param": {"num_deleted": "0", "num_feature": "23", "num_nodes": "7", "size_leaf_vector": "1"}}, {"base_weights": [0.041873984, 0.58815014, -0.03317511, 0.0077425977, -0.00044342724, 0.001511689, -0.0019170797], "categories": [], "categories_nodes": [], "categories_segments": [], "categories_sizes": [], "default_left": [0, 0, 0, 0, 0, 0, 0], "id": 79, "left_children": [1, 3, 5, -1, -1, -1, -1], "loss_changes": [296.62076, 103.76764, 185.77037, 0.0, 0.0, 0.0, 0.0], "parents": [2147483647, 0, 0, 1, 1, 2, 2], "right_children": [2, 4, 6, -1, -1, -1, -1], "split_conditions": [3.0, 300.0, 1.0, 0.0077425977, -0.00044342724, 0.001511689, -0.0019170797], "split_indices": [12, 2, 21, 0, 0, 0, 0], "split_type": [0, 0, 0, 0, 0, 0, 0], "sum_hessian": [7214.1724, 868.87115, 6345.3013, 671.6886, 197.18256, 2931.01, 3414.2913], "tree_param": {"num_deleted": "0", "num_feature": "23", "num_nodes": "7", "size_leaf_vector": "1"}}, {"base_weights": [0.027751097, -0.3758806, 0.15732282, -1.0777131e-05, -0.007457921, 0.0018413235, -0.017753264], "categories": [], "categories_nodes": [], "categories_segments": [], "categories_sizes": [], "default_left": [0, 0, 0, 0, 0, 0, 0], "id": 80, "left_children": [1, 3, 5, -1, -1, -1, -1], "loss_changes": [381.44385, 244.87112, 286.33344, 0.0, 0.0, 0.0, 0.0], "parents": [2147483647, 0, 0, 1, 1, 2, 2], "right_children": [2, 4, 6, -1, -1, -1, -1], "split_conditions": [1.0, 4.0, 4.0, -1.0777131e-05, -0.007457921, 0.0018413235, -0.017753264], "split_indices": [6, 12, 22, 0, 0, 0, 0], "split_type": [0, 0, 0, 0, 0, 0, 0], "sum_hessian": [7287.0107, 1766.6035, 5520.407, 881.33374, 885.2698, 5449.8486, 70.558716], "tree_param": {"num_deleted": "0", "num_feature": "23", "num_nodes": "7", "size_leaf_vector": "1"}}, {"base_weights": [-0.0391204, 0.20163916, -0.253996, -0.0049306867, 0.002782184, -0.002834659, 0.008941993], "categories": [], "categories_nodes": [], "categories_segments": [], "categories_sizes": [], "default_left": [0, 0, 0, 0, 0, 0, 0], "id": 81, "left_children": [1, 3, 5, -1, -1, -1, -1], "loss_changes": [361.94113, 175.88258, 125.790695, 0.0, 0.0, 0.0, 0.0], "parents": [2147483647, 0, 0, 1, 1, 2, 2], "right_children": [2, 4, 6, -1, -1, -1, -1], "split_conditions": [4.0, 476.0, 1574.0, -0.0049306867, 0.002782184, -0.002834659, 0.008941993], "split_indices": [12, 16, 17, 0, 0, 0, 0], "split_type": [0, 0, 0, 0, 0, 0, 0], "sum_hessian": [6985.3193, 3292.1975, 3693.1218, 322.87784, 2969.3196, 3605.2256, 87.89615], "tree_param": {"num_deleted": "0", "num_feature": "23", "num_nodes": "7", "size_leaf_vector": "1"}}, {"base_weights": [-0.026542826, 0.2279465, -0.25969353, 0.0016510093, 0.012488072, -0.0061708367, -0.0013611639], "categories": [], "categories_nodes": [], "categories_segments": [], "categories_sizes": [], "default_left": [0, 0, 0, 0, 0, 0, 0], "id": 82, "left_children": [1, 3, 5, -1, -1, -1, -1], "loss_changes": [416.9008, 212.95369, 160.842, 0.0, 0.0, 0.0, 0.0], "parents": [2147483647, 0, 0, 1, 1, 2, 2], "right_children": [2, 4, 6, -1, -1, -1, -1], "split_conditions": [4.0, 1.0, 1.0, 0.0016510093, 0.012488072, -0.0061708367, -0.0013611639], "split_indices": [12, 10, 6, 0, 0, 0, 0], "split_type": [0, 0, 0, 0, 0, 0, 0], "sum_hessian": [7015.772, 3352.3872, 3663.3848, 3164.3723, 188.0149, 934.04083, 2729.3438], "tree_param": {"num_deleted": "0", "num_feature": "23", "num_nodes": "7", "size_leaf_vector": "1"}}, {"base_weights": [-0.028034551, 0.24576083, -0.29330498, 0.0011504809, 0.0060561965, -0.0031674262, 0.011870358], "categories": [], "categories_nodes": [], "categories_segments": [], "categories_sizes": [], "default_left": [0, 0, 0, 0, 0, 0, 0], "id": 83, "left_children": [1, 3, 5, -1, -1, -1, -1], "loss_changes": [514.6963, 162.8754, 125.93506, 0.0, 0.0, 0.0, 0.0], "parents": [2147483647, 0, 0, 1, 1, 2, 2], "right_children": [2, 4, 6, -1, -1, -1, -1], "split_conditions": [4.0, 5139.0, 1663.0, 0.0011504809, 0.0060561965, -0.0031674262, 0.011870358], "split_indices": [12, 16, 17, 0, 0, 0, 0], "split_type": [0, 0, 0, 0, 0, 0, 0], "sum_hessian": [7075.9536, 3480.3518, 3595.6016, 2559.8914, 920.46045, 3544.095, 51.50656], "tree_param": {"num_deleted": "0", "num_feature": "23", "num_nodes": "7", "size_leaf_vector": "1"}}, {"base_weights": [-0.107417464, -0.6065457, 0.04900521, 0.0058227438, -0.0064888224, 0.0029810453, -0.0017637], "categories": [], "categories_nodes": [], "categories_segments": [], "categories_sizes": [], "default_left": [0, 0, 0, 0, 0, 0, 0], "id": 84, "left_children": [1, 3, 5, -1, -1, -1, -1], "loss_changes": [529.5271, 83.39465, 290.08044, 0.0, 0.0, 0.0, 0.0], "parents": [2147483647, 0, 0, 1, 1, 2, 2], "right_children": [2, 4, 6, -1, -1, -1, -1], "split_conditions": [1.0, 1.0, 4.0, 0.0058227438, -0.0064888224, 0.0029810453, -0.0017637], "split_indices": [6, 12, 12, 0, 0, 0, 0], "split_type": [0, 0, 0, 0, 0, 0, 0], "sum_hessian": [6768.2446, 1613.0804, 5155.164, 52.46499, 1560.6155, 2450.0422, 2705.122], "tree_param": {"num_deleted": "0", "num_feature": "23", "num_nodes": "7", "size_leaf_vector": "1"}}, {"base_weights": [0.026302328, -0.07793741, 0.50597554, -0.00028399535, -0.009624302, -0.0007110629, 0.006139502], "categories": [], "categories_nodes": [], "categories_segments": [], "categories_sizes": [], "default_left": [0, 0, 0, 0, 0, 0, 0], "id": 85, "left_children": [1, 3, 5, -1, -1, -1, -1], "loss_changes": [359.4607, 257.29993, 80.738495, 0.0, 0.0, 0.0, 0.0], "parents": [2147483647, 0, 0, 1, 1, 2, 2], "right_children": [2, 4, 6, -1, -1, -1, -1], "split_conditions": [9999.0, 5930.0, 1.0, -0.00028399535, -0.009624302, -0.0007110629, 0.006139502], "split_indices": [16, 16, 8, 0, 0, 0, 0], "split_type": [0, 0, 0, 0, 0, 0, 0], "sum_hessian": [7171.565, 5893.03, 1278.5354, 5586.4404, 306.58917, 200.32481, 1078.2107], "tree_param": {"num_deleted": "0", "num_feature": "23", "num_nodes": "7", "size_leaf_vector": "1"}}, {"base_weights": [0.015500452, 0.24564828, -0.20153007, -0.009487167, 0.0029995558, 0.001008696, -0.0042313887], "categories": [], "categories_nodes": [], "categories_segments": [], "categories_sizes": [], "default_left": [0, 0, 0, 0, 0, 0, 0], "id": 86, "left_children": [1, 3, 5, -1, -1, -1, -1], "loss_changes": [356.81393, 225.76071, 246.75021, 0.0, 0.0, 0.0, 0.0], "parents": [2147483647, 0, 0, 1, 1, 2, 2], "right_children": [2, 4, 6, -1, -1, -1, -1], "split_conditions": [1.0, 476.0, 4.0, -0.009487167, 0.0029995558, 0.001008696, -0.0042313887], "split_indices": [21, 16, 12, 0, 0, 0, 0], "split_type": [0, 0, 0, 0, 0, 0, 0], "sum_hessian": [7132.711, 3463.6582, 3669.053, 146.25922, 3317.399, 1550.9254, 2118.1277], "tree_param": {"num_deleted": "0", "num_feature": "23", "num_nodes": "7", "size_leaf_vector": "1"}}, {"base_weights": [0.027216014, -0.09667957, 0.55257434, 0.0014624702, -0.002925415, -6.521169e-05, 0.007273591], "categories": [], "categories_nodes": [], "categories_segments": [], "categories_sizes": [], "default_left": [0, 0, 0, 0, 0, 0, 0], "id": 87, "left_children": [1, 3, 5, -1, -1, -1, -1], "loss_changes": [473.0163, 279.85083, 136.27826, 0.0, 0.0, 0.0, 0.0], "parents": [2147483647, 0, 0, 1, 1, 2, 2], "right_children": [2, 4, 6, -1, -1, -1, -1], "split_conditions": [9999.0, 2032.0, 1.4166666, 0.0014624702, -0.002925415, -6.521169e-05, 0.007273591], "split_indices": [16, 16, 11, 0, 0, 0, 0], "split_type": [0, 0, 0, 0, 0, 0, 0], "sum_hessian": [7251.0513, 5869.1113, 1381.9398, 2618.0803, 3251.031, 328.9138, 1053.026], "tree_param": {"num_deleted": "0", "num_feature": "23", "num_nodes": "7", "size_leaf_vector": "1"}}, {"base_weights": [-0.012430156, 0.24657421, -0.25076562, 0.0009905169, 0.0063625593, -0.0040921494, 0.0030617586], "categories": [], "categories_nodes": [], "categories_segments": [], "categories_sizes": [], "default_left": [0, 0, 0, 0, 0, 0, 0], "id": 88, "left_children": [1, 3, 5, -1, -1, -1, -1], "loss_changes": [439.8644, 195.14206, 328.36646, 0.0, 0.0, 0.0, 0.0], "parents": [2147483647, 0, 0, 1, 1, 2, 2], "right_children": [2, 4, 6, -1, -1, -1, -1], "split_conditions": [4.0, 5139.0, 1.0, 0.0009905169, 0.0063625593, -0.0040921494, 0.0030617586], "split_indices": [12, 16, 20, 0, 0, 0, 0], "split_type": [0, 0, 0, 0, 0, 0, 0], "sum_hessian": [7115.5513, 3407.8247, 3707.7266, 2478.4067, 929.41797, 2888.9458, 818.7807], "tree_param": {"num_deleted": "0", "num_feature": "23", "num_nodes": "7", "size_leaf_vector": "1"}}, {"base_weights": [-0.025244657, 0.17088825, -0.20991983, 0.00051252125, 0.0056243027, -3.970009e-05, -0.0043525444], "categories": [], "categories_nodes": [], "categories_segments": [], "categories_sizes": [], "default_left": [0, 0, 0, 0, 0, 0, 0], "id": 89, "left_children": [1, 3, 5, -1, -1, -1, -1], "loss_changes": [255.68713, 159.47018, 168.36063, 0.0, 0.0, 0.0, 0.0], "parents": [2147483647, 0, 0, 1, 1, 2, 2], "right_children": [2, 4, 6, -1, -1, -1, -1], "split_conditions": [1.0, 9971.0, -41.0, 0.00051252125, 0.0056243027, -3.970009e-05, -0.0043525444], "split_indices": [21, 16, 3, 0, 0, 0, 0], "split_type": [0, 0, 0, 0, 0, 0, 0], "sum_hessian": [7048.08, 3415.564, 3632.5164, 2622.4727, 793.0911, 1902.87, 1729.6462], "tree_param": {"num_deleted": "0", "num_feature": "23", "num_nodes": "7", "size_leaf_vector": "1"}}, {"base_weights": [0.005718893, -0.09038779, 0.46091855, -0.002010482, 0.0020470384, 0.0061830864, -0.0053770337], "categories": [], "categories_nodes": [], "categories_segments": [], "categories_sizes": [], "default_left": [0, 0, 0, 0, 0, 0, 0], "id": 90, "left_children": [1, 3, 5, -1, -1, -1, -1], "loss_changes": [311.0287, 191.61421, 196.59213, 0.0, 0.0, 0.0, 0.0], "parents": [2147483647, 0, 0, 1, 1, 2, 2], "right_children": [2, 4, 6, -1, -1, -1, -1], "split_conditions": [9999.0, 1.0, 643.0, -0.002010482, 0.0020470384, 0.0061830864, -0.0053770337], "split_indices": [16, 20, 2, 0, 0, 0, 0], "split_type": [0, 0, 0, 0, 0, 0, 0], "sum_hessian": [7091.3643, 5856.6543, 1234.71, 4262.9976, 1593.6569, 1069.1152, 165.59482], "tree_param": {"num_deleted": "0", "num_feature": "23", "num_nodes": "7", "size_leaf_vector": "1"}}, {"base_weights": [-0.03537882, 0.20501691, -0.25635114, -0.0025079176, 0.0034810577, -0.0027904569, 0.011993554], "categories": [], "categories_nodes": [], "categories_segments": [], "categories_sizes": [], "default_left": [0, 0, 0, 0, 0, 0, 0], "id": 91, "left_children": [1, 3, 5, -1, -1, -1, -1], "loss_changes": [371.6493, 218.93732, 121.22867, 0.0, 0.0, 0.0, 0.0], "parents": [2147483647, 0, 0, 1, 1, 2, 2], "right_children": [2, 4, 6, -1, -1, -1, -1], "split_conditions": [4.0, 1.0, 1663.0, -0.0025079176, 0.0034810577, -0.0027904569, 0.011993554], "split_indices": [12, 6, 17, 0, 0, 0, 0], "split_type": [0, 0, 0, 0, 0, 0, 0], "sum_hessian": [6985.391, 3343.66, 3641.7312, 796.2999, 2547.3599, 3590.484, 51.247364], "tree_param": {"num_deleted": "0", "num_feature": "23", "num_nodes": "7", "size_leaf_vector": "1"}}, {"base_weights": [0.022630002, 0.22163686, -0.16583294, 0.002474401, -0.017126873, -0.002206551, 0.0066662095], "categories": [], "categories_nodes": [], "categories_segments": [], "categories_sizes": [], "default_left": [0, 0, 0, 0, 0, 0, 0], "id": 92, "left_children": [1, 3, 5, -1, -1, -1, -1], "loss_changes": [270.71002, 175.96156, 169.33559, 0.0, 0.0, 0.0, 0.0], "parents": [2147483647, 0, 0, 1, 1, 2, 2], "right_children": [2, 4, 6, -1, -1, -1, -1], "split_conditions": [1.0, 4.0, 1552.0, 0.002474401, -0.017126873, -0.002206551, 0.0066662095], "split_indices": [21, 22, 17, 0, 0, 0, 0], "split_type": [0, 0, 0, 0, 0, 0, 0], "sum_hessian": [7206.5034, 3507.352, 3699.1516, 3465.9941, 41.357822, 3475.1665, 223.98499], "tree_param": {"num_deleted": "0", "num_feature": "23", "num_nodes": "7", "size_leaf_vector": "1"}}, {"base_weights": [0.032765273, -0.08724629, 0.5500568, -0.00025389192, -0.0071702236, 0.00060359866, 0.0070754043], "categories": [], "categories_nodes": [], "categories_segments": [], "categories_sizes": [], "default_left": [0, 0, 0, 0, 0, 0, 0], "id": 93, "left_children": [1, 3, 5, -1, -1, -1, -1], "loss_changes": [445.84167, 225.99997, 103.32266, 0.0, 0.0, 0.0, 0.0], "parents": [2147483647, 0, 0, 1, 1, 2, 2], "right_children": [2, 4, 6, -1, -1, -1, -1], "split_conditions": [9999.0, 5265.0, 1.4166666, -0.00025389192, -0.0071702236, 0.00060359866, 0.0070754043], "split_indices": [16, 16, 11, 0, 0, 0, 0], "split_type": [0, 0, 0, 0, 0, 0, 0], "sum_hessian": [7165.296, 5817.7925, 1347.5035, 5303.6533, 514.1395, 331.127, 1016.37646], "tree_param": {"num_deleted": "0", "num_feature": "23", "num_nodes": "7", "size_leaf_vector": "1"}}, {"base_weights": [-0.01650453, -0.34337243, 0.09166969, 0.0030679905, -0.004444745, 0.0017766336, -0.006048093], "categories": [], "categories_nodes": [], "categories_segments": [], "categories_sizes": [], "default_left": [0, 0, 0, 0, 0, 0, 0], "id": 94, "left_children": [1, 3, 5, -1, -1, -1, -1], "loss_changes": [250.74045, 116.75749, 318.8007, 0.0, 0.0, 0.0, 0.0], "parents": [2147483647, 0, 0, 1, 1, 2, 2], "right_children": [2, 4, 6, -1, -1, -1, -1], "split_conditions": [1.0, 3.0, 194.0, 0.0030679905, -0.004444745, 0.0017766336, -0.006048093], "split_indices": [6, 12, 0, 0, 0, 0, 0], "split_type": [0, 0, 0, 0, 0, 0, 0], "sum_hessian": [7074.771, 1758.7535, 5316.0176, 233.98283, 1524.7708, 4736.381, 579.63654], "tree_param": {"num_deleted": "0", "num_feature": "23", "num_nodes": "7", "size_leaf_vector": "1"}}, {"base_weights": [0.037471455, 0.28572652, -0.19545648, -0.0019215099, 0.003616636, 0.000816101, -0.0041268826], "categories": [], "categories_nodes": [], "categories_segments": [], "categories_sizes": [], "default_left": [0, 0, 0, 0, 0, 0, 0], "id": 95, "left_children": [1, 3, 5, -1, -1, -1, -1], "loss_changes": [420.81366, 128.38947, 226.33232, 0.0, 0.0, 0.0, 0.0], "parents": [2147483647, 0, 0, 1, 1, 2, 2], "right_children": [2, 4, 6, -1, -1, -1, -1], "split_conditions": [4.0, 2.0, 1.0, -0.0019215099, 0.003616636, 0.000816101, -0.0041268826], "split_indices": [12, 11, 21, 0, 0, 0, 0], "split_type": [0, 0, 0, 0, 0, 0, 0], "sum_hessian": [7265.908, 3518.763, 3747.145, 479.62534, 3039.1377, 1646.1254, 2101.0195], "tree_param": {"num_deleted": "0", "num_feature": "23", "num_nodes": "7", "size_leaf_vector": "1"}}, {"base_weights": [0.04758795, 0.27293947, -0.16285406, -0.005000596, 0.0037251706, 0.0021190578, -0.002860074], "categories": [], "categories_nodes": [], "categories_segments": [], "categories_sizes": [], "default_left": [0, 0, 0, 0, 0, 0, 0], "id": 96, "left_children": [1, 3, 5, -1, -1, -1, -1], "loss_changes": [347.40018, 273.15247, 175.07858, 0.0, 0.0, 0.0, 0.0], "parents": [2147483647, 0, 0, 1, 1, 2, 2], "right_children": [2, 4, 6, -1, -1, -1, -1], "split_conditions": [4.0, 2.0, 2.0833333, -0.005000596, 0.0037251706, 0.0021190578, -0.002860074], "split_indices": [12, 11, 11, 0, 0, 0, 0], "split_type": [0, 0, 0, 0, 0, 0, 0], "sum_hessian": [7313.4897, 3533.2168, 3780.273, 399.76648, 3133.4504, 932.1093, 2848.1638], "tree_param": {"num_deleted": "0", "num_feature": "23", "num_nodes": "7", "size_leaf_vector": "1"}}, {"base_weights": [0.040725518, -0.28136733, 0.15026557, -0.0042223344, 0.0030049537, -0.002112214, 0.0022066303], "categories": [], "categories_nodes": [], "categories_segments": [], "categories_sizes": [], "default_left": [0, 0, 0, 0, 0, 0, 0], "id": 97, "left_children": [1, 3, 5, -1, -1, -1, -1], "loss_changes": [258.10416, 152.83063, 139.25876, 0.0, 0.0, 0.0, 0.0], "parents": [2147483647, 0, 0, 1, 1, 2, 2], "right_children": [2, 4, 6, -1, -1, -1, -1], "split_conditions": [1.0, 9255.0, 1.0, -0.0042223344, 0.0030049537, -0.002112214, 0.0022066303], "split_indices": [6, 16, 8, 0, 0, 0, 0], "split_type": [0, 0, 0, 0, 0, 0, 0], "sum_hessian": [7308.1724, 1850.365, 5457.8076, 1492.2009, 358.16412, 885.6808, 4572.1265], "tree_param": {"num_deleted": "0", "num_feature": "23", "num_nodes": "7", "size_leaf_vector": "1"}}, {"base_weights": [-0.0797152, 0.12160727, -0.2578221, -0.0065920465, 0.0017403836, -0.016465452, -0.0023707482], "categories": [], "categories_nodes": [], "categories_segments": [], "categories_sizes": [], "default_left": [0, 0, 0, 0, 0, 0, 0], "id": 98, "left_children": [1, 3, 5, -1, -1, -1, -1], "loss_changes": [241.97723, 129.64674, 99.32846, 0.0, 0.0, 0.0, 0.0], "parents": [2147483647, 0, 0, 1, 1, 2, 2], "right_children": [2, 4, 6, -1, -1, -1, -1], "split_conditions": [4.0, -1261.0, 1.0, -0.0065920465, 0.0017403836, -0.016465452, -0.0023707482], "split_indices": [12, 3, 7, 0, 0, 0, 0], "split_type": [0, 0, 0, 0, 0, 0, 0], "sum_hessian": [6735.2397, 3159.6794, 3575.5603, 193.97896, 2965.7004, 46.155014, 3529.4053], "tree_param": {"num_deleted": "0", "num_feature": "23", "num_nodes": "7", "size_leaf_vector": "1"}}, {"base_weights": [0.07656464, 0.28199688, -0.11940216, 0.0038045784, -0.0022024272, -0.005136537, -0.00044667567], "categories": [], "categories_nodes": [], "categories_segments": [], "categories_sizes": [], "default_left": [0, 0, 0, 0, 0, 0, 0], "id": 99, "left_children": [1, 3, 5, -1, -1, -1, -1], "loss_changes": [301.90753, 181.62979, 112.31946, 0.0, 0.0, 0.0, 0.0], "parents": [2147483647, 0, 0, 1, 1, 2, 2], "right_children": [2, 4, 6, -1, -1, -1, -1], "split_conditions": [1.0, 146.0, 1.0, 0.0038045784, -0.0022024272, -0.005136537, -0.00044667567], "split_indices": [21, 0, 8, 0, 0, 0, 0], "split_type": [0, 0, 0, 0, 0, 0, 0], "sum_hessian": [7486.1157, 3656.2122, 3829.9038, 3059.5999, 596.6122, 603.497, 3226.407], "tree_param": {"num_deleted": "0", "num_feature": "23", "num_nodes": "7", "size_leaf_vector": "1"}}, {"base_weights": [0.057121117, -0.014167663, 0.41364753, -0.0030941444, 0.00087994826, 0.005224535, -0.0010492334], "categories": [], "categories_nodes": [], "categories_segments": [], "categories_sizes": [], "default_left": [0, 0, 0, 0, 0, 0, 0], "id": 100, "left_children": [1, 3, 5, -1, -1, -1, -1], "loss_changes": [184.79645, 182.77373, 69.03496, 0.0, 0.0, 0.0, 0.0], "parents": [2147483647, 0, 0, 1, 1, 2, 2], "right_children": [2, 4, 6, -1, -1, -1, -1], "split_conditions": [9999.0, 1.0, 643.0, -0.0030941444, 0.00087994826, 0.005224535, -0.0010492334], "split_indices": [16, 6, 2, 0, 0, 0, 0], "split_type": [0, 0, 0, 0, 0, 0, 0], "sum_hessian": [7248.906, 6042.6514, 1206.2542, 1553.3007, 4489.351, 998.61646, 207.63766], "tree_param": {"num_deleted": "0", "num_feature": "23", "num_nodes": "7", "size_leaf_vector": "1"}}, {"base_weights": [-0.02513538, 0.20494299, -0.23068641, 0.0032899415, -0.0019093977, -0.007199596, -0.0007550989], "categories": [], "categories_nodes": [], "categories_segments": [], "categories_sizes": [], "default_left": [0, 0, 0, 0, 0, 0, 0], "id": 101, "left_children": [1, 3, 5, -1, -1, -1, -1], "loss_changes": [334.55902, 164.26675, 282.73328, 0.0, 0.0, 0.0, 0.0], "parents": [2147483647, 0, 0, 1, 1, 2, 2], "right_children": [2, 4, 6, -1, -1, -1, -1], "split_conditions": [4.0, 24.5, 1.0, 0.0032899415, -0.0019093977, -0.007199596, -0.0007550989], "split_indices": [12, 11, 6, 0, 0, 0, 0], "split_type": [0, 0, 0, 0, 0, 0, 0], "sum_hessian": [7063.6562, 3330.6865, 3732.97, 2538.5837, 792.1027, 892.9252, 2840.0447], "tree_param": {"num_deleted": "0", "num_feature": "23", "num_nodes": "7", "size_leaf_vector": "1"}}, {"base_weights": [-0.06073096, 0.16337053, -0.26176456, 0.0073393965, 0.00097580586, -0.00291762, 0.0138580585], "categories": [], "categories_nodes": [], "categories_segments": [], "categories_sizes": [], "default_left": [0, 0, 0, 0, 0, 0, 0], "id": 102, "left_children": [1, 3, 5, -1, -1, -1, -1], "loss_changes": [311.4706, 121.43404, 181.07315, 0.0, 0.0, 0.0, 0.0], "parents": [2147483647, 0, 0, 1, 1, 2, 2], "right_children": [2, 4, 6, -1, -1, -1, -1], "split_conditions": [4.0, 28.0, 1663.0, 0.0073393965, 0.00097580586, -0.00291762, 0.0138580585], "split_indices": [12, 0, 17, 0, 0, 0, 0], "split_type": [0, 0, 0, 0, 0, 0, 0], "sum_hessian": [6901.6606, 3261.6782, 3639.9822, 330.38718, 2931.291, 3579.531, 60.451275], "tree_param": {"num_deleted": "0", "num_feature": "23", "num_nodes": "7", "size_leaf_vector": "1"}}, {"base_weights": [-0.082079716, -0.18319498, 0.39621797, -0.0021545347, 0.008425239, 0.0048492923, -0.013771989], "categories": [], "categories_nodes": [], "categories_segments": [], "categories_sizes": [], "default_left": [0, 0, 0, 0, 0, 0, 0], "id": 103, "left_children": [1, 3, 5, -1, -1, -1, -1], "loss_changes": [329.81326, 186.63307, 189.56728, 0.0, 0.0, 0.0, 0.0], "parents": [2147483647, 0, 0, 1, 1, 2, 2], "right_children": [2, 4, 6, -1, -1, -1, -1], "split_conditions": [9999.0, 1663.0, 21.0, -0.0021545347, 0.008425239, 0.0048492923, -0.013771989], "split_indices": [16, 17, 3, 0, 0, 0, 0], "split_type": [0, 0, 0, 0, 0, 0, 0], "sum_hessian": [6811.4097, 5627.001, 1184.409, 5460.204, 166.79684, 1131.9808, 52.428192], "tree_param": {"num_deleted": "0", "num_feature": "23", "num_nodes": "7", "size_leaf_vector": "1"}}, {"base_weights": [0.013964093, -0.31239522, 0.12277469, -0.0059862304, 0.0017483046, 0.0030769196, -0.0007032319], "categories": [], "categories_nodes": [], "categories_segments": [], "categories_sizes": [], "default_left": [0, 0, 0, 0, 0, 0, 0], "id": 104, "left_children": [1, 3, 5, -1, -1, -1, -1], "loss_changes": [254.01805, 250.25293, 192.10736, 0.0, 0.0, 0.0, 0.0], "parents": [2147483647, 0, 0, 1, 1, 2, 2], "right_children": [2, 4, 6, -1, -1, -1, -1], "split_conditions": [1.0, 17.666666, 1.0, -0.0059862304, 0.0017483046, 0.0030769196, -0.0007032319], "split_indices": [6, 11, 21, 0, 0, 0, 0], "split_type": [0, 0, 0, 0, 0, 0, 0], "sum_hessian": [7148.09, 1782.683, 5365.4067, 1123.5479, 659.1352, 2741.8894, 2623.5173], "tree_param": {"num_deleted": "0", "num_feature": "23", "num_nodes": "7", "size_leaf_vector": "1"}}, {"base_weights": [-0.032875832, 0.18624787, -0.23715384, 0.0015001533, 0.009996428, -0.00597976, -0.0011520297], "categories": [], "categories_nodes": [], "categories_segments": [], "categories_sizes": [], "default_left": [0, 0, 0, 0, 0, 0, 0], "id": 105, "left_children": [1, 3, 5, -1, -1, -1, -1], "loss_changes": [315.32413, 98.192, 159.42577, 0.0, 0.0, 0.0, 0.0], "parents": [2147483647, 0, 0, 1, 1, 2, 2], "right_children": [2, 4, 6, -1, -1, -1, -1], "split_conditions": [4.0, 1.0, 1.0, 0.0015001533, 0.009996428, -0.00597976, -0.0011520297], "split_indices": [12, 10, 6, 0, 0, 0, 0], "split_type": [0, 0, 0, 0, 0, 0, 0], "sum_hessian": [7033.3647, 3391.2283, 3642.1362, 3253.4553, 137.77298, 913.0202, 2729.116], "tree_param": {"num_deleted": "0", "num_feature": "23", "num_nodes": "7", "size_leaf_vector": "1"}}, {"base_weights": [-0.0015874465, 0.22147946, -0.2073596, 0.008404612, 0.0015056076, -0.002349456, 0.012866392], "categories": [], "categories_nodes": [], "categories_segments": [], "categories_sizes": [], "default_left": [0, 0, 0, 0, 0, 0, 0], "id": 106, "left_children": [1, 3, 5, -1, -1, -1, -1], "loss_changes": [324.1605, 147.03532, 151.95906, 0.0, 0.0, 0.0, 0.0], "parents": [2147483647, 0, 0, 1, 1, 2, 2], "right_children": [2, 4, 6, -1, -1, -1, -1], "split_conditions": [4.0, 2.0, 1663.0, 0.008404612, 0.0015056076, -0.002349456, 0.012866392], "split_indices": [12, 12, 17, 0, 0, 0, 0], "split_type": [0, 0, 0, 0, 0, 0, 0], "sum_hessian": [7052.4785, 3381.5137, 3670.9648, 340.57782, 3040.9358, 3609.2056, 61.759327], "tree_param": {"num_deleted": "0", "num_feature": "23", "num_nodes": "7", "size_leaf_vector": "1"}}, {"base_weights": [0.04502602, -0.052558348, 0.49592313, -0.0042552133, 0.0007053968, -0.000474021, 0.006698716], "categories": [], "categories_nodes": [], "categories_segments": [], "categories_sizes": [], "default_left": [0, 0, 0, 0, 0, 0, 0], "id": 107, "left_children": [1, 3, 5, -1, -1, -1, -1], "loss_changes": [319.65424, 274.32904, 122.93756, 0.0, 0.0, 0.0, 0.0], "parents": [2147483647, 0, 0, 1, 1, 2, 2], "right_children": [2, 4, 6, -1, -1, -1, -1], "split_conditions": [9999.0, 1.0, 1.4166666, -0.0042552133, 0.0007053968, -0.000474021, 0.006698716], "split_indices": [16, 6, 11, 0, 0, 0, 0], "split_type": [0, 0, 0, 0, 0, 0, 0], "sum_hessian": [7246.7476, 5959.234, 1287.514, 1477.7573, 4481.4766, 311.7274, 975.7866], "tree_param": {"num_deleted": "0", "num_feature": "23", "num_nodes": "7", "size_leaf_vector": "1"}}, {"base_weights": [0.01565646, 0.2322198, -0.1874017, 0.0019708718, 0.0105989585, -0.0016200868, -0.011903116], "categories": [], "categories_nodes": [], "categories_segments": [], "categories_sizes": [], "default_left": [0, 0, 0, 0, 0, 0, 0], "id": 108, "left_children": [1, 3, 5, -1, -1, -1, -1], "loss_changes": [315.12866, 98.58493, 91.80069, 0.0, 0.0, 0.0, 0.0], "parents": [2147483647, 0, 0, 1, 1, 2, 2], "right_children": [2, 4, 6, -1, -1, -1, -1], "split_conditions": [4.0, 1.0, 4.0, 0.0019708718, 0.0105989585, -0.0016200868, -0.011903116], "split_indices": [12, 10, 22, 0, 0, 0, 0], "split_type": [0, 0, 0, 0, 0, 0, 0], "sum_hessian": [7155.126, 3464.4578, 3690.6685, 3330.4863, 133.97136, 3606.1675, 84.50098], "tree_param": {"num_deleted": "0", "num_feature": "23", "num_nodes": "7", "size_leaf_vector": "1"}}, {"base_weights": [0.013114885, -0.07196345, 0.41238898, 0.0005175673, -0.0031404754, 0.002434483, 0.008887172], "categories": [], "categories_nodes": [], "categories_segments": [], "categories_sizes": [], "default_left": [0, 0, 0, 0, 0, 0, 0], "id": 109, "left_children": [1, 3, 5, -1, -1, -1, -1], "loss_changes": [242.82333, 176.54259, 98.84973, 0.0, 0.0, 0.0, 0.0], "parents": [2147483647, 0, 0, 1, 1, 2, 2], "right_children": [2, 4, 6, -1, -1, -1, -1], "split_conditions": [9999.0, 3014.0, 1.0, 0.0005175673, -0.0031404754, 0.002434483, 0.008887172], "split_indices": [16, 16, 1, 0, 0, 0, 0], "split_type": [0, 0, 0, 0, 0, 0, 0], "sum_hessian": [7128.869, 5877.9707, 1250.8987, 3889.8254, 1988.1451, 930.5225, 320.37613], "tree_param": {"num_deleted": "0", "num_feature": "23", "num_nodes": "7", "size_leaf_vector": "1"}}, {"base_weights": [0.063400924, 0.105022155, -0.49534264, 0.00040943315, 0.0044182497, -0.0010772854, -0.0152437175], "categories": [], "categories_nodes": [], "categories_segments": [], "categories_sizes": [], "default_left": [0, 0, 0, 0, 0, 0, 0], "id": 110, "left_children": [1, 3, 5, -1, -1, -1, -1], "loss_changes": [170.46393, 146.893, 200.07596, 0.0, 0.0, 0.0, 0.0], "parents": [2147483647, 0, 0, 1, 1, 2, 2], "right_children": [2, 4, 6, -1, -1, -1, -1], "split_conditions": [1482.0, 9999.0, 1.0, 0.00040943315, 0.0044182497, -0.0010772854, -0.0152437175], "split_indices": [2, 16, 5, 0, 0, 0, 0], "split_type": [0, 0, 0, 0, 0, 0, 0], "sum_hessian": [7330.617, 6827.855, 502.76218, 5743.664, 1084.1909, 369.9172, 132.84497], "tree_param": {"num_deleted": "0", "num_feature": "23", "num_nodes": "7", "size_leaf_vector": "1"}}, {"base_weights": [0.022818705, -0.058070812, 0.4041969, -0.00017305104, -0.0078202095, 0.005027895, -0.0054603666], "categories": [], "categories_nodes": [], "categories_segments": [], "categories_sizes": [], "default_left": [0, 0, 0, 0, 0, 0, 0], "id": 111, "left_children": [1, 3, 5, -1, -1, -1, -1], "loss_changes": [218.72777, 171.46458, 117.57762, 0.0, 0.0, 0.0, 0.0], "parents": [2147483647, 0, 0, 1, 1, 2, 2], "right_children": [2, 4, 6, -1, -1, -1, -1], "split_conditions": [9999.0, 5930.0, 2.0, -0.00017305104, -0.0078202095, 0.005027895, -0.0054603666], "split_indices": [16, 16, 3, 0, 0, 0, 0], "split_type": [0, 0, 0, 0, 0, 0, 0], "sum_hessian": [7070.133, 5834.305, 1235.8274, 5529.4424, 304.86267, 1122.7427, 113.08472], "tree_param": {"num_deleted": "0", "num_feature": "23", "num_nodes": "7", "size_leaf_vector": "1"}}, {"base_weights": [0.049752053, 0.25574198, -0.14314744, 0.008275209, 0.0019580363, -0.00091926794, -0.011959327], "categories": [], "categories_nodes": [], "categories_segments": [], "categories_sizes": [], "default_left": [0, 0, 0, 0, 0, 0, 0], "id": 112, "left_children": [1, 3, 5, -1, -1, -1, -1], "loss_changes": [288.54694, 118.54193, 200.20996, 0.0, 0.0, 0.0, 0.0], "parents": [2147483647, 0, 0, 1, 1, 2, 2], "right_children": [2, 4, 6, -1, -1, -1, -1], "split_conditions": [4.0, 2.0, 1491.0, 0.008275209, 0.0019580363, -0.00091926794, -0.011959327], "split_indices": [12, 12, 2, 0, 0, 0, 0], "split_type": [0, 0, 0, 0, 0, 0, 0], "sum_hessian": [7249.278, 3507.4077, 3741.8704, 325.13004, 3182.2776, 3574.3555, 167.51488], "tree_param": {"num_deleted": "0", "num_feature": "23", "num_nodes": "7", "size_leaf_vector": "1"}}, {"base_weights": [-0.052685704, 0.16694249, -0.25379598, 0.0011848309, 0.011139921, -0.001883084, -0.006584238], "categories": [], "categories_nodes": [], "categories_segments": [], "categories_sizes": [], "default_left": [0, 0, 0, 0, 0, 0, 0], "id": 113, "left_children": [1, 3, 5, -1, -1, -1, -1], "loss_changes": [303.92603, 148.93344, 93.733215, 0.0, 0.0, 0.0, 0.0], "parents": [2147483647, 0, 0, 1, 1, 2, 2], "right_children": [2, 4, 6, -1, -1, -1, -1], "split_conditions": [4.0, 1.0, 218.0, 0.0011848309, 0.011139921, -0.001883084, -0.006584238], "split_indices": [12, 10, 0, 0, 0, 0, 0], "split_type": [0, 0, 0, 0, 0, 0, 0], "sum_hessian": [6869.142, 3281.4348, 3587.7073, 3128.0574, 153.3775, 3096.3694, 491.338], "tree_param": {"num_deleted": "0", "num_feature": "23", "num_nodes": "7", "size_leaf_vector": "1"}}, {"base_weights": [-0.03348288, -0.108895846, 0.32560667, 0.0016787468, -0.0025884951, 0.005090079, -0.00037340194], "categories": [], "categories_nodes": [], "categories_segments": [], "categories_sizes": [], "default_left": [0, 0, 0, 0, 0, 0, 0], "id": 114, "left_children": [1, 3, 5, -1, -1, -1, -1], "loss_changes": [188.97163, 239.96017, 81.13449, 0.0, 0.0, 0.0, 0.0], "parents": [2147483647, 0, 0, 1, 1, 2, 2], "right_children": [2, 4, 6, -1, -1, -1, -1], "split_conditions": [9999.0, 1581.0, 64.0, 0.0016787468, -0.0025884951, 0.005090079, -0.00037340194], "split_indices": [16, 16, 0, 0, 0, 0, 0], "split_type": [0, 0, 0, 0, 0, 0, 0], "sum_hessian": [6974.7266, 5769.362, 1205.3644, 2024.8381, 3744.524, 801.23444, 404.12988], "tree_param": {"num_deleted": "0", "num_feature": "23", "num_nodes": "7", "size_leaf_vector": "1"}}, {"base_weights": [0.050187178, 0.256969, -0.14500768, -0.0026292966, 0.003336492, -0.0022924766, 0.001877365], "categories": [], "categories_nodes": [], "categories_segments": [], "categories_sizes": [], "default_left": [0, 0, 0, 0, 0, 0, 0], "id": 115, "left_children": [1, 3, 5, -1, -1, -1, -1], "loss_changes": [295.0413, 142.04234, 105.57042, 0.0, 0.0, 0.0, 0.0], "parents": [2147483647, 0, 0, 1, 1, 2, 2], "right_children": [2, 4, 6, -1, -1, -1, -1], "split_conditions": [4.0, 2.0, 1.0, -0.0026292966, 0.003336492, -0.0022924766, 0.001877365], "split_indices": [12, 11, 20, 0, 0, 0, 0], "split_type": [0, 0, 0, 0, 0, 0, 0], "sum_hessian": [7297.3525, 3545.2224, 3752.13, 452.44165, 3092.7808, 2997.7563, 754.37366], "tree_param": {"num_deleted": "0", "num_feature": "23", "num_nodes": "7", "size_leaf_vector": "1"}}, {"base_weights": [0.05611751, -0.042685173, 0.505153, 0.0015467244, -0.002192557, 0.0005960133, 0.0065295612], "categories": [], "categories_nodes": [], "categories_segments": [], "categories_sizes": [], "default_left": [0, 0, 0, 0, 0, 0, 0], "id": 116, "left_children": [1, 3, 5, -1, -1, -1, -1], "loss_changes": [321.63278, 207.0313, 85.187225, 0.0, 0.0, 0.0, 0.0], "parents": [2147483647, 0, 0, 1, 1, 2, 2], "right_children": [2, 4, 6, -1, -1, -1, -1], "split_conditions": [9999.0, 2141.0, 1.4166666, 0.0015467244, -0.002192557, 0.0005960133, 0.0065295612], "split_indices": [16, 16, 11, 0, 0, 0, 0], "split_type": [0, 0, 0, 0, 0, 0, 0], "sum_hessian": [7231.694, 5929.3403, 1302.3535, 2797.4795, 3131.8608, 327.8459, 974.50757], "tree_param": {"num_deleted": "0", "num_feature": "23", "num_nodes": "7", "size_leaf_vector": "1"}}, {"base_weights": [0.022629015, -0.10321116, 0.53352743, -0.0002701221, -0.0075817374, 0.0065135364, 0.0021698792], "categories": [], "categories_nodes": [], "categories_segments": [], "categories_sizes": [], "default_left": [0, 0, 0, 0, 0, 0, 0], "id": 117, "left_children": [1, 3, 5, -1, -1, -1, -1], "loss_changes": [457.98108, 284.05814, 50.94043, 0.0, 0.0, 0.0, 0.0], "parents": [2147483647, 0, 0, 1, 1, 2, 2], "right_children": [2, 4, 6, -1, -1, -1, -1], "split_conditions": [9999.0, 203.0, 74.0, -0.0002701221, -0.0075817374, 0.0065135364, 0.0021698792], "split_indices": [16, 0, 0, 0, 0, 0, 0], "split_type": [0, 0, 0, 0, 0, 0, 0], "sum_hessian": [7107.529, 5704.4814, 1403.047, 5116.013, 588.46857, 1016.29956, 386.74747], "tree_param": {"num_deleted": "0", "num_feature": "23", "num_nodes": "7", "size_leaf_vector": "1"}}, {"base_weights": [0.02953453, -0.20718473, 0.11318132, 